tree
version=v4
num_class=1
num_tree_per_iteration=1
label_index=0
max_feature_idx=19
objective=binary sigmoid:1
feature_names=EDAD_PTE_OVOCITOS PROCEDENCIA_OVOCITOS PROCEDENCIA_SEMEN DIA_EMBRION GRADO_EXPANSIÓN MCI TROFODERMO DESTINO crudo_2 crudo_3 crudo_4 crudo_5 crudo_6 crudo_7 d1_2 d1_3 d1_4 d1_5 d1_6 d1_7
monotone_constraints=0 0 0 1 -1 -1 0 1 0 -1 1 0 0 1 0 0 0 0 0 0
feature_infos=[19:43] [0:1] [0:1] [0:1] [0:2] [0:1] [0:2] [0:1] [-2.3039283976982907:2.8601279994256252] [-2.8447104834535208:6.0439042912230665] [-3.1386544045696891:5.2307389528589896] [-1.8241683773960697:2.6875019769202773] [-2.2647600602824434:2.6631352784269371] [-1.7705057844636707:3.2041204837293207] [-3.8791219976213624:3.5314648762624365] [-2.0195388306121562:4.253645239448443] [-5.5947194466454375:2.9082851015965203] [-2.0216553783812352:2.2657667379520281] [-3.2619747827684158:2.0693660604314608] [-2.1248059283216141:3.156192144959499]
tree_sizes=2539 3550 2368 2472 2254 3550 2571 2680 2685 2684 2371 2794 2683 3124 2467 2467 3450 2699 2470 2558 2250 2481 2375 2591 2575 3133 2265 2482 2261 2578 2470 2790 3247 2583 2920 3361 2372 2487 3548 2371 2267 2478 2371 2169 2371 2487 3149 2274 2688 2277 2380 2369 2159 2385 2277 3459 2487 2476 1721 2265 1726 3252 2477 2812 3460 1727 2479 2588 1718 2378 2060 2590 1735 2381 3553 2267 2386 2477 1734 2375 2479 2695 2592 3455 2377 1833 1837 2165 1732 3561 1723 2477 3545 2381 1843 1838 2384 2059 1951 2375 3546 2062 3558 2923 1833 1838 2592 2283 1842 2274 2384 1736 1842 1831 1845 1734 1726 1947 1833 1840 2047 1841 2047 1945 1942 1838 2054 1838 1938 1838 1833 2055 1946 1942 3225 1735 1836 1736 1839 1833 3345 2278 1628 1844 1736 1738 1846 2052 1838 1729 2053 2808 1729 1732 1737 1946 1844 1622 3459 1845 1833 1725 1835 2285 1836 1738 1944 1733 1740 3353 1959 1946 1836 2053 1625 1734 1836 1843 2269 1845 1843 1725 1733 1731 1627 1947 1831 1731 1949 1845 1846 1731 3561 2172 1623 3453 2169 2715 1844 1840 3343 2174 3447 2167 2162 1731 3449 2379 2174 2053 1737 2273 1630 1732 2172 2489 1844 2176 3131 2271 1523 2063 2594 1945 2178 2591 1634 2279 2588 1734 1631 2171 2486 1740 2596 2708 1636 2705 2596 1952 2486 1729 2058 2589 1849 1741 2059 1628 1743 1628 1739 2593 1624 2279 2269 2382 1627 1744 1843 2381 1950 2706 1736 2280 2596 2067 2594 1741 2487 2063 1521 1948 1828 2278 2056 1738 1522 1954 1628 1738 1522 2057 1623 2278 2480 2279 1950 1524 2585 1521 2065 2596 1832 2267 2701 1742 2271 1953 2593 2373 1630 1417 2490 1739 2164 2580 1849 2484 2479 2484 1517 1631 1747 2074 2590 2924 1962 1622 2593 2172 1622 2282 2597 1961 2055 2591 2588 2591 1958 2592 1957 1851 3246 1952 3246 2065 2592 2591 2072 2485 1966 2481 2591 2587 2815 3026 1856 2471 1964 1742 2484 2282 1520 1623 1962 2268 2483 1626 1948 2284 1628 1749 1627 1861 2918 1845 1952 1632 1855 1525 2494 1627 1638 2372 1523 1954 2274 1527 2281 1850 1744 1745 1628 1415 1843 2378 3032 1523 1627 1522 1630 1945 2379 1627 2379 2378 1628 1415 2271 1421

Tree=0
num_leaves=24
num_cat=0
split_feature=0 6 19 15 3 14 13 0 10 0 17 14 0 0 0 16 9 11 16 14 15 16 15
split_gain=80.841 70.2021 76.5392 46.5164 50.1651 32.8551 30.1938 29.7977 28.2146 26.0176 25.6333 21.9923 27.436 38.2107 15.9426 14.5841 10.2898 9.48688 9.28236 4.94848 4.85936 3.22641 0.624114
threshold=20.500000000000004 1.0000000180025095e-35 0.96614263900671238 0.51452444963116195 1.0000000180025095e-35 -0.99248371436987193 -0.12194953019223061 25.500000000000004 1.4771131973088016 29.500000000000004 0.93144387987028521 0.23573408268011578 34.500000000000007 23.500000000000004 32.500000000000007 0.013252382731426355 -1.0782614740322127 -1.4627838587495179 -0.083117359923725556 -1.2803141087878827 1.0467855061023312 -0.14322518205296222 -0.93649875068942134
decision_type=2 2 2 2 2 2 2 2 2 2 2 2 2 2 2 2 2 2 2 2 2 2 2
left_child=-1 2 11 4 7 17 8 16 -7 -9 14 20 13 -13 -6 -8 -3 21 -14 -19 22 -5 -2
right_child=1 3 -4 5 10 6 15 9 -10 -11 -12 12 18 -15 -16 -17 -18 19 -20 -21 -22 -23 -24
leaf_value=0.011876606683804627 0.0080769230769230718 -0.0029032258064516127 -0.011752577319587631 0.0062068965517241385 0.00073170731707317019 -0.0095154185022026435 0.0077272727272727259 -0.0014622819602809034 -0.00091904786333555635 -0.0063954434499593161 -0.0014622819602809034 0.0062068965517241359 0.011266375545851528 -0.011715976331360949 0.011790393013100437 -0.00091904786333555635 -0.011562974203338391 0.0048803827751196177 0.0033644859813084108 -0.0023076923076923075 0.0045378151260504198 0.011724137931034479 0.011365638766519824
leaf_weight=19.25 5.0000000000000027 5.9999999999999991 9.4999999999999982 8.4999999999999982 8.0000000000000053 22.500000000000004 13.000000000000002 29 6.2499999999999991 61.25 9.2499999999999982 8.5000000000000018 11.25 8.2499999999999982 11.249999999999998 6.9999999999999991 32.75 10.249999999999998 10.5 4.9999999999999991 5.7499999999999991 8.5000000000000018 22.5
leaf_count=77 20 24 38 34 32 90 52 116 25 245 37 34 45 33 45 28 131 41 42 20 23 34 90
internal_value=0 -0.000721988 0.0040884 -0.0023628 -0.00426126 0.00133005 -0.00177732 -0.00585139 -0.00569948 -0.00394693 0.00292683 0.00621265 0.00310078 -0.00265487 0.00724936 0.00386139 -0.0102439 0.00600924 0.00751708 0.00252427 0.00977578 0.00906977 0.0108303
internal_weight=0 319.75 81.25 238.5 157.5 81 48.75 129 28.75 90.25 28.5 71.75 38.5 16.75 19.25 20 38.75 32.25 21.75 15.25 33.25 17 27.5
internal_count=1356 1279 325 954 630 324 195 516 115 361 114 287 154 67 77 80 155 129 87 61 133 68 110
is_linear=0
shrinkage=0.006


Tree=1
num_leaves=32
num_cat=0
split_feature=19 6 15 10 13 3 14 6 14 8 10 8 14 14 16 17 11 6 12 14 16 15 15 8 15 16 14 10 15 14 17
split_gain=55.5288 70.6456 38.9244 35.4554 51.8467 23.4397 24.82 21.3176 19.5486 18.9103 17.1971 16.7423 30.662 19.1901 15.3036 18.8083 26.5681 11.1984 7.0693 7.01219 6.99007 6.91342 6.19232 5.75144 4.75096 1.83105 1.50036 1.27562 0.60366 0.415666 0.0629231
threshold=0.88083217840982286 1.0000000180025095e-35 0.51452444963116195 0.061473668347464615 -0.34073496746320492 1.0000000180025095e-35 0.53011952937256324 1.5000000000000002 0.23573408268011578 1.7149259506029508 -0.031386659011581594 -0.41558684438369659 -0.25236989993985565 -1.1263448561259604 -0.05573808034555465 0.79604445941397761 0.48899852739022875 1.5000000000000002 0.34352463085748675 -0.66070713917612445 0.87771208151557467 1.1029583579934414 1.3811336467430493 -0.031813588621305379 1.0467855061023312 -0.20648680468333466 -0.44250508697207408 -0.29926874202812342 -0.92447411413502867 0.57501404314991678 0.50675191735626057
decision_type=2 2 2 2 2 2 2 2 2 2 2 2 2 2 2 2 2 2 2 2 2 2 2 2 2 2 2 2 2 2 2
left_child=1 8 5 20 19 7 18 10 24 -9 -3 13 17 25 23 16 -16 -13 -7 -5 26 -14 -15 29 28 -4 -2 -8 -1 -10 -28
right_child=3 2 11 4 -6 6 27 9 14 -11 -12 12 21 22 15 -17 -18 -19 -20 -21 -22 -23 -24 -25 -26 -27 30 -29 -30 -31 -32
leaf_value=0.0080285666649646901 -0.0069058581462076796 -0.0044737467475413255 0.0073088378223469105 0.003451495831082296 0.011710975482998147 0.0058013746619694963 0.0068851453753947505 -0.0098282185530613447 0.0080276804153566559 -0.00036571646940759421 -0.00036571646940759421 -0.00050449595461116354 0.00096164059749007276 0.0043023818059447329 -0.0058157693633804804 -0.0081515121971095124 0.010367888222077846 -0.01166842750423982 -0.00036571646940759421 -0.0045005801072170492 -0.0045005801072170492 0.0094724034240518257 -0.0030120411165871991 0.0022707574142875222 0.0045115257406382874 0.01174821916673058 -0.011798387233768696 0.011610869174811784 0.011284133781214038 0.011550268373729718 -0.0096124036632671082
leaf_weight=4.9999103546142605 4.9999320507049587 49.749276578426361 6.7499491572380093 4.9999348670244208 8.9998200237750989 7.99979116022587 4.9998947829008102 26.249643325805668 4.9998962134122831 4.9999851733446112 39.999176248908043 5.7499372959136981 5.9999130070209485 10.249876856803896 5.9999578297138241 6.7498025298118582 8.74992887675762 7.2499195039272308 7.9999878853559494 9.9998223036527651 4.9998893141746512 7.9998303055763245 6.7499125003814688 4.9998687654733649 5.7499705255031577 11.749732345342634 15.499654054641725 6.249946787953375 21.999289274215698 5.9998207688331604 8.4998362362384778
leaf_count=20 20 199 27 20 36 32 20 105 20 20 160 23 24 41 24 27 35 29 32 40 20 32 27 20 23 47 62 25 88 24 34
internal_value=0 0.00110557 -0.000632637 -0.00533317 0.00025512 -0.00230631 0.00270637 -0.0034378 0.00630723 -0.00769077 -0.00194315 0.00333201 -0.000231488 0.00602838 0.00332217 3.82205e-06 0.00379497 -0.006813 -0.000365716 -0.00450058 -0.00925628 0.00588984 0.00139687 0.00772614 0.00968434 0.0102239 -0.0104374 0.00966752 0.0107447 0.010121 -0.01111
internal_weight=0 280.995 210.747 57.9989 23.9996 148.248 27.2496 120.998 70.2484 31.2496 89.7485 62.4991 26.9996 35.4995 37.4993 21.4997 14.7499 12.9999 15.9998 14.9998 33.9993 13.9997 16.9998 15.9996 32.7492 18.4997 28.9994 11.2498 26.9992 10.9997 23.9995
internal_count=1356 1124 843 232 96 593 109 484 281 125 359 250 108 142 150 86 59 52 64 60 136 56 68 64 131 74 116 45 108 44 96
is_linear=0
shrinkage=0.006


Tree=2
num_leaves=21
num_cat=0
split_feature=0 0 14 8 16 10 11 16 8 8 11 17 8 16 16 17 8 17 18 15
split_gain=79.7263 59.3818 75.78 51.9557 40.2393 57.0757 31.3601 26.176 24.9622 22.8135 22.1692 23.6242 17.9856 11.9601 9.9666 8.84849 7.90405 4.24455 4.22136 0.362278
threshold=20.500000000000004 38.500000000000007 -0.64435355571146358 -0.31684201420581098 0.89608955866857942 -0.13351419820416785 -0.68313815988615245 -0.083117359923725556 0.76218278803777451 -1.2910318812802888 0.35906905053337984 0.92244704401569344 -0.29131977416173799 1.0000000180025095e-35 0.2280283411265985 0.75049764216020365 -1.251456986279939 0.17671474736776341 -1.2562522869969068 0.12897983627063872
decision_type=2 2 2 2 2 2 2 2 2 2 2 2 2 2 2 2 2 2 2 2
left_child=-1 2 3 13 5 18 -7 -5 9 -3 -6 -12 19 16 -14 -9 -2 -15 -4 -11
right_child=1 8 4 7 10 6 -8 15 -10 12 11 -13 14 17 -16 -17 -18 -19 -20 -21
leaf_value=0.01179533217975781 0.0078541447281656289 -0.0068812763635476525 -0.0065362456326361375 0.0067991495963999008 -0.0092835750447184794 -0.0065362456326361375 0.00016275986278327709 -0.009167047300963866 -0.006207336617298281 0.0081897037551743948 0.0073771499289657164 -0.0048554013721916478 0.00096080088209414484 0.011235687564978926 0.0071659325988397016 -0.0011128832929252822 -0.0012471006302385598 0.0049234755249732282 -0.011004369095690754 0.011086769427792825
leaf_weight=19.248945981264114 6.2497518509626389 4.9997517466545096 4.9998725354671469 7.2495790123939541 5.2497267872095099 35.748184263706207 56.248376667499542 13.499494463205339 7.4997632503509513 5.2496322691440609 19.998733744025234 7.7492899000644675 21.248992383480072 20.998232036828998 16.499002322554588 7.7497368156909934 7.2497421950101835 5.2497558742761603 48.746729508042336 17.248697891831398
leaf_count=77 25 20 20 29 21 143 225 54 30 21 80 31 85 84 66 31 29 21 195 69
internal_value=0 -0.000716442 -0.00211981 0.00325211 -0.00417224 -0.00552547 -0.00264544 -0.00291929 0.00404104 0.00523441 0.0018019 0.00395062 0.00625932 0.00766945 0.00369643 -0.00626741 0.00301958 0.01002 -0.0104271 0.0104889
internal_weight=0 319.733 246.987 68.2463 178.741 145.743 91.9966 28.4988 72.7458 65.2461 32.9978 27.748 60.2463 39.7475 37.748 21.2492 13.4995 26.248 53.7466 22.4983
internal_count=1356 1279 988 273 715 583 368 114 291 261 132 111 241 159 151 85 54 105 215 90
is_linear=0
shrinkage=0.006


Tree=3
num_leaves=22
num_cat=0
split_feature=0 6 19 0 18 0 0 18 11 14 0 0 3 14 14 18 11 13 14 17 18
split_gain=78.7923 68.1155 74.2306 41.1493 46.6198 45.7091 54.6264 41.1681 33.2229 21.3775 26.7873 37.2113 16.515 12.6068 11.1055 10.0669 8.8343 6.21637 4.04861 3.6713 0.586915
threshold=20.500000000000004 1.0000000180025095e-35 0.96614263900671238 25.500000000000004 1.0000000180025095e-35 29.500000000000004 38.500000000000007 -0.52489449945005984 1.5130770556580504 0.23573408268011578 34.500000000000007 23.500000000000004 1.0000000180025095e-35 -0.32275999998685106 1.0643680308470027 -1.3962129804697883 0.16559225393382285 0.16489259374448315 0.1339582592621355 0.77143069920700336 0.6612367799759703
decision_type=2 2 2 2 2 2 2 2 2 2 2 2 2 2 2 2 2 2 2 2 2
left_child=-1 2 9 7 8 18 -7 13 12 19 11 -11 -5 17 -9 -15 -12 -3 -6 20 -2
right_child=1 3 -4 4 5 6 -8 14 -10 10 16 -13 -14 15 -16 -17 -18 -19 -20 -21 -22
leaf_value=0.011726639259773641 0.011424889256479342 3.8817160326816958e-05 -0.011575765577859092 -0.0068997165888205177 0.0066989112037506363 -0.0050530699538421263 0.0057468918478533306 -0.011617142807743138 0.0088275516900772483 0.0061084650714555364 0.0034497349011091507 -0.011579685450785422 0.00038817720689679605 0.0034555832801578764 -0.0036190415293681647 -0.0064117613761486818 0.011157812131928874 0.009190617713010038 0.011783489733416931 0.0059208626971227274 0.008260033868989233
leaf_weight=19.246710896492004 19.496513560414318 5.4996711909770983 9.4976794868707639 55.246102005243301 13.998172551393511 39.246548548340797 29.246712684631348 32.745457693934441 6.2498373389244071 8.4992062002420443 10.748498901724817 8.2486722320318204 13.999530225992201 4.9999166727066067 7.9994841367006293 13.24902483820915 10.999127879738806 4.9997880160808563 10.999843329191206 8.2490868270397169 5.4988510161638251
leaf_count=77 78 22 38 221 56 157 117 131 25 34 43 33 56 20 32 53 44 20 44 33 22
internal_value=0 -0.000712317 0.00402644 -0.00232858 -0.000727762 0.00210251 -0.000438167 -0.00620804 -0.00422897 0.00611846 0.0030503 -0.00263715 -0.00542943 -0.000699613 -0.0100722 -0.00370011 0.00741434 0.00448719 0.00901204 0.00963176 0.0107997
internal_weight=0 319.718 81.2376 238.48 168.987 93.4913 68.4933 69.4933 75.4955 71.74 38.4955 16.7479 69.2456 28.7484 40.7449 18.2489 21.7476 10.4995 24.998 33.2445 24.9954
internal_count=1356 1279 325 954 676 374 274 278 302 287 154 67 277 115 163 73 87 42 100 133 100
is_linear=0
shrinkage=0.006


Tree=4
num_leaves=20
num_cat=0
split_feature=0 6 19 0 8 2 18 11 10 8 18 14 0 0 0 14 11 17 18
split_gain=77.8708 67.3127 73.3707 40.6664 52.3422 72.6589 40.6902 37.931 29.1989 28.1314 22.2004 21.1303 26.4752 36.7818 16.6526 10.9768 8.73253 3.62932 0.579326
threshold=20.500000000000004 1.0000000180025095e-35 0.96614263900671238 25.500000000000004 -0.31684201420581098 1.0000000180025095e-35 -0.52489449945005984 1.5130770556580504 -0.047059744092335008 -0.73380810273013097 -1.4554476873897844 0.23573408268011578 34.500000000000007 23.500000000000004 38.500000000000007 1.0643680308470027 0.16559225393382285 0.77143069920700336 0.6612367799759703
decision_type=2 2 2 2 2 2 2 2 2 2 2 2 2 2 2 2 2 2 2
left_child=-1 2 11 6 5 -5 9 8 -6 -3 -11 17 13 -13 -7 -8 -14 18 -2
right_child=1 3 -4 4 7 14 15 -9 -10 10 -12 12 16 -15 -16 -17 -18 -19 -20
leaf_value=0.01165913663299986 0.011359038447547234 0.0087316516652876878 -0.011510121354889335 -0.011647175862438854 -0.008066271021125759 0.0038467785760071121 -0.011549703508755123 0.010648184497682877 -0.0013816717576664954 0.0055115935165762873 -0.0081924434924145906 0.0060730195064379157 0.0034295356675337653 -0.011513768131017761 0.010978890016612241 -0.003597911710217885 0.011093362950878495 0.0058865650324781103 0.0082132707944385114
leaf_weight=19.243161916732788 19.493051156401638 7.9994697868824032 9.4956815987825376 9.7490308284759504 42.744092166423798 41.495137602090836 32.740222677588463 6.2497217357158652 52.245961084961891 5.7497803717851683 14.998314037919041 8.4986884146928805 10.74811325967312 8.2472700327634794 16.496304586529732 7.9993598610162726 10.99781686067581 8.2485338598489744 5.498119205236434
leaf_count=77 78 32 38 39 171 166 131 25 209 23 60 34 43 33 66 32 44 33 22
internal_value=0 -0.00070796 0.00400314 -0.00231467 -0.000723271 0.00335324 -0.0061715 -0.00345214 -0.00440027 -0.000695176 -0.00437837 0.00608304 0.00303257 -0.00262202 0.00590635 -0.0100135 0.00737123 0.00957626 0.0107377
internal_weight=0 319.695 81.2273 238.467 168.98 67.7405 69.4871 101.24 94.9901 28.7476 20.7481 71.7316 38.4919 16.746 57.9914 40.7396 21.7459 33.2397 24.9912
internal_count=1356 1279 325 954 676 271 278 405 380 115 83 287 154 67 232 163 87 133 100
is_linear=0
shrinkage=0.006


Tree=5
num_leaves=32
num_cat=0
split_feature=19 6 15 10 13 3 14 6 14 8 10 8 14 14 16 17 11 6 12 16 9 15 15 18 15 16 18 10 15 8 19
split_gain=53.3075 67.6983 37.3497 33.957 50.4852 22.7528 24.3698 20.5032 18.7771 18.5366 16.6582 16.3301 29.7754 18.6278 14.897 17.9152 26.0161 11.0469 6.90262 6.75911 6.71193 6.6654 6.08911 5.66965 4.68045 1.77523 1.70159 1.30324 0.617612 0.425385 0.0176274
threshold=0.88083217840982286 1.0000000180025095e-35 0.51452444963116195 0.061473668347464615 -0.34073496746320492 1.0000000180025095e-35 0.53011952937256324 1.5000000000000002 0.23573408268011578 1.7149259506029508 -0.031386659011581594 -0.41558684438369659 -0.25236989993985565 -1.1263448561259604 -0.05573808034555465 0.79604445941397761 0.48899852739022875 1.5000000000000002 0.34352463085748675 0.87771208151557467 -0.13769283911053407 1.1029583579934414 1.3811336467430493 -0.64559522020594362 1.0467855061023312 -0.20648680468333466 -0.51037968304245906 -0.29926874202812342 -0.92447411413502867 -0.27155717372387417 -0.040010680308216875
decision_type=2 2 2 2 2 2 2 2 2 2 2 2 2 2 2 2 2 2 2 2 2 2 2 2 2 2 2 2 2 2 2
left_child=1 8 5 19 20 7 18 10 24 -9 -3 13 17 25 23 16 -16 -13 -7 26 -5 -14 -15 -10 28 -4 -2 -8 -1 -25 -30
right_child=3 2 11 4 -6 6 27 9 14 -11 -12 12 21 22 15 -17 -18 -19 -20 -21 -22 -23 -24 29 -26 -27 -28 -29 30 -31 -32
leaf_value=0.0078342952745599753 -0.0077334772396681368 -0.0043960336626297095 0.0071926868609640676 0.003418219769851218 0.011557061518268059 0.005763011379047037 0.0067882415080326493 -0.009666303976532167 0.0021823401180748304 -0.00034669310409374645 -0.00034669310409374645 -0.00047505034294021114 0.00094036536130071978 0.0042469753355622855 -0.0058327693512124565 -0.0079856238492136983 0.010182650186085154 -0.011562747932742914 -0.00034669310409374645 -0.0044126768023004031 -0.0044126768023004031 0.0092979747193287342 -0.0030064483445749642 0.011400117410966483 0.0043588693411445428 0.011564046931327249 -0.011311321902927787 0.01153911390974704 0.011576918717508931 0.0078886712803199199 0.0091163613207023934
leaf_weight=4.9975968003273037 9.2462175786495227 49.738208502531052 6.7486433982849148 4.9990725368261346 8.9972595870494825 7.9990705698728579 4.9988579899072647 26.241073399782184 4.998770236968995 4.9996481239795676 39.991510272026062 5.749607130885126 5.9992071688175184 10.248097851872446 5.99918965995312 6.7465740144252768 8.7467376440763456 7.249003142118454 7.999465599656105 4.9985395967960349 9.9974459409713745 7.9962417632341385 6.7494548708200446 5.9978827089071265 5.7485086619853965 11.74486507475376 19.738532096147537 6.2491561472415906 16.73983304202557 4.9981563836336109 5.2475607693195334
leaf_count=20 37 199 27 20 36 32 20 105 20 20 160 23 24 41 24 27 35 29 32 20 40 32 27 24 23 47 79 25 67 20 21
internal_value=0 0.00108263 -0.000618999 -0.00522714 0.000242256 -0.00225863 0.00268022 -0.00337361 0.00617573 -0.00754518 -0.00190767 0.00326506 -0.000254443 0.00592838 0.00324987 -2.44172e-05 0.00367612 -0.0067399 -0.000346693 -0.00906761 -0.00441268 0.00577917 0.00136529 0.00759556 0.00948643 0.0100629 -0.0102308 0.0095832 0.0105386 0.00997345 0.0110771
internal_weight=0 280.923 210.702 57.9771 23.9938 148.217 27.2466 120.97 70.2208 31.2407 89.7297 62.4851 26.9941 35.4911 37.4873 21.4925 14.7459 12.9986 15.9985 33.9833 14.9965 13.9954 16.9976 15.9948 32.7335 18.4935 28.9847 11.248 26.985 10.996 21.9874
internal_count=1356 1124 843 232 96 593 109 484 281 125 359 250 108 142 150 86 59 52 64 136 60 56 68 64 131 74 116 45 108 44 88
is_linear=0
shrinkage=0.006


Tree=6
num_leaves=23
num_cat=0
split_feature=0 6 19 15 3 14 12 0 0 17 0 8 14 0 0 0 19 9 11 15 17 15
split_gain=76.8344 65.8574 71.793 43.7257 47.365 31.1954 32.1375 28.79 25.2659 24.9566 24.3104 22.4056 20.6578 26.0084 36.1028 15.3839 14.4134 10.0438 8.63937 4.68294 2.22057 0.607167
threshold=20.500000000000004 1.0000000180025095e-35 0.96614263900671238 0.51452444963116195 1.0000000180025095e-35 -0.99248371436987193 -1.4370987292900816 25.500000000000004 29.500000000000004 0.93144387987028521 38.500000000000007 -0.42341462613442277 0.23573408268011578 34.500000000000007 23.500000000000004 32.500000000000007 0.55559831619900468 -1.0782614740322127 0.16559225393382285 1.0467855061023312 -1.4300174100469707 -0.93649875068942134
decision_type=2 2 2 2 2 2 2 2 2 2 2 2 2 2 2 2 2 2 2 2 2 2
left_child=-1 2 12 4 7 11 -7 17 -9 15 -8 20 19 14 -14 -6 -13 -3 -15 21 -5 -2
right_child=1 3 -4 5 9 6 10 8 -10 -11 -12 16 13 18 -16 -17 -18 -19 -20 -21 -22 -23
leaf_value=0.011582417688405754 0.0078114644175679643 -0.0027502041680966529 -0.011393096376987188 0.010802134851536409 0.00073110200627685845 -0.011522761856221428 -0.0015435473148770688 -0.0014143243188353264 -0.0062356503545484068 -0.0014143243188353264 0.010645946465472348 -0.0063983383906540967 0.0060076107008374385 0.0033787432954623638 -0.0114186883485007 0.011595734247752147 0.0068120389378202653 -0.011301769815461011 0.011001383883990487 0.0043338994597628411 0.0058636666476174311 0.011028831891987461
leaf_weight=19.23701536655426 4.9970785677433041 5.9981438517570487 9.4903565198183042 15.241064831614493 7.9992709457874343 9.4955911338329297 32.243274837732315 28.99489289522171 61.233807966113091 9.2494181245565397 6.9975892901420584 6.7488121688365919 8.4970072358846682 10.746131092309954 8.2439998984336835 11.24591089785099 4.9990185499191284 32.731508910655975 10.994328856468199 5.7480924725532523 5.2482824027538326 22.480526879429817
leaf_count=77 20 24 38 61 32 38 129 116 245 37 28 27 34 43 33 45 20 131 44 23 21 90
internal_value=0 -0.00070401 0.00395685 -0.00229328 -0.00413416 0.00128768 -0.00174047 -0.00567962 -0.00380786 0.00285097 0.000673094 0.00584818 0.00601444 0.00299798 -0.00260735 0.00713381 -0.000757036 -0.0099983 0.00729872 0.00946921 0.00960607 0.0105044
internal_weight=0 319.624 81.1975 238.427 157.453 80.9736 48.7365 128.958 90.2287 28.4946 39.2409 32.2372 71.7072 38.4815 16.741 19.2452 11.7478 38.7297 21.7405 33.2257 20.4893 27.4776
internal_count=1356 1279 325 954 630 324 195 516 361 114 157 129 287 154 67 77 47 155 87 133 82 110
is_linear=0
shrinkage=0.006


Tree=7
num_leaves=24
num_cat=0
split_feature=0 6 19 15 3 14 13 0 0 17 8 14 0 0 0 0 18 16 9 16 15 17 15
split_gain=75.9384 65.0685 70.9712 43.1901 46.6699 30.833 28.8885 28.5132 25.0191 24.7332 22.1484 20.4226 25.7075 35.691 19.9366 15.2089 14.2536 14.0788 9.92987 9.04033 4.63088 2.19536 0.600006
threshold=20.500000000000004 1.0000000180025095e-35 0.96614263900671238 0.51452444963116195 1.0000000180025095e-35 -0.99248371436987193 -0.12194953019223061 25.500000000000004 29.500000000000004 0.93144387987028521 -0.42341462613442277 0.23573408268011578 34.500000000000007 23.500000000000004 38.500000000000007 32.500000000000007 0.77331021653038878 0.013252382731426355 -1.0782614740322127 -0.083117359923725556 1.0467855061023312 -1.4300174100469707 -0.93649875068942134
decision_type=2 2 2 2 2 2 2 2 2 2 2 2 2 2 2 2 2 2 2 2 2 2 2
left_child=-1 2 11 4 7 10 14 18 -9 15 21 20 13 -13 -7 -6 -12 -8 -3 -14 22 -5 -2
right_child=1 3 -4 5 9 6 17 8 -10 -11 16 12 19 -15 -16 -17 -18 -19 -20 -21 -22 -23 -24
leaf_value=0.011517386792886452 0.007767881989936643 -0.0027343370824142441 -0.011330509013919516 0.010741109099788404 0.00072682261554874708 -0.0085645573975368233 0.0075877185928529007 -0.0014086192564340804 -0.00619893991490739 -0.0014086192564340804 -0.0063625432304874763 0.0059730506000056196 0.010957388141073649 -0.011355469578998431 -0.00089103453964127662 0.011529977932298291 0.006774828302915265 -0.00089103453964127662 -0.01123756781016484 0.00316238178589885 0.0043091104995382126 0.0058303764498949537 0.010967073001286732
leaf_weight=19.230707854032516 4.996089622378352 5.9979140758514395 9.4866382330656034 15.236839964985846 7.9992696344852492 22.740161240100864 12.996594429016115 28.99455563724041 61.228060185909271 9.2494030147790891 6.7484661638736707 8.4960539042949694 11.241736650466917 8.241278335452078 5.9972519874572745 11.243334904313087 4.9986187070608139 6.9983900040388098 32.722168311476707 10.495185092091562 5.7476244121789923 5.2477229982614544 22.472627803683281
leaf_count=77 20 24 38 61 32 91 52 116 245 37 27 34 45 33 24 45 20 28 131 42 23 21 90
internal_value=0 -0.000699114 0.0039344 -0.00227885 -0.00410853 0.00128033 -0.00173023 -0.00564272 -0.00378006 0.00282548 0.00581472 0.00598027 0.00298082 -0.00259266 -0.00556775 0.00709271 -0.000752499 0.00378568 -0.0099412 0.00725689 0.00941587 0.00955162 0.0104456
internal_weight=0 319.576 81.1772 238.399 157.435 80.964 48.7324 128.943 90.2226 28.492 32.2316 71.6906 38.4743 16.7373 28.7374 19.2426 11.7471 19.995 38.7201 21.7369 33.2163 20.4846 27.4687
internal_count=1356 1279 325 954 630 324 195 516 361 114 129 287 154 67 115 77 47 80 155 87 133 82 110
is_linear=0
shrinkage=0.006


Tree=8
num_leaves=24
num_cat=0
split_feature=0 6 19 15 3 14 12 0 0 14 0 8 14 0 0 19 12 16 14 15 17 11 15
split_gain=75.052 64.2786 70.1622 42.6897 45.9851 30.4524 31.5743 28.2425 24.7754 24.7122 23.963 21.8955 20.1912 25.4108 35.2858 14.0984 12.7383 8.94007 8.81411 4.58013 2.17086 1.25391 0.593137
threshold=20.500000000000004 1.0000000180025095e-35 0.96614263900671238 0.51452444963116195 1.0000000180025095e-35 -0.99248371436987193 -1.4370987292900816 25.500000000000004 29.500000000000004 0.53011952937256324 38.500000000000007 -0.42341462613442277 0.23573408268011578 34.500000000000007 23.500000000000004 0.55559831619900468 0.34352463085748675 -0.083117359923725556 -0.47504027412573652 1.0467855061023312 -1.4300174100469707 0.37754244704899514 -0.93649875068942134
decision_type=2 2 2 2 2 2 2 2 2 2 2 2 2 2 2 2 2 2 2 2 2 2 2
left_child=-1 2 12 4 7 11 -7 18 -9 16 -8 20 19 14 -14 -13 -6 -15 -3 22 -5 -11 -2
right_child=1 3 -4 5 9 6 10 8 -10 21 -12 15 13 17 -16 -17 -18 -19 -20 -21 -22 -23 -24
leaf_value=0.011453455239987684 0.0077247593902793881 -0.003378927269136829 -0.011268953553447073 0.010681023074730791 0.0056833311792423733 -0.011415973840157561 -0.0015258330515447497 -0.0014029770960450301 -0.0061625608973513175 0.011394111218583195 0.010577612183380549 -0.0063275617931220695 0.005938789656831347 0.010896276477908057 -0.011293295384645968 0.0067386326409502404 -0.0014029770960450301 0.0031439390408340259 -0.011168248013191689 0.0042845001065836301 0.0057973676474725906 0.0067546628528770787 0.010906292183523656
leaf_weight=19.223160833120346 4.994955480098727 6.4970193207263938 9.4823324829339963 15.231759414076803 8.9957865327596718 9.4910973608493787 32.240546405315399 28.994190827012062 61.22116731107235 6.4954081028699857 6.9957622438669196 6.7479937225580198 8.4949545264244097 11.238089561462401 8.238040551543234 4.9981064796447754 7.9992764294147483 10.494585335254671 32.211458295583725 5.7471056133508673 5.2470774352550533 4.9981993734836578 22.463422492146492
leaf_count=77 20 26 38 61 36 38 129 116 245 26 28 27 34 45 33 20 32 42 129 23 21 20 90
internal_value=0 -0.000693826 0.00391224 -0.00226397 -0.00408315 0.00127478 -0.0017172 -0.00560616 -0.00375247 0.00280021 0.000674889 0.00578166 0.00594653 0.00296387 -0.00257815 -0.000748004 -0.00140298 0.00721552 -0.00988494 0.00936326 0.00949791 0.0095266 0.0103876
internal_weight=0 319.518 81.1535 238.365 157.413 80.9523 48.7274 128.924 90.2154 28.4887 39.2363 32.2249 71.6712 38.4657 16.733 11.7461 16.9951 21.7327 38.7085 33.2055 20.4788 11.4936 27.4584
internal_count=1356 1279 325 954 630 324 195 516 361 114 157 129 287 154 67 47 68 87 155 133 82 46 110
is_linear=0
shrinkage=0.006


Tree=9
num_leaves=24
num_cat=0
split_feature=0 6 19 15 3 14 12 0 13 14 0 8 14 0 0 19 12 9 16 15 16 11 15
split_gain=74.1918 63.526 69.3658 42.1841 45.2514 30.1007 31.2175 27.9778 24.5493 24.5309 23.6892 21.6468 19.9637 25.1184 34.887 13.9368 12.6018 9.74215 8.84206 4.53063 1.94753 1.24036 0.586548
threshold=20.500000000000004 1.0000000180025095e-35 0.96614263900671238 0.51452444963116195 1.0000000180025095e-35 -0.99248371436987193 -1.4370987292900816 25.500000000000004 0.14700543958836018 0.53011952937256324 38.500000000000007 -0.42341462613442277 0.23573408268011578 34.500000000000007 23.500000000000004 0.55559831619900468 0.34352463085748675 -1.0782614740322127 -0.083117359923725556 1.0467855061023312 -0.070026706779000233 0.37754244704899514 -0.93649875068942134
decision_type=2 2 2 2 2 2 2 2 2 2 2 2 2 2 2 2 2 2 2 2 2 2 2
left_child=-1 2 12 4 7 11 -7 17 -9 16 -8 20 19 14 -14 -13 -6 -3 -15 22 -5 -11 -2
right_child=1 3 -4 5 9 6 10 8 -10 21 -12 15 13 18 -16 -17 -18 -19 -20 -21 -22 -23 -24
leaf_value=0.01139059757691166 0.0076820890316066847 -0.0026916634377034364 -0.011208405725522482 0.0072039729496946757 0.0056505240643371793 -0.011353012771649042 -0.001516744295843038 -0.0068676146085571875 -0.0014001515539807982 0.011330901051818585 0.010518632021991946 -0.0062912464277472191 0.0059048235872068136 0.010836121841910618 -0.011232140840630058 0.0067005347525296534 -0.0014001515539807982 -0.011114325882749224 0.0031256180198454518 0.0042600660007996458 0.011310133846439707 0.0067164151209896349 0.010846465978489537
leaf_weight=19.214396253228188 4.9936785399913814 5.9970969408750525 9.4774495810270292 9.7411598563194275 8.9948917627334648 9.4875897318124753 32.240337178111076 45.724991053342819 44.481959789991379 6.493574306368826 6.9939058423042288 6.7473802119493467 8.4937112480402011 11.233795657753943 8.234296113252638 4.9975043386220932 7.9991940110921851 32.697873428463936 10.493937268853189 5.7465370595455161 10.731026917695999 4.9976429790258408 22.452935114502907
leaf_count=77 20 24 38 39 36 38 129 183 178 26 28 27 34 45 33 20 32 131 42 23 43 20 90
internal_value=0 -0.000689516 0.00389037 -0.00225047 -0.00405898 0.00126756 -0.00170715 -0.00556995 -0.00372508 0.00276965 0.000671152 0.005749 0.00591322 0.00294711 -0.00256382 -0.00074355 -0.00140015 -0.0098295 0.00717462 0.00931135 0.00944492 0.00947324 0.0103305
internal_weight=0 319.452 81.1263 238.326 157.387 80.9389 48.7218 128.902 90.207 28.4853 39.2342 32.2171 71.6489 38.4557 16.728 11.7449 16.9941 38.695 21.7277 33.1932 20.4722 11.4912 27.4466
internal_count=1356 1279 325 954 630 324 195 516 361 114 157 129 287 154 67 47 68 155 87 133 82 46 110
is_linear=0
shrinkage=0.006


Tree=10
num_leaves=21
num_cat=0
split_feature=0 6 19 0 11 17 2 16 11 16 14 14 0 0 16 3 16 17 0 0
split_gain=73.3548 62.804 68.5817 38.3987 34.0798 31.0758 44.5997 30.3026 23.1516 24.9674 22.584 19.7398 24.8301 34.4944 13.7236 10.7951 8.74622 3.58162 1.18814 0.435918
threshold=20.500000000000004 1.0000000180025095e-35 0.96614263900671238 25.500000000000004 0.20236038478502275 0.050233894385595328 1.0000000180025095e-35 -0.82382706819625884 1.5130770556580504 -0.3686583569691087 -0.37323590523205302 0.23573408268011578 34.500000000000007 23.500000000000004 -0.65359446280775046 1.0000000180025095e-35 -0.083117359923725556 0.77143069920700336 36.000000000000007 24.500000000000004
decision_type=2 2 2 2 2 2 2 2 2 2 2 2 2 2 2 2 2 2 2 2
left_child=-1 2 11 4 14 6 18 -8 9 -7 -6 17 13 -13 -3 -12 -14 19 -5 -2
right_child=1 3 -4 5 10 8 7 -9 -10 -11 15 12 16 -15 -16 -17 -18 -19 -20 -21
leaf_value=0.011328786003633089 0.0087895687964521033 -0.0021973963878637206 -0.011148841219429155 -0.0066600191490593921 0.0065991171146978682 0.0017811480698687366 -0.002149025837494197 0.0060926712079213789 0.00840631136428595 -0.006075291311688622 -0.0071913955029068366 0.0058711469965391097 0.010776901323506274 -0.011171981290565859 -0.011269180943720414 0.0027068604826167688 0.0031074181266109216 0.0056057642786154398 -0.011263157312375252 0.01128339604680019
leaf_weight=19.204437375068665 9.4810977131128329 7.4927003979682913 9.4720004051923734 4.9952995330095273 9.2450914233922976 19.241571724414825 23.235578536987305 51.200754046440125 5.4989576190710059 58.708679541945457 14.981375277042391 8.4923270046710986 11.228867158293722 8.230054169893263 32.440109148621559 5.2489001452922812 10.493241533637049 8.2376107573509199 5.9937844276428223 15.460661754012106
leaf_count=77 38 30 38 20 37 77 93 205 22 235 60 34 45 33 130 21 42 33 24 62
internal_value=0 -0.000685973 0.00386878 -0.00223806 -0.0059882 -0.00069147 0.00185041 0.00352113 -0.00329174 -0.00413638 -0.00108159 0.00588032 0.00293055 -0.00254967 -0.00958645 -0.00462186 0.00713417 0.00926013 -0.00932716 0.0104129
internal_weight=0 319.379 81.0959 238.283 69.4082 168.875 85.4254 74.4363 83.4492 77.9503 29.4754 71.6239 38.4445 16.7224 39.9328 20.2303 21.7221 33.1794 10.9891 24.9418
internal_count=1356 1279 325 954 278 676 342 298 334 312 118 287 154 67 160 81 87 133 44 100
is_linear=0
shrinkage=0.006


Tree=11
num_leaves=25
num_cat=0
split_feature=0 6 19 15 3 14 13 0 10 0 14 8 14 0 0 16 18 16 14 17 15 17 11 15
split_gain=72.5259 62.0794 67.8098 41.3346 44.4241 29.4354 28.1272 27.3689 26.6341 24.394 24.3367 21.3464 19.5196 24.5458 34.108 13.8835 13.8173 8.6525 8.56182 6.79767 4.47586 2.13236 1.2298 0.584465
threshold=20.500000000000004 1.0000000180025095e-35 0.96614263900671238 0.51452444963116195 1.0000000180025095e-35 -0.99248371436987193 -0.12194953019223061 25.500000000000004 1.4771131973088016 29.500000000000004 0.53011952937256324 -0.42341462613442277 0.23573408268011578 34.500000000000007 23.500000000000004 0.013252382731426355 0.77331021653038878 -0.083117359923725556 -0.47504027412573652 0.93144387987028521 1.0467855061023312 -1.4300174100469707 0.37754244704899514 -0.93649875068942134
decision_type=2 2 2 2 2 2 2 2 2 2 2 2 2 2 2 2 2 2 2 2 2 2 2 2
left_child=-1 2 12 4 7 11 8 18 -7 -9 19 21 20 14 -14 -8 -13 -15 -3 -6 23 -5 -12 -2
right_child=1 3 -4 5 10 6 15 9 -10 -11 22 16 13 17 -16 -17 -18 -19 -20 -21 -22 -23 -24 -25
leaf_value=0.011267997680368054 0.007590304057970035 -0.003315877751433269 -0.011090237723580188 0.010535197720399257 0.0033835170832150286 -0.00919172672725415 0.0075393043190834621 -0.0013812103994534954 -0.00085688521020101072 -0.0060872243917269369 0.011279701644195398 -0.0062797030921955266 0.0058377561412310463 0.010718593965565267 -0.011112794224262453 -0.00085688521020101072 0.0066572211520331513 0.0030893373138617904 -0.010994226734082246 -0.0013812103994534954 0.00419093876802924 0.0056983510910786498 0.0066849056835728881 0.010736541523311226
leaf_weight=19.193305119872093 4.9903355091810253 6.4946914017200461 9.4659953564405424 15.215295642614363 10.743354409933096 22.472107529640201 12.993458315730097 28.990446925163269 6.2462617605924597 61.200707420706749 6.4917914569377881 6.7470581382513029 8.4908045232296008 11.223315149545668 8.2253235280513746 6.9977583438158026 4.9964025616645813 10.492499187588693 32.168954253196716 6.2492705881595603 5.7446065545082083 5.2444237768650082 4.9970175921916962 22.42966502904892
leaf_count=77 20 26 38 61 43 90 52 116 25 245 26 27 34 45 33 28 20 42 129 25 23 21 20 90
internal_value=0 -0.000681995 0.00384748 -0.00222505 -0.00401556 0.00125793 -0.00168396 -0.00551307 -0.0054724 -0.00368861 0.00275065 0.00569066 0.00584784 0.00291418 -0.00253569 0.00375863 -0.000756218 0.00709417 -0.00972812 -0.00138121 0.00920958 0.00936254 0.00942979 0.010223
internal_weight=0 319.312 81.0625 238.249 157.336 80.9128 48.7096 128.855 28.7184 90.1912 28.4814 32.2032 71.5965 38.4319 16.7161 19.9912 11.7435 21.7158 38.6636 16.9926 33.1646 20.4597 11.4888 27.42
internal_count=1356 1279 325 954 630 324 195 516 115 361 114 129 287 154 67 80 47 87 155 68 133 82 46 110
is_linear=0
shrinkage=0.006


Tree=12
num_leaves=24
num_cat=0
split_feature=0 6 19 15 3 14 12 0 13 14 0 8 14 0 0 18 12 9 11 15 17 11 15
split_gain=71.696 61.3322 67.0495 40.8837 43.7413 29.0608 30.4183 27.1219 24.2644 24.1436 23.3713 21.107 19.3027 24.2656 33.7276 13.6594 12.3307 9.4848 8.63699 4.42931 2.1099 1.21704 0.578465
threshold=20.500000000000004 1.0000000180025095e-35 0.96614263900671238 0.51452444963116195 1.0000000180025095e-35 -0.99248371436987193 -1.4370987292900816 25.500000000000004 0.14700543958836018 0.53011952937256324 38.500000000000007 -0.42341462613442277 0.23573408268011578 34.500000000000007 23.500000000000004 0.77331021653038878 0.34352463085748675 -1.0782614740322127 0.16559225393382285 1.0467855061023312 -1.4300174100469707 0.37754244704899514 -0.93649875068942134
decision_type=2 2 2 2 2 2 2 2 2 2 2 2 2 2 2 2 2 2 2 2 2 2 2
left_child=-1 2 12 4 7 11 -7 17 -9 16 -8 20 19 14 -14 -13 -6 -3 -15 22 -5 -11 -2
right_child=1 3 -4 5 9 6 10 8 -10 21 -12 15 13 18 -16 -17 -18 -19 -20 -21 -22 -23 -24
leaf_value=0.011208207046330423 0.0075490190466415159 -0.0026323990311689039 -0.011032572499619227 0.010478225400571138 0.0056021322239169181 -0.011197864974996754 -0.0014958563052303124 -0.0067911067535875282 -0.0013773940404712731 0.011218364952617028 0.010460544776569854 -0.0062438173968805098 0.0058046470263924147 0.0031390960035357586 -0.011054556815107374 0.006619881728581938 -0.0013773940404712731 -0.010944154759871084 0.010757909185623306 0.0041671686385113494 0.0056664393874363683 0.0066473099810494974 0.010679341410564567
leaf_weight=19.181021422147751 4.9886204898357418 5.9950038343667975 9.459444120526312 15.207347363233565 8.9932935833931023 9.4758238643407804 32.234527930617332 45.708199620246887 44.472125753760338 6.4892226308584195 6.991203546524047 6.7462728321552259 8.4891456514596957 10.731702938675882 8.2201133072376233 4.995567798614502 7.9986680746078482 32.649684280157089 10.977159917354582 5.7438534647226325 5.2434442639350918 4.9962615370750427 22.415615379810333
leaf_count=77 20 24 38 61 36 38 129 183 178 26 28 27 34 43 33 20 32 131 44 23 21 20 90
internal_value=0 -0.000676858 0.00382644 -0.00221064 -0.00399153 0.00125369 -0.00166952 -0.00547771 -0.00366166 0.00272293 0.000677388 0.00565898 0.00581573 0.002898 -0.00252188 -0.000751745 -0.00137739 -0.00967493 0.00705461 0.00915968 0.00931134 0.00937773 0.0101683
internal_weight=0 319.222 81.0257 238.197 157.302 80.8942 48.7016 128.825 90.1803 28.4774 39.2257 32.1926 71.5662 38.4181 16.7093 11.7418 16.992 38.6447 21.7089 33.1481 20.4508 11.4855 27.4042
internal_count=1356 1279 325 954 630 324 195 516 361 114 157 129 287 154 67 47 68 155 87 133 82 46 110
is_linear=0
shrinkage=0.006


Tree=13
num_leaves=28
num_cat=0
split_feature=19 6 15 10 13 3 17 6 6 8 10 8 13 17 19 16 9 16 16 11 8 16 8 9 11 18 19
split_gain=49.5772 61.3809 33.9729 31.6805 47.9315 19.9923 20.3373 19.6232 18.7391 17.878 15.5081 15.3452 28.2456 14.9354 23.5812 13.1867 11.1698 10.7173 23.2871 10.3005 9.52827 6.61605 6.19558 6.07596 5.69075 1.53547 1.34787
threshold=0.88083217840982286 1.0000000180025095e-35 0.51452444963116195 0.061473668347464615 -0.34073496746320492 1.0000000180025095e-35 0.93144387987028521 1.5000000000000002 1.5000000000000002 1.7149259506029508 -0.031386659011581594 -0.41558684438369659 -0.019144348494396616 0.79604445941397761 -0.41187972093126696 -1.594313958452102 -1.3243598619699875 0.39351909795024237 -0.05573808034555465 0.77426986615093762 0.38913549601545977 0.87771208151557467 -0.73380810273013097 -0.13769283911053407 0.2123015590246429 -0.51037968304245906 0.22440319772865946
decision_type=2 2 2 2 2 2 2 2 2 2 2 2 2 2 2 2 2 2 2 2 2 2 2 2 2 2 2
left_child=1 13 5 21 23 7 8 10 -7 -9 -3 16 15 17 -15 -13 -4 18 24 -14 -16 25 -18 -5 -1 -2 -19
right_child=3 2 11 4 -6 6 -8 9 -10 -11 -12 12 19 14 20 -17 22 26 -20 -21 -22 -23 -24 -25 -26 -27 -28
leaf_value=0.0098880553979580656 -0.0075314766525904076 -0.0041861858489057047 0.010625538018593212 0.0032774465699156154 0.011285161984252147 -0.00034629568805918113 -0.00034629568805918113 -0.0093677405255418733 0.011335508795144101 -0.00034629568805918113 -0.00034629568805918113 0.00039792291619883771 0.011143395428321819 0.010143446443948503 0.0010321607431071471 -0.0097328835223819219 0.005734732115918028 0.010745986236978988 -0.0058607836697298753 0.00039792291619883771 -0.0098108829726685793 -0.0042589724658949413 -0.00048699942310637665 -0.0042589724658949413 0.002399561287589507 -0.010951664482737752 0.0067936659470538788
leaf_weight=13.211038440465932 9.2302866876125353 49.669529870152473 11.210751473903654 4.9912007749080667 8.9814213067293149 6.2466620504856154 9.2477925419807416 26.193875208497051 11.728336751461029 4.9979224354028693 39.926270261406898 4.9965866059064856 6.977987587451933 6.4798453897237804 6.234542101621626 9.9931593686342257 14.982281491160391 22.667963743209842 5.7436365634202948 4.995998352766037 5.2278328090906143 4.9880587607622138 9.2387359142303485 9.9796853065490723 5.2368821650743476 19.679241836071014 5.2366308420896521
leaf_count=53 37 199 45 20 36 25 37 105 47 20 160 20 28 26 25 40 60 91 23 20 21 20 37 40 21 79 21
internal_value=0 0.00104667 -0.00057405 -0.00504473 0.000241805 -0.00213889 0.0024925 -0.00318509 0.0068955 -0.00726913 -0.00175026 0.00313293 -0.000280079 0.00590333 0.00116559 -0.0057354 0.00571723 0.00752435 0.00454341 0.00653125 -0.00399664 -0.00875975 0.003377 -0.00425897 0.0078108 -0.00991891 0.0100579
internal_weight=0 280.444 210.406 57.8499 23.9523 148.01 27.2228 120.788 17.975 31.1918 89.5958 62.3955 26.9637 70.0384 17.9422 14.9897 35.4318 52.0962 24.1916 11.974 11.4624 33.8976 24.221 14.9709 18.4479 28.9095 27.9046
internal_count=1356 1124 843 232 96 593 109 484 72 125 359 250 108 281 72 60 142 209 97 48 46 136 97 60 74 116 112
is_linear=0
shrinkage=0.006


Tree=14
num_leaves=22
num_cat=0
split_feature=0 0 14 16 10 13 18 11 11 17 0 12 16 11 0 17 12 18 17 11 14
split_gain=70.7504 52.8954 67.3782 36.9258 52.462 31.7038 22.6353 21.7209 20.1709 21.2589 19.3724 15.3774 24.6632 20.9033 9.68754 10.4536 8.37976 3.81931 2.98441 1.66163 0.0412811
threshold=20.500000000000004 38.500000000000007 -0.64435355571146358 0.89608955866857942 -0.13351419820416785 0.23004557492008607 0.85859830784917845 -0.3347738726695178 0.35906905053337984 0.92244704401569344 24.500000000000004 1.1854919704467417 0.66174824338010629 0.65033121708698072 27.500000000000004 -1.602689347730178 0.96629053981163049 -1.2562522869969068 0.96329873127489896 -0.40068999926168297 -0.87758113003014004
decision_type=2 2 2 2 2 2 2 2 2 2 2 2 2 2 2 2 2 2 2 2 2
left_child=-1 2 7 4 17 -6 11 14 -5 -10 18 12 13 -3 20 -16 -12 -4 -9 -8 -2
right_child=1 6 3 8 5 -7 19 10 9 -11 16 -13 -14 -15 15 -17 -18 -19 -20 -21 -22
leaf_value=0.011138253047184798 0.011176239226116364 0.0047050153711248547 -0.0062069692294370159 -0.008795194509905388 -0.0046671614798805567 0.0031612891120662472 0.007053192497401029 0.0031932143669027675 0.0070994708641747735 -0.0045257284385557964 -0.0014877783155294003 0.010707556812434498 -0.0095938050187140567 -0.0056768222402115345 -0.0035646543998093649 0.0066696777877952316 -0.010176823830063943 -0.010490841662234745 0.0089191069514344655 0.011087594521923688 0.0085641941356538465
leaf_weight=19.164127454161644 9.21807713806629 31.925474420189857 4.993635728955268 5.2342674434185019 66.133439913392067 25.731694892048836 8.2326223403215426 9.2357606589794141 19.948362186551098 7.718951776623725 17.71212233603001 5.9969424605369559 6.9902711659669867 8.7387266457080823 4.9910583943128612 11.733962684869764 4.9954551607370368 48.58876921236515 5.237987592816352 10.706330776214598 4.9760228395462063
leaf_count=77 37 128 20 21 265 103 33 37 80 31 71 24 28 35 20 47 20 195 21 43 20
internal_value=0 -0.000673222 -0.0019992 -0.00393667 -0.00523385 -0.00247229 0.00382168 0.00307155 0.00179473 0.00384693 -2.38113e-05 0.00181572 0.000656683 0.0024571 0.00677007 0.00360953 -0.00347145 -0.00994165 0.00535871 0.0094259 0.0103923
internal_weight=0 319.04 246.45 178.349 145.448 91.8651 72.5904 68.1004 32.9016 27.6673 37.1813 53.6514 47.6545 40.6642 30.9191 16.725 22.7076 53.5824 14.4737 18.939 14.1941
internal_count=1356 1279 988 715 583 368 291 273 132 111 149 215 191 163 124 67 91 215 58 76 57
is_linear=0
shrinkage=0.006


Tree=15
num_leaves=22
num_cat=0
split_feature=0 6 15 3 0 16 0 14 12 0 0 14 0 12 9 9 12 14 16 18 11
split_gain=69.9607 59.5982 39.6356 42.3512 36.3005 59.8339 59.5374 28.2787 29.8181 26.7677 23.8673 23.7858 22.8145 12.0649 9.36128 9.34736 9.21825 5.92741 16.4728 5.36495 1.16366
threshold=20.500000000000004 1.0000000180025095e-35 0.51452444963116195 1.0000000180025095e-35 30.500000000000004 1.4390087240733855 23.500000000000004 -0.99248371436987193 -1.4370987292900816 25.500000000000004 29.500000000000004 0.53011952937256324 38.500000000000007 0.34352463085748675 0.27715460825815824 -1.0782614740322127 -2.0028138766526218 0.42186599245163775 -0.083117359923725556 0.85160401816600539 0.37754244704899514
decision_type=2 2 2 2 2 2 2 2 2 2 2 2 2 2 2 2 2 2 2 2 2
left_child=-1 4 3 9 5 6 14 16 -9 15 -11 13 -10 -5 -2 -3 -4 -6 -19 -18 -13
right_child=1 2 7 11 17 -7 -8 8 12 10 -12 20 -14 -15 -16 -17 19 18 -20 -21 -22
leaf_value=0.011080572448886055 0.0095266251245479661 -0.0025800132922396191 0.010417828628382622 0.0055474028215343335 0.01117209295260335 0.0103207722578346 -0.011131729142622447 -0.011092664357843632 -0.0014763715437940363 -0.001362475361402635 -0.0059822414606190318 0.011090424224626933 0.010341247592970856 -0.001362475361402635 -0.0003996281129681418 -0.010831898407694551 0.0017993186971090843 0.010535634741602453 -0.001180312085307153 0.0087789604721680535 0.0066033580341717888
leaf_weight=19.149389415979385 7.7208442836999875 5.9928342700004569 9.7054992318153364 8.9897037744522148 15.936512380838392 14.681737288832663 18.645931869745255 9.4650621116161329 32.227372080087662 28.981356203556061 61.159796267747879 6.4816000759601575 6.9848511517047873 7.9981214255094519 5.9923804402351379 32.606409087777138 17.464859917759899 10.954345449805258 6.9911784827709225 4.991073563694953 4.9945297390222549
leaf_count=77 31 24 39 36 64 59 75 38 129 116 245 26 28 32 24 131 70 44 28 20 20
internal_value=0 -0.000669098 -0.00218117 -0.00393518 0.00377324 0.000355359 -0.00420169 0.00123108 -0.00165283 -0.00539815 -0.00359422 0.00267319 0.000670489 -0.00136248 0.00524568 -0.00957063 0.00557919 0.0084886 0.00600866 0.00341442 0.00928417
internal_weight=0 318.966 238.043 157.204 80.9229 47.0409 32.3592 80.8387 48.6773 128.74 90.1412 28.464 39.2122 16.9878 13.7132 38.5992 32.1614 33.882 17.9455 22.4559 11.4761
internal_count=1356 1279 954 630 325 189 130 324 195 516 361 114 157 68 55 155 129 136 72 90 46
is_linear=0
shrinkage=0.006


Tree=16
num_leaves=31
num_cat=0
split_feature=19 14 16 15 16 11 14 19 16 8 13 18 16 15 3 18 1 15 14 3 13 8 1 13 14 15 18 15 16 15
split_gain=48.3122 29.4779 27.84 35.3095 31.664 22.5553 19.0772 17.4555 32.6206 17.4103 31.1146 15.0333 11.2702 11.0825 17.8261 10.7842 10.6524 10.2875 9.82543 9.67378 7.35952 7.81446 24.4301 6.96378 6.55377 5.70701 5.45886 7.44927 0.944862 0.178793
threshold=0.88083217840982286 -0.95536924985355653 0.323185619969168 0.35355682368043428 -0.13882944568510544 -0.68313815988615245 -1.727174579677685 0.079551452964655586 1.0917012159972606 -0.44969420313306924 -0.019144348494396616 1.5318464190612984 -1.6114879711799859 -0.067109846513878371 1.0000000180025095e-35 0.72188050705737661 1.0000000180025095e-35 -1.0503184425213041 -1.132744197813669 1.0000000180025095e-35 -0.34073496746320492 0.78527951940760798 1.0000000180025095e-35 0.061705536392285779 -0.25933636248275527 -0.99949836214856014 0.49103700713509346 -0.44748642502600855 -0.30273717057656713 -1.3923706019340456
decision_type=2 2 2 2 2 2 2 2 2 2 2 2 2 2 2 2 2 2 2 2 2 2 2 2 2 2 2 2 2 2
left_child=2 -2 3 4 5 23 -4 13 25 18 12 20 -11 14 -8 -12 -7 -10 28 -20 -3 22 -22 -1 -15 -9 27 -6 -5 -23
right_child=1 11 6 9 26 16 7 8 17 10 15 -13 -14 24 -16 -17 -18 -19 19 -21 21 29 -24 -25 -26 -27 -28 -29 -30 -31
leaf_value=-0.011054811659627722 0.0049249996478573192 -0.011248244067899272 -0.0046019161168628156 0.0072181488267963256 -0.007362034273244591 -0.0012111143097822187 0.00043980501331403302 -0.0025226542499588202 0.010592897285723265 0.00068175616215586073 0.00068175616215586073 0.00071016809076937548 -0.0084038141917282313 0.0052911787730473229 0.010885246499030025 0.011029654798883 0.0037470631163053492 0.001194894215146658 0.00079903535512047439 0.010091195101596279 -0.0086215581677038279 -0.006373714190286088 0.0071481763596822206 -0.0018596346396239649 0.010683691698852915 -0.011086793866817851 -0.010836046279527502 -0.00045790836184059154 0.010976850273317773 -0.0086215581677038279
leaf_weight=7.4730463176965696 8.9789082854986173 17.441800728440281 9.2324719429016096 5.985897183418273 20.710117891430855 30.40157388150692 21.182207807898525 5.2287724018096924 7.979377061128619 4.9954478889703777 4.993146136403082 7.9606211185455313 12.732212573289873 14.953272163867949 7.9524339139461508 7.9605493694543839 31.678510591387749 8.7222590297460538 15.731949806213381 5.2426290512084952 5.7127609550952965 4.979842305183408 5.2420329749584198 4.9865134805440903 19.66384382545948 6.2303936928510684 9.4809824675321561 7.7348290681839016 8.9553569406270963 7.462951973080636
leaf_count=30 36 70 37 24 83 122 85 21 32 20 20 32 51 60 32 32 127 35 63 21 23 20 21 20 79 25 38 31 36 30
internal_value=0 -0.00498288 0.00103379 -0.000388097 -0.00243693 -0.000161632 0.00354682 0.00437356 0.0004343 0.0030688 -0.000253017 -0.00681854 -0.00539357 0.00610684 0.00334571 0.00675709 0.00132288 0.0057571 0.00589217 0.003195 -0.00828238 -0.00599487 -0.00220688 -0.00746227 0.00839811 -0.00728932 -0.0068845 -0.00550095 0.00958624 -0.00862156
internal_weight=0 57.7789 280.208 179.063 112.466 74.5396 101.145 91.9126 28.1608 66.5972 30.6814 48.8 17.7277 63.7518 29.1346 12.9537 62.0801 16.7016 35.9158 20.9746 40.8394 23.3976 10.9548 12.4596 34.6171 11.4592 37.9259 28.4449 14.9413 12.4428
internal_count=1356 232 1124 718 451 299 406 369 113 267 123 196 71 256 117 52 249 67 144 84 164 94 44 50 139 46 152 114 60 50
is_linear=0
shrinkage=0.006


Tree=17
num_leaves=24
num_cat=0
split_feature=0 6 19 15 14 13 10 13 0 10 8 18 14 0 16 19 16 11 0 15 15 17 15
split_gain=68.9761 58.4925 64.0151 38.9253 27.7118 26.9118 25.764 21.0838 22.8287 29.3108 20.3914 19.4101 18.5842 23.3961 13.5258 13.1938 12.6057 10.802 10.3579 9.49576 4.30521 2.02714 0.565045
threshold=20.500000000000004 1.0000000180025095e-35 0.96614263900671238 0.51452444963116195 -0.99248371436987193 -0.12194953019223061 1.4771131973088016 0.27788951591697603 38.500000000000007 -0.093626152851770894 -0.42341462613442277 -0.10633615240089798 0.23573408268011578 39.500000000000007 0.013252382731426355 0.55559831619900468 -0.30704335647549968 -0.80497576904558021 23.500000000000004 -0.21267830308088917 1.0467855061023312 -1.4300174100469707 -0.93649875068942134
decision_type=2 2 2 2 2 2 2 2 2 2 2 2 2 2 2 2 2 2 2 2 2 2 2
left_child=-1 2 12 7 10 6 -6 16 9 -9 21 -10 20 18 -7 -12 17 -3 -14 -18 22 -5 -2
right_child=1 3 -4 4 5 14 -8 8 11 -11 15 -13 13 -15 -16 -17 19 -19 -20 -21 -22 -23 -24
leaf_value=0.011008373345004128 0.0073852591824356932 -0.008892841674884789 -0.01080608896292719 0.010267047933949888 -0.0090143874754559164 0.00742796816119744 -0.0008282755648540424 -0.0034259079063590219 -0.0033814167128455408 0.0049225542722131374 -0.0061726534227948939 0.0090006548425662081 0.0056685995212349526 0.011043890290574756 -0.0008282755648540424 0.0064750116017307452 -0.0092632272607013916 -0.0034259079063590219 -0.0021312268158231577 -0.0035451306899996118 0.0040490813651042675 0.0055479949089455695 0.010469306320781923
leaf_weight=19.128391206264496 4.9790625125169781 12.947267815470694 9.4265233576297742 15.168137013912199 22.433345079422001 12.985255956649782 6.2409196048974982 28.147548392415047 7.2421409934759167 14.989343270659445 6.7433131635189039 11.718260824680327 8.4792429357767123 9.210629463195799 6.9954693317413321 4.9901221990585327 37.42053696513176 29.696679979562759 20.662465989589691 14.97181576490402 5.739076003432273 5.2385712414979961 22.349464640021324
leaf_count=77 20 52 38 61 90 52 25 113 29 60 27 47 34 37 28 20 150 119 83 60 23 21 90
internal_value=0 -0.000664492 0.00373878 -0.00216258 0.00121993 -0.00163541 -0.00534507 -0.00390114 -0.00117678 -0.00342591 0.00552583 0.00428525 0.00568334 0.00281867 0.00368851 -0.000775348 -0.00567504 -0.00342591 0.000161426 -0.0076489 0.0089689 0.00912123 0.00996515
internal_weight=0 318.775 80.8465 237.929 80.7951 48.655 28.6743 157.134 62.0973 43.1369 32.1401 18.9604 71.4199 38.3523 19.9807 11.7334 95.0363 42.6439 29.1417 52.3924 33.0676 20.4067 27.3285
internal_count=1356 1279 325 954 324 195 115 630 249 173 129 76 287 154 80 47 381 171 117 210 133 82 110
is_linear=0
shrinkage=0.006


Tree=18
num_leaves=22
num_cat=0
split_feature=0 6 19 15 17 0 13 0 10 18 17 0 0 12 8 12 19 9 15 17 17
split_gain=68.2199 57.8305 63.3068 38.5437 24.0088 20.823 20.6769 22.6612 28.99 19.1875 15.466 28.4819 18.0875 14.3077 10.4718 7.70182 11.0831 6.30025 5.87993 1.66 1.24002
threshold=20.500000000000004 1.0000000180025095e-35 0.96614263900671238 0.51452444963116195 -1.8581059695212179 23.500000000000004 0.27788951591697603 38.500000000000007 -0.093626152851770894 -0.10633615240089798 0.79604445941397761 30.500000000000004 23.500000000000004 -2.0028138766526218 -0.92713482463291896 0.5319636650939269 -0.26928111979005193 -0.054463645596849679 0.26112492732676806 0.56628067070584576 0.94343113126774225
decision_type=2 2 2 2 2 2 2 2 2 2 2 2 2 2 2 2 2 2 2 2 2
left_child=-1 2 10 6 -5 14 15 8 -8 -9 17 12 -12 -7 -6 16 -3 19 -19 -2 -17
right_child=1 3 -4 4 5 13 7 9 -10 -11 11 -13 -14 -15 -16 20 -18 18 -20 -21 -22
leaf_value=0.010952770041506344 0.0098509821032463449 -0.0034101073963403116 -0.010752884461620454 -0.0099301415844295533 0.00017544965920032426 0.010246189060450861 -0.0034101073963403116 -0.0033619167233747524 0.0048930705443373029 0.0089498259337931693 0.0035769589578150884 0.010930781953793904 -0.010919609245604653 0.0022915972139930484 -0.011317544794402327 -0.0065479060925902411 -0.0073410971335375087 0.001856402362340159 0.0069013958802513304 0.0069013958802513304 -0.01077904938696876
leaf_weight=19.111212566494942 24.339565202593807 42.899772465229034 9.4173430800437909 6.2130101174116126 5.984587237238884 9.4360250979661924 28.142120689153671 7.2416042834520367 14.99038654565811 11.715248510241507 5.4803849905729312 6.4707132875919333 6.7072828710079193 53.888551786541939 5.2454344779252988 4.9892289340496054 36.643196791410446 12.455178886651995 9.2151095569133741 6.7195317298173896 10.479285463690756
leaf_count=77 98 172 38 25 24 38 113 29 60 47 22 26 27 216 21 20 147 50 37 27 42
internal_value=0 -0.000660909 0.00371864 -0.00215054 0.00121599 0.00216893 -0.00388066 -0.00118255 -0.00341011 0.00426069 0.0056524 0.000944396 -0.00444848 0.00350544 -0.00529692 -0.00563767 -0.00486162 0.00730847 0.00475352 0.00904927 -0.00951533
internal_weight=0 318.674 80.8051 237.868 80.7676 74.5546 157.101 62.0894 43.1325 18.9569 71.3878 18.6584 12.1877 63.3246 11.23 95.0115 79.543 52.7294 21.6703 31.0591 15.4685
internal_count=1356 1279 325 954 324 299 630 249 173 76 287 75 49 254 45 381 319 212 87 125 62
is_linear=0
shrinkage=0.006


Tree=19
num_leaves=23
num_cat=0
split_feature=0 6 19 15 3 14 12 0 0 14 0 14 0 0 12 9 12 0 19 15 14 18
split_gain=67.4944 57.2334 62.6149 38.1501 41.3578 27.1497 28.7954 26.3558 23.624 23.2663 22.4129 18.2426 23.098 31.9805 11.9102 9.19413 8.84866 7.6655 7.07589 4.25906 1.2286 0.579093
threshold=20.500000000000004 1.0000000180025095e-35 0.96614263900671238 0.51452444963116195 1.0000000180025095e-35 -0.99248371436987193 -1.4370987292900816 25.500000000000004 29.500000000000004 0.53011952937256324 38.500000000000007 0.23573408268011578 34.500000000000007 23.500000000000004 0.34352463085748675 -1.0782614740322127 -2.0028138766526218 39.500000000000007 0.6947289534552149 1.0467855061023312 0.91438680079208168 0.6612367799759703
decision_type=2 2 2 2 2 2 2 2 2 2 2 2 2 2 2 2 2 2 2 2 2 2
left_child=-1 2 11 4 7 16 -7 15 -9 14 -8 19 13 -13 -6 -3 -5 -14 -18 21 -11 -2
right_child=1 3 -4 5 9 6 10 8 -10 20 -12 12 17 -15 -16 -17 18 -19 -20 -21 -22 -23
leaf_value=0.010898045066875873 0.010411360128955915 -0.0025207272328339149 -0.01070049619286338 0.010221903190121544 0.0055466528096383807 -0.01090741759857136 -0.0014636800835819269 -0.001319491527488935 -0.0059019918005459105 0.0066899974948833301 0.010253815036717885 0.0056027875621626902 0.0036832880134749797 -0.010834487940593475 -0.001319491527488935 -0.010705298823824786 0.0013359302928726501 0.01095485158934055 0.0089851290525457053 0.0039885887321303992 0.011226301938755153 0.0074219871153137747
leaf_weight=19.09299610555172 21.834637984633449 5.9906788766384116 9.4076765775680524 9.6769012510776502 8.9873466491699272 9.441346809267996 32.216694205999374 28.96772626042366 61.114883571863174 5.4725989401340467 6.9788828641176215 8.4741048365831393 12.459959149360657 8.1935947686433774 7.9952261745929709 32.549100071191788 16.705086231231693 9.2000064104795456 5.733029067516326 5.7361082285642615 5.9914009124040604 5.4523413330316535
leaf_count=77 88 24 38 39 36 38 129 116 245 22 28 34 50 33 32 131 67 37 23 23 24 22
internal_value=0 -0.000658956 0.00369939 -0.00214081 -0.00386226 0.0012088 -0.00161761 -0.00530882 -0.00351896 0.00266984 0.000664117 0.00562263 0.0027841 -0.00251019 -0.00131949 -0.00945266 0.0054728 0.00684383 0.00335245 0.00888054 0.00921264 0.00987239
internal_weight=0 318.579 80.7584 237.821 157.069 80.7519 48.6369 128.622 90.0826 28.4466 39.1956 71.3508 38.3277 16.6677 16.9826 38.5398 32.115 21.66 22.4381 33.0231 11.464 27.287
internal_count=1356 1279 325 954 630 324 195 516 361 114 157 287 154 67 68 155 129 87 90 133 46 110
is_linear=0
shrinkage=0.006


Tree=20
num_leaves=20
num_cat=0
split_feature=0 6 19 15 3 0 0 0 8 1 8 16 0 0 12 8 19 16 16
split_gain=66.7552 56.5758 61.9305 37.7036 40.6963 26.133 23.3853 19.476 17.997 17.7205 23.3134 13.935 35.4243 40.9132 13.3161 8.22996 7.21783 5.96315 4.04341
threshold=20.500000000000004 1.0000000180025095e-35 0.96614263900671238 0.51452444963116195 1.0000000180025095e-35 25.500000000000004 29.500000000000004 23.500000000000004 -0.013402314863062453 1.0000000180025095e-35 -1.4222582011802916 1.418936356523556 30.500000000000004 23.500000000000004 0.4330234637080102 -0.92713482463291896 -0.72955682241967146 1.2082765097998116 -0.99036370158489007
decision_type=2 2 2 2 2 2 2 2 2 2 2 2 2 2 2 2 2 2 2
left_child=-1 2 11 4 5 17 -7 15 -6 18 -11 12 13 -2 -10 -5 -14 -3 -9
right_child=1 3 -4 7 8 6 -8 9 14 10 -12 -13 16 -15 -16 -17 -18 -19 -20
leaf_value=0.010844178054399542 0.0050859925585604124 -0.01063848213381496 -0.010648906345582044 -0.0013602322559184549 0.0097188618068959516 -0.001317353354594162 -0.005868211091586046 0.0041255063573619579 0.0056269123443603176 -0.010657882417906312 0.0022048636862742458 0.010528838653612326 0.0044942692792750384 -0.011007866543689569 -0.001317353354594162 -0.011249307817713022 0.010428838200577136 -0.0047044516859708601 0.010902252613205748
leaf_weight=19.073761805891991 13.689089924097063 30.294741064310074 9.3975328505039197 6.9753971844911575 8.7092969119548815 28.966816201806068 61.099093168973923 5.4929369837045661 9.9914033561944979 5.4587986320257178 48.86525397002697 15.872521802783011 12.441586464643473 9.4337782114744169 9.7393528372049314 5.2438314259052259 19.868962407112125 8.2166561931371671 8.6910001635551435
leaf_count=77 55 122 38 28 35 116 245 22 40 22 196 64 50 38 39 21 80 33 35
internal_value=0 -0.000654903 0.00368 -0.00212826 -0.0038399 -0.00527516 -0.0034931 0.00120219 0.00264045 0.00244934 0.000877987 0.00559294 0.00414684 -0.00151815 -0.000550178 -0.0057169 0.00818536 -0.00940326 0.00837171
internal_weight=0 318.448 80.7035 237.745 157.017 128.577 90.0659 80.7272 28.4401 68.508 54.3241 71.3059 55.4334 23.1229 19.7308 12.2192 32.3105 38.5114 14.1839
internal_count=1356 1279 325 954 630 516 361 324 114 275 218 287 223 93 79 49 130 155 57
is_linear=0
shrinkage=0.006


Tree=21
num_leaves=22
num_cat=0
split_feature=0 0 14 8 16 10 11 16 8 8 18 8 15 16 16 17 8 18 10 17 10
split_gain=66.0259 49.7292 63.2467 44.4244 36.8115 50.3942 27.2439 25.4087 21.9133 19.7734 17.976 15.8588 15.7993 11.8881 9.62539 8.58751 7.38128 3.67788 3.5529 2.50584 0.388489
threshold=20.500000000000004 38.500000000000007 -0.65531282720260886 -0.31684201420581098 0.89608955866857942 -0.13351419820416785 -0.68313815988615245 -0.083117359923725556 0.76218278803777451 -1.2910318812802888 -0.47245605587928324 -0.29131977416173799 -0.74680578454804725 1.0000000180025095e-35 0.2280283411265985 0.75049764216020365 -1.251456986279939 -1.2562522869969068 -0.72695622886814371 0.17671474736776341 -0.35579051418941915
decision_type=2 2 2 2 2 2 2 2 2 2 2 2 2 2 2 2 2 2 2 2 2
left_child=-1 2 3 13 5 17 -7 -5 9 -3 18 20 -12 16 -13 -9 -2 -4 -6 -15 -11
right_child=1 8 4 7 10 6 -8 15 -10 11 12 14 -14 19 -16 -17 -18 -19 -20 -21 -22
leaf_value=0.010791149956383807 0.007254991826997354 -0.0064719880294762814 -0.0060513169684971889 0.0071039835943848108 0.0042098587302033938 -0.0060513169684971889 0.00021378256495220235 -0.0088147359561255856 -0.005896553046840159 0.0076010823143081909 0.0032421781307239335 0.00069378302124906371 -0.0069768858331532308 0.010545080605430666 0.0068005329598830938 -0.0008773098455954236 -0.0015502156815733663 -0.010247148649986111 0.011018458727957561 0.0054269268314944379 0.010382846860892119
leaf_weight=19.05352920293808 6.2215706557035446 4.9743749946355811 4.9871455878019324 6.9741057157516506 5.7121355086565018 35.581185311079025 56.395162418484688 13.46323184669018 7.4852247238159171 5.4666718840599087 11.928978472948073 21.185181230306625 9.697286784648897 20.352615833282474 16.422911033034325 7.7317444980144492 7.2279971092939359 48.668115541338921 5.966266453266142 4.9846513271331778 16.89309911429882
leaf_count=77 25 20 20 28 23 143 226 54 30 22 48 85 39 82 66 31 29 196 24 20 68
internal_value=0 -0.000650738 -0.00193788 0.00303037 -0.00379825 -0.00509841 -0.00239342 -0.00269419 0.00371243 0.00483466 0.00188344 0.00579095 -0.00136203 0.00718035 0.00338238 -0.0059545 0.00256956 -0.00970922 0.00781519 0.00958856 0.00977616
internal_weight=0 318.32 245.892 66.9559 178.936 145.632 91.9763 28.1691 72.4275 64.9422 33.3047 59.9679 21.6263 38.7868 37.6081 21.195 13.4496 53.6553 11.6784 25.3373 22.3598
internal_count=1356 1279 988 269 719 585 369 113 291 261 134 241 87 156 151 85 54 216 47 102 90
is_linear=0
shrinkage=0.006


Tree=22
num_leaves=21
num_cat=0
split_feature=0 6 19 0 8 2 18 13 10 8 18 16 16 17 0 0 0 16 16 19
split_gain=65.3138 55.5199 60.8063 34.8577 45.8965 64.3296 36.6774 25.9788 36.558 25.8081 20.4387 17.1452 17.0329 14.8999 27.7112 17.329 14.3228 9.68502 22.6543 2.59933
threshold=20.500000000000004 1.0000000180025095e-35 0.96614263900671238 25.500000000000004 -0.31684201420581098 1.0000000180025095e-35 -0.52489449945005984 0.15300387894844522 0.11683359632399191 -0.73380810273013097 -1.4554476873897844 -0.28317677183853091 -0.65359446280775046 0.79604445941397761 30.500000000000004 23.500000000000004 38.500000000000007 0.39351909795024237 -0.05573808034555465 0.30044817307077171
decision_type=2 2 2 2 2 2 2 2 2 2 2 2 2 2 2 2 2 2 2 2
left_child=-1 2 13 6 5 -5 9 11 -9 -3 -11 -6 -8 17 15 -15 -7 18 -2 -19
right_child=1 3 -4 4 7 16 12 8 -10 10 -12 -13 -14 14 -16 -17 -18 19 -20 -21
leaf_value=0.010738942206211428 0.0075522801071440286 0.008545071500790374 -0.01056296880621926 -0.010959515151695329 -0.0026910880369446694 0.0036882942655536172 0.00073239767853738446 -0.0026910880369446694 0.0077031971324118161 0.0054634739205618298 -0.0076956011635458408 -0.0091888387213636194 -0.010844667847170041 0.0034536367276659439 0.010779998030276088 -0.010751708993004691 0.010322438435845028 0.010393116899072146 -0.0059401278323131419 0.0052639644868463925
leaf_weight=19.032317504286766 18.381604894995693 7.9869917631149319 9.3786761909723264 9.6963470131158811 30.944892600178719 41.374773815274239 5.2254343628883353 26.678193360567093 15.735088497400282 5.7431009560823485 14.938644215464588 27.661874741315842 35.228943318128586 5.4723187834024447 6.4567143172025672 6.6870275139808655 16.388791516423225 23.523302510380748 5.738575652241706 4.9689821302890769
leaf_count=77 74 32 38 39 124 166 21 107 63 23 60 111 142 22 26 27 66 95 23 20
internal_value=0 -0.000647107 0.00365003 -0.00210676 -0.000632441 0.00319418 -0.00568806 -0.00318907 0.000388391 -0.000487467 -0.00402414 -0.00577057 -0.00935303 0.0055458 0.000919543 -0.00440615 0.00559967 0.00717304 0.00431977 0.00954153
internal_weight=0 318.21 80.6072 237.603 168.48 67.4599 69.1231 101.02 42.4133 28.6687 20.6817 58.6068 40.4544 71.2285 18.6161 12.1593 57.7636 52.6125 24.1202 28.4923
internal_count=1356 1279 325 954 676 271 278 405 170 115 83 235 163 287 75 49 232 212 97 115
is_linear=0
shrinkage=0.006


Tree=23
num_leaves=23
num_cat=0
split_feature=0 6 19 15 14 12 0 13 0 10 8 14 0 15 19 16 11 0 15 15 17 15
split_gain=64.6194 54.9055 60.145 36.4706 26.1561 27.9451 21.8235 19.9975 21.7379 28.3535 19.7088 17.6815 22.42 15.1494 12.816 12.2659 10.3068 9.80799 9.30665 4.17036 1.93991 0.565153
threshold=20.500000000000004 1.0000000180025095e-35 0.96614263900671238 0.51452444963116195 -0.99248371436987193 -1.4370987292900816 38.500000000000007 0.27788951591697603 38.500000000000007 -0.093626152851770894 -0.42341462613442277 0.23573408268011578 39.500000000000007 -0.55347406927601062 0.55559831619900468 -0.30704335647549968 -0.80497576904558021 23.500000000000004 -0.21267830308088917 1.0467855061023312 -1.4300174100469707 -0.93649875068942134
decision_type=2 2 2 2 2 2 2 2 2 2 2 2 2 2 2 2 2 2 2 2 2 2
left_child=-1 2 11 7 10 -6 -7 15 9 -9 20 19 17 -10 -12 16 -3 -13 -17 21 -5 -2
right_child=1 3 -4 4 5 6 -8 8 13 -11 14 12 -14 -15 -16 18 -18 -19 -20 -21 -22 -23
leaf_value=0.010687536370085526 0.0071612404553630781 -0.0086695618379723938 -0.010513453192967023 0.010037338567700324 -0.010759426690696697 -0.0014461872481170512 0.010123755973099427 -0.0033171708040766715 -0.0012908625477067797 0.0048945489083120327 -0.0061415035842299331 0.00548158992618569 0.010788183411983711 0.0093684648139889578 0.0063297969932226911 -0.0090590598191157799 -0.0033171708040766715 -0.0021161438163893294 -0.0033961350379440231 0.0038899638022096223 0.0054174452636276274 0.010212859220679514
leaf_weight=19.010146096348763 4.9612751752138164 12.905330583453177 9.3672861754894239 15.108922049403189 9.4158855229616147 32.206966280937195 6.9679111391305915 28.082244530320168 9.2381059676408785 14.986345738172529 6.740755081176756 8.4624476730823535 9.175659626722334 9.6959896236658079 4.9831139594316483 37.34253466129303 29.665808200836182 20.613461047410965 14.948266372084616 5.7302716672420493 5.2319643050432232 22.238530695438385
leaf_count=77 20 52 38 61 38 129 28 113 37 60 27 34 37 39 20 150 119 83 60 23 21 90
internal_value=0 -0.000644131 0.00363091 -0.00209574 0.00118122 -0.00159378 0.000652691 -0.00378002 -0.00112499 -0.00331717 0.00537024 0.00551651 0.00271994 0.00420856 -0.000823442 -0.00550935 -0.00331717 0.000117493 -0.00745932 0.00872896 0.00891335 0.00971258
internal_weight=0 318.069 80.5489 237.52 80.6555 48.5908 39.1749 156.865 62.0027 43.0686 32.0648 71.1816 38.2516 18.9341 11.7239 94.8619 42.5711 29.0759 52.2908 32.9301 20.3409 27.1998
internal_count=1356 1279 325 954 324 195 157 630 249 173 129 287 154 76 47 381 171 117 210 133 82 110
is_linear=0
shrinkage=0.006


Tree=24
num_leaves=23
num_cat=0
split_feature=0 6 15 3 0 16 0 14 12 0 0 14 0 8 18 12 9 9 14 16 17 14
split_gain=63.9382 54.3077 36.0767 39.6159 34 55.5805 54.8783 25.8631 27.6484 25.4484 23.126 22.6492 21.5823 19.497 12.6935 11.6302 9.16314 8.97589 5.55768 15.9392 1.92258 1.29513
threshold=20.500000000000004 1.0000000180025095e-35 0.51452444963116195 1.0000000180025095e-35 30.500000000000004 1.4390087240733855 23.500000000000004 -0.99248371436987193 -1.4370987292900816 25.500000000000004 29.500000000000004 0.53011952937256324 38.500000000000007 -0.42341462613442277 0.77331021653038878 0.34352463085748675 0.27715460825815824 -1.0782614740322127 0.42186599245163775 -0.083117359923725556 -1.4300174100469707 0.91438680079208168
decision_type=2 2 2 2 2 2 2 2 2 2 2 2 2 2 2 2 2 2 2 2 2 2
left_child=-1 4 3 9 5 6 16 13 -9 17 -11 15 -10 20 -15 -5 -2 -3 -6 -20 -4 -13
right_child=1 2 7 11 18 -7 -8 8 12 10 -12 21 -14 14 -16 -17 -18 -19 19 -21 -22 -23
leaf_value=0.010636915349366784 0.009220885730417459 -0.0024095156317121111 0.009987540610038842 0.0055196501580045791 0.010792130299867746 0.009934438926891399 -0.010788598691342686 -0.010706962102459234 -0.0014375864611845543 -0.0012712988905581692 -0.0057876409686074748 0.0065356437288520801 0.010071381964902915 -0.0061114958521246597 0.006301763103207807 -0.0012712988905581692 -0.00060738542768647846 -0.010498712221056333 0.010249523005605402 -0.0012863270126567356 0.0053877737057402043 0.011149205367917815
leaf_weight=18.987032517790794 7.6852996051311475 5.9840904474258414 15.094190835952757 8.9817283004522377 15.839244499802588 14.578703403472899 18.522231459617615 9.4062604159116727 32.206453502178192 28.948564827442169 61.038577690720558 5.4573981463909131 6.9631755352020255 6.7395395785570127 4.9813279211521149 7.9909856915473929 5.9826648384332657 32.430129662156105 10.904867872595785 6.9826935529708889 5.2303196340799358 5.9877737164497375
leaf_count=77 31 24 61 36 64 59 75 38 129 116 245 22 28 27 20 32 24 131 44 28 21 24
internal_value=0 -0.000641396 -0.00208515 -0.00376047 0.00361188 0.000293506 -0.00410718 0.00117483 -0.00158476 -0.00517788 -0.00341964 0.00263528 0.00064913 0.00534183 -0.000818688 -0.0012713 0.00497219 -0.0092576 0.00818462 0.00578189 0.00886787 0.00909935
internal_weight=0 317.936 237.441 156.819 80.4957 46.7689 32.1902 80.6213 48.5759 128.401 89.9871 28.4179 39.1696 32.0454 11.7209 16.9727 13.668 38.4142 33.7268 17.8876 20.3245 11.4452
internal_count=1356 1279 954 630 325 189 130 324 195 516 361 114 157 129 47 68 55 155 136 72 82 46
is_linear=0
shrinkage=0.006


Tree=25
num_leaves=28
num_cat=0
split_feature=19 6 15 10 13 3 17 6 6 8 8 13 10 17 19 16 9 16 16 11 8 16 8 11 9 18 19
split_gain=44.5116 54.1937 29.7765 28.7993 44.8836 17.9885 19.0287 18.1688 17.5998 17.2181 14.4592 26.3562 14.2477 13.4755 21.9659 12.6417 10.1195 9.97393 22.224 9.52231 8.39787 6.19244 6.11529 5.41019 5.21957 1.45648 1.19714
threshold=0.88083217840982286 1.0000000180025095e-35 0.51452444963116195 0.061473668347464615 -0.34073496746320492 1.0000000180025095e-35 0.93144387987028521 1.5000000000000002 1.5000000000000002 1.7149259506029508 -0.41558684438369659 -0.019144348494396616 -0.031386659011581594 0.79604445941397761 -0.41187972093126696 -1.594313958452102 -1.3243598619699875 0.39351909795024237 -0.05573808034555465 0.77426986615093762 0.38913549601545977 0.87771208151557467 -0.73380810273013097 0.2123015590246429 -0.13769283911053407 -0.51037968304245906 0.22440319772865946
decision_type=2 2 2 2 2 2 2 2 2 2 2 2 2 2 2 2 2 2 2 2 2 2 2 2 2 2 2
left_child=1 13 5 21 24 7 8 12 -7 -9 16 15 -3 17 -15 -12 -4 18 23 -13 -16 25 -18 -1 -5 -2 -19
right_child=3 2 10 4 -6 6 -8 9 -10 -11 11 19 -14 14 20 -17 22 26 -20 -21 -22 -23 -24 -25 -26 -27 -28
leaf_value=0.0094772149432652188 -0.0071656951124287058 -0.0039633760052529624 0.010153594581602483 0.0030949850994684684 0.010977689685133957 -0.00029922807957400766 -0.00029922807957400766 -0.0090141841132776596 0.01100490983236117 -0.00029922807957400766 0.00029733767059100482 0.010692302645587452 -0.00029922807957400766 0.0097482649954874507 0.00079472887556615926 -0.009561751616877643 0.0055783704692061514 0.010225507011935376 -0.0059217608410874374 0.00029733767059100482 -0.0094198023816229291 -0.0040501998465188186 -0.00060910868236013478 0.0021684547860558625 -0.0040501998465188186 -0.010491253326020231 0.0064792515101851685
leaf_weight=13.131665304303175 9.1810453981161135 49.491865664720535 11.121819898486136 4.9674293547868738 8.9402818828821164 6.2458159923553511 9.2395722419023496 26.078081190586094 11.676003336906433 4.9917358905076972 4.9907908439636222 6.9197752475738508 39.759545102715492 6.4418794512748745 6.2075047791004163 9.9807916730642336 14.939066380262373 22.462762907147411 5.7375055551528922 4.9871592819690704 5.1878188401460648 4.9661301374435416 9.2137818187475222 5.2160779386758795 9.9284855723381042 19.516855984926224 5.2095742523670188
leaf_count=53 37 199 45 20 36 25 37 105 47 20 20 28 160 26 25 40 60 91 23 20 21 20 37 21 40 79 21
internal_value=0 0.000991223 -0.000532931 -0.00479721 0.000253174 -0.0020004 0.00239692 -0.00299538 0.0066849 -0.0069327 0.00294445 -0.000372208 -0.0016123 0.0055707 0.00105819 -0.00563802 0.00545951 0.00711579 0.00423842 0.00623269 -0.00393779 -0.00835357 0.00323237 0.0074452 -0.0040502 -0.0094843 0.00957179
internal_weight=0 279.231 209.636 57.5002 23.8362 147.483 27.1614 120.321 17.9218 31.0698 62.1532 26.8785 89.2514 69.5948 17.8372 14.9716 35.2747 51.7576 24.0852 11.9069 11.3953 33.664 24.1528 18.3477 14.8959 28.6979 27.6723
internal_count=1356 1124 843 232 96 593 109 484 72 125 250 108 359 281 72 60 142 209 97 48 46 136 97 74 60 116 112
is_linear=0
shrinkage=0.006


Tree=26
num_leaves=20
num_cat=0
split_feature=0 6 19 0 8 18 11 0 0 10 8 18 14 0 16 0 11 8 0
split_gain=63.1258 53.1582 58.3021 33.8453 44.2463 35.8375 35.7982 32.4158 31.05 26.4271 25.1965 20.0346 17.2167 21.8622 16.5895 9.53684 3.40597 1.35496 0.822345
threshold=20.500000000000004 1.0000000180025095e-35 0.96614263900671238 25.500000000000004 -0.31684201420581098 -0.52489449945005984 1.5130770556580504 29.500000000000004 38.500000000000007 -0.047059744092335008 -0.73380810273013097 -1.4554476873897844 0.23573408268011578 39.500000000000007 -0.65359446280775046 23.500000000000004 0.98241946667259039 -0.89773836701793563 24.500000000000004
decision_type=2 2 2 2 2 2 2 2 2 2 2 2 2 2 2 2 2 2 2
left_child=-1 2 12 5 7 10 9 17 -9 -6 -3 -12 16 15 -7 -14 18 -5 -2
right_child=1 3 -4 4 6 14 -8 8 -10 -11 11 -13 13 -15 -16 -17 -18 -19 -20
leaf_value=0.010577675563990235 0.0075472255072684393 0.0084698535037108589 -0.010378229582351614 0.011054404653945436 -0.0075437672948870079 0.00073184444020143427 0.010577156465182445 -0.0036940969688277125 0.0060548435881812909 -0.0011742509617176306 0.005438374150934411 -0.0075935186308347643 0.0053936623422778393 0.010650135022088943 -0.010702686360929352 -0.0021029447113281403 0.0039390086582736326 0.0073524952108402113 0.010302268793035828
leaf_weight=18.956974178552628 9.1620891839265841 7.9816553145647076 9.3323402702808362 11.407544091343881 42.561148449778557 5.2176149487495413 6.2446565032005301 27.384386792778969 20.304350435733795 52.121745929121971 5.7413430809974715 14.917324274778363 8.4516467452049273 9.1504752486944181 35.130802273750305 20.588174521923065 5.1992057412862769 8.2451341301202756 18.480786681175232
leaf_count=77 37 32 38 46 171 21 25 110 82 209 23 60 34 37 142 83 21 33 75
internal_value=0 -0.000637358 0.00357455 -0.00206584 -0.000612542 -0.00559852 -0.00312331 0.00314856 0.000464644 -0.00404729 -0.000457173 -0.00395435 0.00543168 0.00267077 -0.00922773 0.00010081 0.00860659 0.00959101 0.0094499
internal_weight=0 317.622 80.3647 237.258 168.269 68.9887 100.928 67.3414 47.6887 94.6829 28.6403 20.6587 71.0324 38.1903 40.3484 29.0398 32.8421 19.6527 27.6429
internal_count=1356 1279 325 954 676 278 405 271 192 380 115 83 287 154 163 117 133 79 112
is_linear=0
shrinkage=0.006


Tree=27
num_leaves=22
num_cat=0
split_feature=0 0 14 8 16 10 13 16 8 8 18 8 0 16 13 11 0 10 18 17 10
split_gain=62.4554 47.0092 60.1133 40.7675 36.8483 46.6653 30.2772 25.8717 20.9287 19.0308 16.3527 14.9704 12.3933 9.92878 9.79881 8.80025 5.50748 3.45589 3.42388 2.36935 0.409221
threshold=20.500000000000004 38.500000000000007 -0.68634336876584767 -0.31684201420581098 0.89608955866857942 -0.13351419820416785 0.23004557492008607 -0.083117359923725556 0.76218278803777451 -1.2910318812802888 -0.47245605587928324 -0.29131977416173799 28.500000000000004 1.0000000180025095e-35 0.85007083968968378 0.62626705581063569 27.500000000000004 -0.72695622886814371 -1.2562522869969068 0.17671474736776341 -0.35579051418941915
decision_type=2 2 2 2 2 2 2 2 2 2 2 2 2 2 2 2 2 2 2 2 2
left_child=-1 2 3 13 5 18 -7 -5 9 -3 17 20 -12 16 -13 -9 -2 -6 -4 -15 -11
right_child=1 8 4 7 10 6 -8 15 -10 11 12 14 -14 19 -16 -17 -18 -19 -20 -21 -22
leaf_value=0.010528718834335978 0.0064348755171726021 -0.0063926173618828073 -0.0058966677394847768 0.0076539119168437435 0.0041137228605284465 -0.0044951066784431875 0.0031383894683627983 -0.0086012066266470105 -0.0057808419355792296 0.0073631423073884459 -0.0039484723715223196 0.00067089436157960101 0.005811650233511787 0.010335867798418384 0.0068610047576099075 -0.00048726047179113187 -0.0013956422709327557 0.010837237501016405 -0.0099277374922526664 0.0053308569078881381 0.010143471259395423
leaf_weight=18.931855201721191 6.7006548047065717 4.9609356522560111 4.9776612520217887 6.7081515938043621 5.693312481045723 67.374309569597244 25.702824577689171 13.431271836161615 7.4762220829725257 5.4421777725219753 15.586975425481798 21.65401753783226 6.4639178961515418 19.524798184633259 15.878030672669409 7.4766120910644522 5.9731632024049759 5.9451673030853254 48.710961654782295 4.9766196757554999 16.819478318095207
leaf_count=77 27 20 20 27 23 271 103 54 30 22 63 87 26 79 64 30 24 24 197 20 68
internal_value=0 -0.000633657 -0.00188671 0.0030642 -0.00366572 -0.00496351 -0.00238494 -0.00244864 0.0036143 0.00471347 0.00198393 0.00565316 -0.0010609 0.00715067 0.00331212 -0.00573179 0.00278001 0.00767329 -0.00940839 0.00937067 0.00953539
internal_weight=0 317.477 245.246 64.7913 180.455 146.766 93.0771 27.616 72.2309 64.7546 33.6894 59.7937 22.0509 37.1752 37.532 20.9079 12.6738 11.6385 53.6886 24.5014 22.2617
internal_count=1356 1279 988 261 727 591 374 111 291 261 136 241 89 150 151 84 51 47 217 99 90
is_linear=0
shrinkage=0.006


Tree=28
num_leaves=20
num_cat=0
split_feature=0 6 19 0 8 2 18 11 10 8 18 14 0 0 16 0 11 11 0
split_gain=61.7935 52.2523 57.2614 33.2102 43.3186 61.8838 35.3293 35.1633 25.9893 24.7257 19.7761 16.9354 21.5753 29.8721 16.4183 13.6078 8.40737 3.39126 0.801019
threshold=20.500000000000004 1.0000000180025095e-35 0.96614263900671238 25.500000000000004 -0.31684201420581098 1.0000000180025095e-35 -0.52489449945005984 1.5130770556580504 -0.047059744092335008 -0.73380810273013097 -1.4554476873897844 0.23573408268011578 34.500000000000007 23.500000000000004 -0.65359446280775046 29.500000000000004 0.16559225393382285 0.98241946667259039 24.500000000000004
decision_type=2 2 2 2 2 2 2 2 2 2 2 2 2 2 2 2 2 2 2
left_child=-1 2 11 6 5 -5 9 8 -6 -3 -11 17 13 -13 -8 -7 -14 18 -2
right_child=1 3 -4 4 7 15 14 -9 -10 10 -12 12 16 -15 -16 -17 -18 -19 -20
leaf_value=0.010480493894963493 0.0075004703385340918 0.0084023604912264269 -0.010296991260055947 -0.010785934360815456 -0.0074767548062221337 0.0095156408953653779 0.00075151938561024108 0.010488812979078209 -0.0011585275157859141 0.00542246753408962 -0.0075267938171283575 0.005370590980122482 0.0027185399107913402 -0.010550704212921685 -0.010624582519041642 0.0033525164311715757 0.010247206244367998 0.00388463517469558 0.010227550012381511
leaf_weight=18.905852943658829 9.1532688587903994 7.9778108894825008 9.3087196052074415 9.6678002029657346 42.524269878864288 19.635115325450897 5.2173050045967093 6.2429851144552222 52.113524794578552 5.7408472001552626 14.903964340686795 8.4487257599830645 10.66783729195595 8.145429462194441 35.070743247866631 37.987448021769524 10.899887666106222 5.1936980634927741 18.443326935172081
leaf_count=77 37 32 38 39 171 79 21 25 209 23 60 34 43 33 142 153 44 21 75
internal_value=0 -0.000629831 0.00354902 -0.00204632 -0.000606588 0.00311651 -0.00554796 -0.00309125 -0.00400732 -0.00044262 -0.00390842 0.00538941 0.00265071 -0.00247713 -0.00915494 0.00547827 0.00658257 0.00854136 0.0093835
internal_weight=0 317.343 80.2609 237.082 168.171 67.2904 68.9107 100.881 94.6378 28.6226 20.6448 70.9522 38.1619 16.5942 40.288 57.6226 21.5677 32.7903 27.5966
internal_count=1356 1279 325 954 676 271 278 405 380 115 83 287 154 67 163 232 87 133 112
is_linear=0
shrinkage=0.006


Tree=29
num_leaves=23
num_cat=0
split_feature=0 6 19 15 3 14 12 0 0 14 0 8 14 0 12 0 18 9 15 14 12 18
split_gain=61.1442 51.6673 56.6517 34.1345 38.1677 24.8914 26.7372 24.618 22.6698 22.0796 21.013 18.6917 16.7602 21.3777 11.3731 9.36196 9.26685 8.78979 4.08006 1.30462 0.964838 0.604568
threshold=20.500000000000004 1.0000000180025095e-35 0.96614263900671238 0.51452444963116195 1.0000000180025095e-35 -0.99248371436987193 -1.4370987292900816 25.500000000000004 29.500000000000004 0.53011952937256324 38.500000000000007 -0.43977836278018684 0.23573408268011578 39.500000000000007 0.34352463085748675 23.500000000000004 0.78103708606594302 -1.0782614740322127 1.0467855061023312 0.91438680079208168 -1.8570782786268232 0.6612367799759703
decision_type=2 2 2 2 2 2 2 2 2 2 2 2 2 2 2 2 2 2 2 2 2 2
left_child=-1 2 12 4 7 11 -7 17 -9 14 -8 20 18 15 -6 -14 -13 -3 21 -11 -5 -2
right_child=1 3 -4 5 9 6 10 8 -10 19 -12 16 13 -15 -16 -17 -18 -19 -20 -21 -22 -23
leaf_value=0.010432984712569062 0.010015227966070872 -0.0023038511520807217 -0.010251380978572909 0.010090378459404399 0.0054982049675927824 -0.010557397509184841 -0.001431615583317029 -0.0012224009171653265 -0.0056830006417709225 0.0064385103084157059 0.0099356767169501911 -0.0039501339747773645 0.0053412284116756111 0.010538425494979469 -0.0012224009171653265 -0.002089551512742364 0.0061961138046807366 -0.010312999821328172 0.0037168957364881383 0.011055981204540084 0.0064994818620417623 0.0070349419145153682
leaf_weight=18.878984600305557 21.638956829905514 5.9748235046863547 9.2949659973382932 13.048761859536173 8.9754829406738335 9.372779116034506 32.182642921805382 28.920374944806099 60.947834804654121 5.4444136172533018 6.9471768587827674 8.4706483632326108 8.4453101158142108 9.1272918879985792 7.9850528538227072 20.563369616866112 4.9746492207050315 32.292022049427032 5.7176707237958899 5.9821242988109589 5.4639446586370495 5.4007113873958579
leaf_count=77 88 24 38 53 36 38 129 116 245 22 28 34 34 37 32 83 20 131 23 24 22 22
internal_value=0 -0.00062632 0.0035312 -0.0020349 -0.00366599 0.00113933 -0.00156893 -0.00505927 -0.00333043 0.00261447 0.000626816 0.00523385 0.00536202 0.00263683 -0.0012224 9.55348e-05 -0.000160312 -0.00908097 0.00849942 0.00900449 0.00911133 0.00947599
internal_weight=0 317.171 80.1883 236.983 156.522 80.4606 48.5026 128.135 89.8682 28.3871 39.1298 31.958 70.8933 38.136 16.9605 29.0087 13.4453 38.2668 32.7573 11.4265 18.5127 27.0397
internal_count=1356 1279 325 954 630 324 195 516 361 114 157 129 287 154 68 117 54 155 133 46 75 110
is_linear=0
shrinkage=0.006


Tree=30
num_leaves=22
num_cat=0
split_feature=0 6 15 3 0 16 0 14 12 0 0 17 0 6 8 6 15 14 14 16 17
split_gain=60.5007 51.0811 33.738 37.557 32.5097 53.1142 52.1211 24.6155 26.459 24.428 22.4423 21.9344 20.784 18.5454 18.5171 26.7456 7.89267 7.86559 5.33789 15.5615 1.88573
threshold=20.500000000000004 1.0000000180025095e-35 0.51452444963116195 1.0000000180025095e-35 30.500000000000004 1.4390087240733855 23.500000000000004 -0.99248371436987193 -1.4370987292900816 25.500000000000004 29.500000000000004 0.93144387987028521 38.500000000000007 1.5000000000000002 -0.42341462613442277 1.5000000000000002 1.1297013304648535 -0.47504027412573652 0.42186599245163775 -0.083117359923725556 -1.4300174100469707
decision_type=2 2 2 2 2 2 2 2 2 2 2 2 2 2 2 2 2 2 2 2 2
left_child=-1 4 3 9 5 6 16 14 -9 17 -11 13 -10 -5 20 -16 -2 -3 -6 -20 -4
right_child=1 2 7 11 18 -7 -8 8 12 10 -12 -13 -14 -15 15 -17 -18 -19 19 -21 -22
leaf_value=0.01038617653338717 0.0084758878889776637 -0.0028925152404745036 0.0097654497639242405 -0.0012210010355031208 0.010556791589672921 0.0097134641736329186 -0.010585580905744046 -0.010508003015633932 -0.0014231038274695063 -0.0012210010355031208 -0.0056510428168061715 -0.0012210010355031208 0.0098859198662821918 0.010968035055443637 0.0069363245892712332 -0.011087986858507105 -0.00076658706461178424 -0.010260936388431225 0.010064646284274864 -0.0013443592242228216 0.0052152425931431198
leaf_weight=18.851268097758293 8.1542057842016202 6.4644747078418723 15.012886941432955 6.7446981221437499 15.75041154026985 14.493666425347326 18.414890751242638 9.3613107502460462 32.182077154517174 28.919195756316185 60.925948441028595 9.2338318973779661 6.9412741214036933 12.399914562702179 6.7198242545127851 4.9851673990488052 5.4753388762474051 31.761943131685257 10.860485896468161 6.975700810551646 5.2183052152395275
leaf_count=77 33 26 61 27 64 59 75 38 129 116 245 37 28 50 27 20 22 129 44 28 21
internal_value=0 -0.000622502 -0.00202323 -0.00364518 0.00351317 0.000259652 -0.00405002 0.00113331 -0.00156015 -0.00502771 -0.00330586 0.00258571 0.000623421 0.00666843 0.0052067 -0.000797558 0.00480556 -0.0090364 0.00799306 0.00563718 0.00865434
internal_weight=0 316.996 236.871 156.45 80.1247 46.5381 32.0444 80.4208 48.4847 128.072 89.8451 28.3784 39.1234 19.1446 31.9362 11.705 13.6295 38.2264 33.5866 17.8362 20.2312
internal_count=1356 1279 954 630 325 189 130 324 195 516 361 114 157 77 129 47 55 155 136 72 82
is_linear=0
shrinkage=0.006


Tree=31
num_leaves=25
num_cat=0
split_feature=0 6 19 15 3 14 14 10 0 0 14 8 6 14 0 0 8 9 16 17 15 14 17 18
split_gain=59.8623 50.4988 55.4645 33.3326 37.0032 24.3425 25.085 24.8582 24.2412 22.2292 21.7885 18.3337 29.7971 16.4484 21.0876 29.0527 9.07273 8.65614 8.13131 5.95012 4.00057 1.29537 1.20998 0.600475
threshold=20.500000000000004 1.0000000180025095e-35 0.96614263900671238 0.51452444963116195 1.0000000180025095e-35 -0.99248371436987193 0.41704230031979123 1.4771131973088016 25.500000000000004 29.500000000000004 0.53011952937256324 -0.43977836278018684 1.5000000000000002 0.23573408268011578 34.500000000000007 23.500000000000004 -0.65768746337169837 -1.0782614740322127 -0.083117359923725556 0.93144387987028521 1.0467855061023312 0.91438680079208168 -1.4300174100469707 0.6612367799759703
decision_type=2 2 2 2 2 2 2 2 2 2 2 2 2 2 2 2 2 2 2 2 2 2 2 2
left_child=-1 2 13 4 8 11 7 -7 17 -10 19 22 -13 20 15 -15 -8 -3 -16 -6 23 -12 -5 -2
right_child=1 3 -4 5 10 6 16 -9 9 -11 21 12 -14 14 18 -17 -18 -19 -20 -21 -22 -23 -24 -25
leaf_value=0.010340054650574628 0.0099259809338515716 -0.0022674718522993401 -0.010163149887906618 0.010021529527204158 0.003269009203484754 -0.0063521509360398081 0.010852385028098387 0.0071291184235296691 -0.0012170643066882663 -0.0056193427982662979 0.0063634059056810015 0.0069178162129139185 -0.011113066783456567 0.0052751521357006668 0.010033797397026539 -0.010442348152447892 0.00083822417951763875 -0.010217503733957901 0.0026195562115340983 -0.0012170643066882663 0.0036836821836107453 0.010960299037538781 0.0060334373209405554 0.0069601828428240932
leaf_weight=18.822719976305962 21.583638980984691 5.972441539168357 9.2662017345428449 13.508158132433893 10.718562513589864 29.799485579133034 5.9593647122383118 5.7178519666194907 28.917996615171432 60.903224691748619 5.4361059516668302 8.2054016739130002 5.2315959036350241 8.4366667866706866 11.094998642802237 8.1234686225652677 6.9892498254775983 32.212450206279755 10.434232398867609 6.2368994057178488 5.7146728932857505 5.9756668657064438 4.9663859009742763 5.3883439898490897
leaf_count=77 88 24 38 55 43 120 24 23 116 245 22 33 21 34 45 33 28 131 42 25 23 24 20 22
internal_value=0 -0.000618336 0.00349608 -0.00201114 -0.00362368 0.00112725 -0.00155144 -0.00415407 -0.0049964 -0.00328144 0.00256227 0.00517985 -0.000162401 0.00530798 0.0026073 -0.00246757 0.00554203 -0.00899234 0.00649764 -0.00121706 0.00842006 0.00891784 0.00902554 0.00938908
internal_weight=0 316.793 80.0422 236.751 156.373 80.3775 48.466 35.5173 128.006 89.8212 28.3672 31.9115 13.437 70.776 38.0894 16.5601 12.9486 38.1849 21.5292 16.9555 32.6867 11.4118 18.4745 26.972
internal_count=1356 1279 325 954 630 324 195 143 516 361 114 129 54 287 154 67 52 155 87 68 133 46 75 110
is_linear=0
shrinkage=0.006


Tree=32
num_leaves=29
num_cat=0
split_feature=19 6 15 10 13 3 14 6 14 10 16 17 15 19 17 10 18 16 12 13 18 9 15 18 10 15 12 19
split_gain=41.9323 50.2407 27.4613 26.9351 43.0721 16.6952 20.9826 17.4166 14.6096 13.4763 11.8438 13.6768 18.7348 8.74549 8.99375 6.02339 7.84072 6.00145 5.35095 5.05203 4.97912 4.7878 3.90692 1.37825 1.37268 0.617992 0.155059 0.0731204
threshold=0.88083217840982286 1.0000000180025095e-35 0.51452444963116195 0.061473668347464615 -0.34073496746320492 1.0000000180025095e-35 0.53011952937256324 1.5000000000000002 0.23573408268011578 -0.031386659011581594 -0.05573808034555465 0.79604445941397761 -0.64741557674077999 0.16296523636027729 -1.4741230291084839 1.5718920732273978 -0.88112648352793699 0.87771208151557467 0.34352463085748675 -0.60198354678938115 -0.64559522020594362 -0.13769283911053407 1.0467855061023312 -0.51037968304245906 -0.29926874202812342 -0.92447411413502867 0.45594453137535057 -0.040010680308216875
decision_type=2 2 2 2 2 2 2 2 2 2 2 2 2 2 2 2 2 2 2 2 2 2 2 2 2 2 2 2
left_child=1 8 5 17 21 7 18 9 22 -3 20 12 -12 15 -15 16 -4 23 -7 -9 -10 -5 25 -2 -8 -1 -22 -27
right_child=3 2 13 4 -6 6 24 19 10 -11 11 -13 -14 14 -16 -17 -18 -19 -20 -21 26 -23 -24 -25 -26 27 -28 -29
leaf_value=0.0067443189807029338 -0.0069807624142402625 -0.0038222971507503351 -0.0030083813253163464 0.003006461530526197 0.010766484910591869 0.0053334342295735327 0.0060317179069234988 -0.010266405026874387 0.001633891234443395 -0.00027536765903799523 0.010606859898418707 -0.0071505195241766718 -0.0029010934566414057 0.0036630497418415667 -0.004771107724687325 0.0089451464445868163 0.004435853160235286 -0.0039466998119377025 -0.00027536765903799523 -0.0049902064225494031 0.007525724852042213 -0.0039466998119377025 0.0036633264376113766 -0.010225801748819558 0.010792702533150268 0.010309351912102615 0.010290434233952357 0.0079895686982852827
leaf_weight=4.9134642928838757 9.1395930349826831 49.326780423521996 5.9730666428804389 4.9491624981164941 8.9022170454263669 7.9706500321626681 4.9517912566661835 9.9280713200569171 4.9647977203130731 39.615110218524933 6.4370388090610495 6.642168015241622 8.1958294510841387 8.6187138259410876 9.2122601568698865 7.9689505249261847 30.166652649641037 4.9468373954296103 7.9841935336589813 21.033000066876411 5.9102124124765361 9.8929370790719986 5.7130649834871283 19.373585850000381 6.2042564600706083 16.368547901511196 4.9246947020292282 5.1587579846382132
leaf_count=20 37 199 24 20 36 32 20 40 20 160 26 27 33 35 37 32 122 20 32 85 24 40 23 79 25 67 20 21
internal_value=0 0.000965498 -0.000503315 -0.00466652 0.000225066 -0.0019147 0.00232482 -0.00287556 0.00538751 -0.00151923 0.00279744 -0.000134296 0.00310399 0.00284199 -0.000698993 0.00427012 0.00319571 -0.00811847 -0.000275368 -0.00673712 0.00669749 -0.0039467 0.00833822 -0.00924151 0.00882291 0.00931324 0.00894608 0.00983211
internal_weight=0 278.182 208.953 57.2043 23.7443 147.014 27.1109 119.903 69.2286 88.9419 37.0747 21.275 14.6329 61.9396 17.831 44.1087 36.1397 33.46 15.9548 30.9611 15.7997 14.8421 32.1538 28.5132 11.156 26.4408 10.8349 21.5273
internal_count=1356 1124 843 232 96 593 109 484 281 359 150 86 59 250 72 178 146 136 64 125 64 60 131 116 45 108 44 88
is_linear=0
shrinkage=0.006


Tree=33
num_leaves=23
num_cat=0
split_feature=0 6 19 15 3 0 14 12 13 14 0 8 6 14 0 12 0 9 15 14 12 15
split_gain=59.1935 49.4694 54.3679 32.5787 35.9485 24.1175 23.9931 25.9018 21.8933 21.4818 20.2803 18.1518 29.3916 16.1246 20.8052 10.9964 9.01128 8.59042 3.93609 1.27427 0.94006 0.562554
threshold=20.500000000000004 1.0000000180025095e-35 0.96614263900671238 0.51452444963116195 1.0000000180025095e-35 25.500000000000004 -0.99248371436987193 -1.4370987292900816 0.14700543958836018 0.53011952937256324 38.500000000000007 -0.43977836278018684 1.5000000000000002 0.23573408268011578 39.500000000000007 0.34352463085748675 23.500000000000004 -1.0782614740322127 1.0467855061023312 0.91438680079208168 -1.8570782786268232 -0.93649875068942134
decision_type=2 2 2 2 2 2 2 2 2 2 2 2 2 2 2 2 2 2 2 2 2 2
left_child=-1 2 13 4 5 17 11 -8 -7 15 -9 20 -13 18 16 -6 -15 -3 21 -11 -5 -2
right_child=1 3 -4 6 9 8 7 10 -10 19 -12 12 -14 14 -16 -17 -18 -19 -20 -21 -22 -23
leaf_value=0.010290788155530431 0.0067987262333431882 -0.0022334149825086851 -0.010083346282912816 0.0099351273655097719 0.0054041934551248578 -0.0062452235421699065 -0.010415603883990493 -0.0014105155829587052 -0.0012162617427381528 0.0062946832007621783 0.0097711878641866031 0.0068553406062230142 -0.011057479197491706 0.0052240081140436257 0.010392692172713137 -0.0012162617427381528 -0.0020735525503451273 -0.010154325268684693 0.0036431013366694295 0.010854762411289768 0.0063896669589139877 0.0097987097796297818
leaf_weight=18.789784967899323 4.9201468080282238 5.970386490225791 9.2381113022565824 12.991949006915094 8.9679224193096214 45.434268459677696 9.3375120311975461 32.171093344688416 44.332188636064529 5.429006487131117 6.9253293424844733 8.1992323696613294 5.2291661649942389 8.4288256168365496 9.090664401650427 7.9841081798076621 20.517468452453613 32.154010325670242 5.7114284038543692 5.9676612913608551 5.4542465955019024 21.981907784938812
leaf_count=77 20 24 38 53 36 183 38 129 178 22 28 33 21 34 37 32 83 131 23 24 22 90
internal_value=0 -0.000615473 0.00346124 -0.00199405 -0.00358893 -0.00494268 0.00110998 -0.00154986 -0.00323229 0.00251016 0.000609801 0.00513613 -0.000180013 0.00525577 0.00258057 -0.00121626 7.2678e-05 -0.00893202 0.0083411 0.00882851 0.00896657 0.00930426
internal_weight=0 316.437 79.8886 236.548 156.24 127.891 80.3085 48.4339 89.7665 28.3487 39.0964 31.8746 13.4284 70.6504 38.037 16.952 28.9463 38.1244 32.6135 11.3967 18.4462 26.9021
internal_count=1356 1279 325 954 630 516 324 195 361 114 157 129 54 287 154 68 117 155 133 46 75 110
is_linear=0
shrinkage=0.006


Tree=34
num_leaves=26
num_cat=0
split_feature=6 14 15 3 6 17 1 14 10 9 8 12 13 10 10 12 12 17 14 15 11 14 15 18 14
split_gain=34.5948 30.1572 30.0633 24.1405 27.0155 23.4659 21.6809 20.749 15.5001 19.5739 14.3712 14.3403 19.691 11.6487 11.0074 8.17007 8.07668 18.6541 7.40138 17.6842 6.04688 3.16094 2.32872 1.71378 1.26098
threshold=1.0000000180025095e-35 0.23573408268011578 0.51452444963116195 1.0000000180025095e-35 1.5000000000000002 -1.8581059695212179 1.0000000180025095e-35 0.53011952937256324 -0.031386659011581594 -0.028348007309665565 1.758822507791663 -2.0028138766526218 -0.12194953019223061 1.4771131973088016 0.02904927444159831 0.34352463085748675 -0.071988456380540716 0.79604445941397761 0.69529314479527049 0.037376344207194191 0.990727296945488 0.8161130071939332 0.20826276062643484 0.56402844833030197 0.91438680079208168
decision_type=2 2 2 2 2 2 2 2 2 2 2 2 2 2 2 2 2 2 2 2 2 2 2 2 2
left_child=1 20 3 4 8 -4 16 15 9 -2 21 -7 13 -13 -14 -5 -3 -18 19 -8 23 -6 -21 -1 -9
right_child=2 6 5 7 10 11 18 24 -10 -11 -12 12 14 -15 -16 -17 17 -19 -20 22 -22 -23 -24 -25 -26
leaf_value=0.0096435046578780912 -0.0023285926472750257 -0.010023075079436689 -0.0093514459919441205 0.0053736838548455084 -0.010150758528381196 0.0095904595259833011 -0.0054505059786038382 0.0062620896431968085 -0.00054706815297143007 -0.0079443959309646716 -0.00054706815297143007 -0.0029286154949187452 0.0020777748833840657 0.0020777748833840657 0.0072605214657386749 -0.00054706815297143007 0.0042010617129091118 -0.0088475607743863302 0.0090275121228652784 0.00350855695039759 0.0017103107848124111 -0.0052762911266347476 0.0093294564701005937 0.0056828479406368267 0.010800021380090178
leaf_weight=22.282322511076931 29.004087120294571 5.8290478289127376 6.1232566237449637 8.9658674597740227 27.666139081120491 9.2846902608871442 6.9276899397373262 5.425571605563162 41.321096435189247 27.927681013941765 7.4624116271734229 32.502187833189964 5.2181132584810284 7.2114435881376258 26.462023228406906 7.9837275445461264 8.4081382602453214 7.092305824160575 7.4109365493059149 4.9348514974117261 5.1697238087654105 6.6585643738508216 5.6611282527446747 6.1014260649681082 5.9629493057727814
leaf_count=91 117 24 25 36 112 38 28 22 167 113 30 131 21 29 107 32 34 29 30 20 21 27 23 25 24
internal_value=0 0.0034439 -0.00107727 -0.00255491 -0.00357628 0.00178834 0.000296357 0.00248214 -0.00185041 -0.00411012 -0.00760614 0.00265485 0.00172861 -0.00108567 0.00524122 -0.000547068 -0.0041239 -0.00180605 0.00408025 0.00190974 0.00775631 -0.00924122 0.00673372 0.00883783 0.0087835
internal_weight=0 79.8176 255.18 168.378 140.04 86.8017 46.2641 28.3381 98.2529 56.9318 41.7871 80.6785 71.3938 39.7136 31.6801 16.9496 21.3295 15.5004 24.9346 17.5237 33.5535 34.3247 10.596 28.3837 11.3885
internal_count=1356 325 1031 680 566 351 188 114 397 230 169 326 288 160 128 68 87 63 101 71 137 139 43 116 46
is_linear=0
shrinkage=0.006


Tree=35
num_leaves=30
num_cat=0
split_feature=19 6 15 10 13 13 10 14 14 3 12 16 17 11 3 19 11 11 13 14 13 16 18 9 15 18 15 12 19
split_gain=40.8719 48.5804 26.476 26.243 42.2272 15.8483 16.2016 14.1803 13.5252 22.1353 11.7442 11.5625 13.3346 23.9884 9.24871 8.58149 20.204 8.57549 9.39027 6.70551 6.54208 5.92804 4.88318 4.67627 3.84544 1.35778 0.620503 0.163328 0.0869054
threshold=0.88083217840982286 1.0000000180025095e-35 0.51452444963116195 0.061473668347464615 -0.34073496746320492 0.27788951591697603 -0.031386659011581594 0.23573408268011578 0.085014866574981612 1.0000000180025095e-35 -1.7566113152235665 -0.05573808034555465 0.79604445941397761 0.48899852739022875 1.0000000180025095e-35 0.16296523636027729 -1.5417550849920745 -1.3603313786549724 -0.019144348494396616 0.57501404314991678 -0.26868848853418187 0.87771208151557467 -0.64559522020594362 -0.13769283911053407 1.0467855061023312 -0.51037968304245906 -0.92447411413502867 0.45594453137535057 -0.040010680308216875
decision_type=2 2 2 2 2 2 2 2 2 2 2 2 2 2 2 2 2 2 2 2 2 2 2 2 2 2 2 2 2
left_child=1 7 5 21 23 8 14 24 10 -10 -3 22 13 -13 -7 17 -17 -4 -19 -8 -18 25 -9 -5 26 -2 -1 -24 -28
right_child=3 2 15 4 -6 6 19 11 9 -11 -12 12 -14 -15 -16 16 20 18 -20 -21 -22 -23 27 -25 -26 -27 28 -29 -30
leaf_value=0.0066309407840045463 -0.0069022999463941815 -0.010492841740577904 0.0096336487418205146 0.002987948734258377 0.010672098063833376 -0.0013952155232827121 0.0020766396420238585 0.0015994818321601301 -0.0084322385133483915 -0.0013952155232827121 -0.0013952155232827121 -0.0060779121283033683 -0.0070773898340876452 0.0093530355539485511 0.0020766396420238585 0.007696031470924217 -0.0093554148557864585 -0.00047994822438151077 0.0056791662257298925 0.0082579263991664729 -0.00024910624318182838 -0.003903317376070292 0.0074259133993809234 -0.003903317376070292 0.0035843606600930284 -0.010124744042409071 0.010189220456042923 0.010190605187132225 0.0078640605190155345
leaf_weight=4.8984378278255489 9.1208714097738284 4.9499057233333579 8.3236140608787519 4.9427636414766321 8.8818523287773115 32.401248320937157 5.2244801968336132 4.9612773954868326 33.297361493110657 11.204166695475577 41.393818601965904 5.9676891714334515 6.6300123035907736 8.649116709828375 6.8909171670675269 6.3798958957195309 6.4496421515941629 16.19021925330162 19.542842522263527 11.470462217926977 4.9770232141017887 4.9408141225576392 5.8946966826915705 9.873556524515152 5.7061321288347235 19.307344019412994 16.297650679945949 4.9103495627641678 5.1402013301849356
leaf_count=20 37 20 34 20 36 131 21 20 135 45 167 24 27 35 28 26 26 65 79 46 20 20 24 40 23 79 67 20 21
internal_value=0 0.000953481 -0.00049107 -0.00461312 0.000219166 -0.00187776 0.000632163 0.00530793 -0.00342259 -0.00578528 -0.00139522 0.00275527 -0.000142643 0.00305595 -0.00139522 0.00279568 -0.000714223 0.00421111 0.00290141 0.00554849 -0.00546157 -0.0080258 0.0066134 -0.00390332 0.00822119 -0.0091463 0.00919124 0.00884469 0.00970955
internal_weight=0 277.751 208.696 57.0672 23.6982 146.832 55.9871 69.0556 90.8453 44.5015 46.3437 37.0131 21.2468 14.6168 39.2922 61.8632 17.8066 44.0567 35.7331 16.6949 11.4267 33.369 15.7663 14.8163 32.0424 28.4282 26.3363 10.805 21.4379
internal_count=1356 1124 843 232 96 593 226 281 367 180 187 150 86 59 159 250 72 178 144 67 46 136 64 60 131 116 108 44 88
is_linear=0
shrinkage=0.006


Tree=36
num_leaves=21
num_cat=0
split_feature=0 6 0 15 0 2 18 0 16 0 12 15 8 18 18 16 9 10 14 16
