tree
version=v4
num_class=1
num_tree_per_iteration=1
label_index=0
max_feature_idx=20
objective=binary sigmoid:1
feature_names=EDAD_PTE_OVOCITOS PROCEDENCIA_OVOCITOS PROCEDENCIA_SEMEN ESTADO_SEMEN DIA_EMBRION GRADO_EXPANSIÓN MCI TROFODERMO DESTINO crudo_2 crudo_3 crudo_4 crudo_5 crudo_6 crudo_7 d1_2 d1_3 d1_4 d1_5 d1_6 d1_7
monotone_constraints=0 -1 -1 1 1 0 -1 1 -1 -1 1 1 1 1 1 -1 0 1 1 0 1
feature_infos=[19:47] [0:1] [0:1] [0:1] [0:1] [0:3] [0:2] [0:2] none [-1.8867862034956724:4.2013517992480542] [-2.9127158234365611:6.8878097292154425] [-3.6083922399905441:6.5920673821853208] [-1.3641170320500517:4.2156920377819214] [-1.7079644016377629:3.7750959239896353] [-1.5285123875102875:3.9110818927069682] [-3.901249317056553:5.2146121966183507] [-2.3133618450423472:4.9785706769159033] [-8.1647188145149396:3.9361785020043918] [-1.5428845403476328:4.1227515830854919] [-5.9925163605892848:1.8008829682493865] [-2.1412875573775358:2.6582475063699058]
tree_sizes=1682 1818 1842 1632 1859 1553 1863 1871 1868 1872 1870 1875 1762 1664 1761 1757 1667 1879 1876 1876 1876 1874 1768 1866 1879 1878 1877 1879 1871 1869 1876 1871 1667 1875 1667 1666 1875 1759 1553 1751 1875 1849 1866 1872 1870 1869 1661 1866 1869 1661 1869 1877 1868 1868 1869 1665 1868 1868 1876 1753 1878 1668 1874 1767 1670 1868 1874 1869 1872 1875 1876 1875 1759 1872 1876 1877 1872 1761 1765 1757 1750 1762 1762 1767 1757 1761 1757 1766 1760 1760 1764 1764 1869 1757 1762 1758 1656 1766 1878 1757 1676 1872 1764 1456 1757 1760 1766 1662 1764 1764 1766 1768 1760 1872 1765 1757 1761 1765 1653 1659 1766 1767 1765 1872 1764 1764 1764 1765 1763 1769 1761 1759 1765 1759 1763 1762 1762 1756 1766 1762 1454 1766 1768 1761 1769 1758 1766 1656 1769 1764 1762 1450 1762 1765 1762 1762 1876 1651 1455 1650 1765 1762 1762 1462 1764 1759 1765 1655 1767 1455 1769 1872 1762 1765 1882 1764 1655 1650 1461 1768 1758 1764 1765 1659 1759 1770 1761 1764 1769 1771 1759 1761 1456 1765 1760 1763 1771 1767 1766 1763 1457 1770 1456 1659 1771 1772 1456 1764 1767 1760 1765 1764 1766 1769 1773 1770 1662 1767 1660 1660 1660 1659 1456 1655 1773 1657 1774 1661 1763 1654 1772 1654 1662 1654 1657 1452 1771 1656 1658 1657 1657 1771 1652 1458 1773 1657 1770 1657 1653 1767 1654 1771 1652 1660 1772 1656 1769 1659 1657 1771 1652 1663 1654 1460 1457 1766 1768 1659 1653 1768 1764 1658 1769 1653 1767 1661 1770 1659 1657 1660 1659 1769 1660 1665 1658 1659 1657 1658 1655 1660 1653 1460 1657 1659 1456 1550 1652 1656 1459 1661 1658 1769 1650 1665 1546 1666 1657 1652 1662 1654 1653 1654 1662 1658 1551 1664 1657 1658 1766 1665 1655 1660 1552 1662 1661 1668 1658 1769 1657 1650 1665 1655 1664 1663 1342 1664 1660 1660 1654 1665 1657 1664 1759 1657 1447 1454 1663 1667 1664 1656 1661 1659 1667 1655 1443 1546 1442 1668 1665 1661 1658 1444 1658 1651 1456 1439 1764 1656 1664 1440 1661 1663 1443 1654 1663 1660 1658 1659 1544 1656 1440 1664 1659 1658 1440 1655 1663 1664 1444 1664 1664 1768 1553 1661 1549 1657 1442 1519 1653 1443 1755 1668 1645 1643 1551 1437 1666 1665 1554 1441 1642 1654 1456 1432 1637 1671 1658 1427 1457 1669 1432 1753 1660 1341 1341 1425 1661 1663 1668 1436 1661 1427 1657 1668 1659 1640 1655 1321 1666 1771 1657 1435 1653 1665 1665 1444 1655 1653 1439 1652 1662 1640 1666 1438 1653 1347 1663 1459 1442 1658 1662 1429 1662 1343 1442 1663 1658 1334 1668 1440 1665 1768 1667 1661 1348 1442 1666 1659 1443 1657 1664 1659 1440 1346 1659 1656 1336 1664 1764 1440 1660 1651 1646 1326 1667 1660 1667 1347 1435 1656 1666 1444 1656 1656 1659 1554 1549 1346 1436 1663 1549 1439 1665 1546 1553 1776 1443 1548 1552 1551 1659 1341 1339 1656 1328 1551 1664 1441 1548 1544 1558 1437 1671 1551 1440 1657 1549 1545 1551 1345 1444 1662 1547 1346

Tree=0
num_leaves=16
num_cat=0
split_feature=0 16 0 0 0 20 11 14 2 20 20 20 19 10 14
split_gain=791.556 119.144 47.5952 50.9049 45.478 27.3547 26.471 23.5348 23.2612 18.9468 13.1152 11.9284 10.0685 8.83922 4.92842
threshold=32.500000000000007 0.45834912808741762 36.500000000000007 44.000000000000007 21.500000000000004 2.004289339117995 0.24581536097895901 0.13906266304059559 1.0000000180025095e-35 -1.4426488034406402 -0.51135433808815167 -0.78047594408380949 -0.48507728541676615 0.24170549942093261 -0.1391950286692209
decision_type=2 2 2 2 2 2 2 2 2 2 2 2 2 2 2
left_child=1 9 6 5 7 -4 13 -3 -6 14 -5 -8 -11 -2 -1
right_child=2 4 3 10 8 -7 11 -9 -10 12 -12 -13 -14 -15 -16
leaf_value=-4.2352941176470585e-05 -0.00086829268292682924 -0.0010170212765957447 -0.0011846252402306216 -0.0003545454545454545 0.0010778625954198473 9.333333333333333e-05 -0.00024082424787381517 0.00044000000000000007 0.00014825174825174825 0.00068940852819807433 0.00073523809523809523 0.00045600000000000003 0.0011658411614005125 -0.00024082424787381517 0.00049784172661870504
leaf_weight=27.5 56.75 32 375.25 7.0000000000000027 17.75 14.999999999999998 21.75 4.9999999999999991 199.5 166.75 11.249999999999998 35 277.75 44.5 19.75
leaf_count=110 227 128 1501 28 71 60 87 20 798 667 45 140 1111 178 79
internal_value=0 0.000671222 -0.000878418 -0.00105738 0.000105107 -0.00113337 -0.000363006 -0.000746154 0.000289774 0.000951751 0.00033985 0.000157491 0.00101589 -0.00063914 0.000245783
internal_weight=0 746 566.5 408.5 254.25 390.25 158 37 217.25 491.75 18.25 56.75 444.5 101.25 47.25
internal_count=5250 2984 2266 1634 1017 1561 632 148 869 1967 73 227 1778 405 189
is_linear=0
shrinkage=0.001


Tree=1
num_leaves=16
num_cat=0
split_feature=0 16 0 0 0 20 13 11 2 20 1 20 20 13 15
split_gain=790.077 118.914 47.4896 50.8214 45.4084 27.3057 26.5628 26.4267 23.2394 18.9028 17.3964 13.1053 11.9138 6.98297 4.96147
threshold=32.500000000000007 0.45834912808741762 36.500000000000007 44.000000000000007 21.500000000000004 2.004289339117995 -0.28870578512508943 0.24581536097895901 1.0000000180025095e-35 -1.4426488034406402 1.0000000180025095e-35 -0.51135433808815167 -0.78047594408380949 0.75503589434647234 1.849693534836016
decision_type=2 2 2 2 2 2 2 2 2 2 2 2 2 2 2
left_child=1 9 7 5 6 -4 -3 10 -6 13 -2 -5 -9 -1 -11
right_child=2 4 3 11 8 -7 -8 12 -10 14 -12 -13 -14 -15 -16
leaf_value=-0.00013159288819023464 -0.00024064096476623993 -0.0010667397182625253 -0.0011834865741925272 -0.00035443265676777088 0.0010772785692878771 9.328668971856434e-05 0.00042760039902995484 -0.00024064096476623993 0.00014811382227010661 0.0010494063771833307 -0.00082062598786837397 0.00073492301154310996 0.00045568080812552963 0.00049802390622331015 0.00063028805129417161
leaf_weight=21.499999552965164 7.4999996423721305 30.249992877244949 375.24986580014229 6.9999995827674892 17.749994710087776 14.999999999999998 6.7499991953372946 21.75 199.5 432.74988332390785 93.749990209937096 11.249998658895491 34.999997913837433 25.749999269843102 11.749997466802595
leaf_count=86 30 121 1501 28 71 60 27 87 798 1731 375 45 140 103 47
internal_value=0 0.00067061 -0.000877581 -0.00105635 0.000105039 -0.00113228 -0.00074557 -0.000362721 0.000289564 0.000950869 -0.000638624 0.000339675 0.000157342 0.000245644 0.00101493
internal_weight=0 746 566.5 408.5 254.25 390.25 37 158 217.25 491.75 101.25 18.25 56.75 47.25 444.5
internal_count=5250 2984 2266 1634 1017 1561 148 632 869 1967 405 73 227 189 1778
is_linear=0
shrinkage=0.001


Tree=2
num_leaves=16
num_cat=0
split_feature=0 16 0 0 0 20 11 18 2 20 1 20 20 19 9
split_gain=788.534 118.672 47.4036 50.7381 45.3405 27.2569 26.3721 23.4348 23.2176 18.8578 17.3805 13.0953 11.8988 10.072 3.00835
threshold=32.500000000000007 0.45834912808741762 36.500000000000007 44.000000000000007 21.500000000000004 2.004289339117995 0.24581536097895901 -0.64502331367190002 1.0000000180025095e-35 -1.4426488034406402 1.0000000180025095e-35 -0.51135433808815167 -0.78047594408380949 -0.48507728541676615 0.84733647222492381
decision_type=2 2 2 2 2 2 2 2 2 2 2 2 2 2 2
left_child=1 9 6 5 7 -4 10 -3 -6 14 -2 -5 -8 -11 -1
right_child=2 4 3 11 8 -7 12 -9 -10 13 -12 -13 -14 -15 -16
leaf_value=0.00039973689614074238 -0.0002403770830926377 -0.001062280261126505 -0.0011823497741886878 -0.00035431988878813231 0.0010766951790573927 9.3240025242169691e-05 -0.0002403770830926377 0.00033913162421087754 0.00014797611803441617 0.00068782986766676823 -0.00081991885139797555 0.00073460817831829176 0.00045536185814499278 0.0011637475955708593 -3.7095312117184796e-05
leaf_weight=26.999997362494469 7.4999990761280051 28.999969363212585 375.24946320056915 6.9999991655349758 17.749979898333549 14.999999999999998 21.749998703598976 7.9999977201223365 199.5 166.74987329542637 93.749949216842651 11.249993965029715 34.999993741512299 277.74965432286263 20.249998465180397
leaf_count=108 30 116 1501 28 71 60 87 32 798 667 375 45 140 1111 81
internal_value=0 0.000669965 -0.000876714 -0.00105532 0.000104967 -0.00113119 -0.000362328 -0.000745006 0.000289355 0.000949939 -0.000637947 0.000339502 0.000157193 0.00101393 0.000245483
internal_weight=0 745.999 566.499 408.499 254.25 390.249 158 37 217.25 491.75 101.25 18.25 56.75 444.5 47.25
internal_count=5250 2984 2266 1634 1017 1561 632 148 869 1967 405 73 227 1778 189
is_linear=0
shrinkage=0.001


Tree=3
num_leaves=14
num_cat=0
split_feature=0 12 0 0 0 0 20 11 1 15 14 20 20
split_gain=787.023 109.122 65.4117 47.3178 50.655 33.6006 27.2082 26.3177 17.3646 15.3885 14.9953 13.0853 11.8839
threshold=32.500000000000007 -0.94075863109953295 21.500000000000004 36.500000000000007 44.000000000000007 27.500000000000004 2.004289339117995 0.24581536097895901 1.0000000180025095e-35 1.849693534836016 0.0627574664361049 -0.51135433808815167 -0.78047594408380949
decision_type=2 2 2 2 2 2 2 2 2 2 2 2 2
left_child=1 2 -1 7 6 -4 -5 8 -2 10 -3 -6 -9
right_child=3 9 5 4 11 -7 -8 12 -10 -11 -12 -13 -14
leaf_value=-0.0010776681163377391 -0.00024011351851011863 0.00072713911363287732 0.00049346326157472605 -0.001181214862813176 -0.00035420715049518846 -0.00035924988590071343 9.3193381627400715e-05 -0.00024011351851011863 -0.00081921254146421888 0.00049346326157472605 0.0011364920227032813 0.00073429356987374911 0.00045504318739425243
leaf_weight=26.499933302402496 7.4999983906745902 211.99969384074211 148.74983462691307 375.24881456792355 6.9999979138374355 47.249957472085953 14.999999999999998 21.749997407197952 93.749880284070969 18.4999820291996 292.99942235648632 11.249986588954924 34.999983310699463
leaf_count=106 30 848 595 1501 28 189 60 87 375 74 1172 45 140
internal_value=0 0.00066935 7.4034e-05 -0.000875847 -0.00105429 0.000296238 -0.0011301 -0.000361935 -0.00063727 0.000912893 0.000960815 0.000339328 0.000157043
internal_weight=0 745.999 222.5 566.499 408.499 196 390.249 158 101.25 523.499 504.999 18.25 56.75
internal_count=5250 2984 890 2266 1634 784 1561 632 405 2094 2020 73 227
is_linear=0
shrinkage=0.001


Tree=4
num_leaves=16
num_cat=0
split_feature=0 16 0 0 0 20 13 11 2 20 1 20 20 19 13
split_gain=785.44 118.306 47.2322 50.5721 45.206 27.1596 26.4794 26.2634 23.2151 18.8213 17.3488 13.0754 11.869 10.0768 6.97902
threshold=32.500000000000007 0.45834912808741762 36.500000000000007 44.000000000000007 21.500000000000004 2.004289339117995 -0.28870578512508943 0.24581536097895901 1.0000000180025095e-35 -1.4426488034406402 1.0000000180025095e-35 -0.51135433808815167 -0.78047594408380949 -0.48507728541676615 0.75503589434647234
decision_type=2 2 2 2 2 2 2 2 2 2 2 2 2 2 2
left_child=1 9 7 5 6 -4 -3 10 -6 14 -2 -5 -9 -11 -1
right_child=2 4 3 11 8 -7 -8 12 -10 13 -12 -13 -14 -15 -16
leaf_value=-0.00013216067815547178 -0.00023985029467736473 -0.0010648313247154169 -0.0011800818129300353 -0.00035409448804988458 0.0010759248444636878 9.3146806353732137e-05 0.00042705220726926011 -0.00023985029467736473 0.00014736197746487248 0.0006863639664051658 -0.00081850709958197808 0.00073397915717887576 0.00045472481383700228 0.001161822495932894 0.00049707229516496646
leaf_weight=21.499992057681084 7.499997377395629 30.249881207942963 375.24789753556252 6.9999966621398952 17.749941453337669 14.999999105930327 6.7499936968088141 21.749994814395905 199.49994298815727 166.74953743815422 93.7497778236866 11.249975860118864 34.99997079372406 277.74873594939709 25.749978452920914
leaf_count=86 30 121 1501 28 71 60 27 87 798 667 375 45 140 1111 103
internal_value=0 0.000668662 -0.000874982 -0.00105326 0.000104552 -0.00112901 -0.000744138 -0.000361543 0.000288679 0.000948203 -0.000636595 0.000339154 0.000156894 0.00101212 0.000244688
internal_weight=0 745.998 566.498 408.498 254.25 390.248 36.9999 158 217.25 491.748 101.25 18.25 56.75 444.498 47.25
internal_count=5250 2984 2266 1634 1017 1561 148 632 869 1967 405 73 227 1778 189
is_linear=0
shrinkage=0.001


Tree=5
num_leaves=13
num_cat=0
split_feature=1 16 10 5 15 15 6 12 14 14 11 11
split_gain=453.18 91.5803 64.8949 42.654 42.0239 28.3043 24.6863 21.4293 18.6557 9.4677 6.3892 5.47369
threshold=1.0000000180025095e-35 0.31168029518258222 0.11141791067681191 1.5000000000000002 -1.1406499314765872 1.849693534836016 1.0000000180025095e-35 -0.73964780464600433 0.13906266304059559 0.84745457080778264 0.32969793372435674 1.8911156317298767
decision_type=2 2 2 2 2 2 2 2 2 2 2 2
left_child=1 5 6 11 -3 8 -2 -6 -1 -5 -8 -4
right_child=2 4 3 9 7 -7 10 -9 -10 -11 -12 -13
leaf_value=0.00065454749391511693 -0.00055999322169436518 0.00093455520824660789 -0.00055999322169436518 -0.000243573818554753 1.6300354168702181e-05 1.6300354168702181e-05 -0.0011653559981545684 0.00047542778120765504 0.0012217095397244347 1.6300354168702181e-05 -0.00079797926155510959 1.6300354168702181e-05
leaf_weight=202.74907590448856 62.999537065625191 38.749954968690872 148.99904806911945 136.74916699528694 159.24961547553539 7.4999718666076651 223.49853751063347 60.499857679009438 168.74890002608299 53.749694928526878 42.749807298183441 6.2499735355377188
leaf_count=811 252 155 596 547 637 30 894 242 675 215 171 25
internal_value=0 0.000597531 -0.00056493 -0.000245249 0.000126147 0.000901493 -0.000874737 1.63004e-05 0.000950108 1.63004e-05 -0.00103597 -0.000559993
internal_weight=0 637.497 674.996 345.748 258.499 378.998 329.248 219.749 371.498 190.499 266.248 155.249
internal_count=5250 2550 2700 1383 1034 1516 1317 879 1486 762 1065 621
is_linear=0
shrinkage=0.001


Tree=6
num_leaves=16
num_cat=0
split_feature=0 16 0 0 0 20 13 11 2 20 1 20 20 13 15
split_gain=782.831 117.947 47.1341 50.4964 45.1347 27.1135 26.4445 26.2027 23.1955 18.7878 17.3197 13.0613 11.8548 6.97289 4.97215
threshold=32.500000000000007 0.45834912808741762 36.500000000000007 44.000000000000007 21.500000000000004 2.004289339117995 -0.28870578512508943 0.24581536097895901 1.0000000180025095e-35 -1.4426488034406402 1.0000000180025095e-35 -0.51135433808815167 -0.78047594408380949 0.75503589434647234 1.849693534836016
decision_type=2 2 2 2 2 2 2 2 2 2 2 2 2 2 2
left_child=1 9 7 5 6 -4 -3 10 -6 13 -2 -5 -9 -1 -11
right_child=2 4 3 11 8 -7 -8 12 -10 14 -12 -13 -14 -15 -16
leaf_value=-0.00013247210138047185 -0.00023914082847443439 -0.001064139592701018 -0.0011782879757088983 -0.00035361121705994466 0.0010752388952104523 9.3493646274600764e-05 0.00042676168929695708 -0.00023914082847443439 0.00014710181313934098 0.0010450175635393557 -0.00081716779820816443 0.00073401197524923187 0.00045475006226736858 0.00049635803809555961 0.00062730961981817958
leaf_weight=21.49998252093792 7.4999993592500678 30.249811872839928 375.24589079618454 6.9999849796295193 17.749892547726631 14.9999992698431 6.7499871701002112 21.749985426664352 199.499891102314 432.74656167626381 93.749488443136215 11.249976336956022 34.999971657991409 25.749943986535072 11.749956727027891
leaf_count=86 30 121 1501 28 71 60 27 87 798 1731 375 45 140 103 47
internal_value=0 0.000667608 -0.000873473 -0.00105155 0.000104354 -0.00112726 -0.000743658 -0.000360645 0.000288342 0.000946726 -0.000635393 0.0003395 0.000157112 0.000244038 0.00101058
internal_weight=0 745.996 566.495 408.496 254.25 390.246 36.9998 157.999 217.25 491.746 101.249 18.25 56.75 47.2499 444.497
internal_count=5250 2984 2266 1634 1017 1561 148 632 869 1967 405 73 227 189 1778
is_linear=0
shrinkage=0.001


Tree=7
num_leaves=16
num_cat=0
split_feature=0 16 0 0 0 20 11 14 2 20 1 20 20 19 14
split_gain=781.303 117.707 47.0491 50.4139 45.0672 27.0652 26.1486 23.4056 23.1738 18.7432 17.3039 13.0514 11.84 10.0862 4.92559
threshold=32.500000000000007 0.45834912808741762 36.500000000000007 44.000000000000007 21.500000000000004 2.004289339117995 0.24581536097895901 0.13906266304059559 1.0000000180025095e-35 -1.4426488034406402 1.0000000180025095e-35 -0.51135433808815167 -0.78047594408380949 -0.48507728541676615 -0.1391950286692209
decision_type=2 2 2 2 2 2 2 2 2 2 2 2 2 2 2
left_child=1 9 6 5 7 -4 10 -3 -6 14 -2 -5 -8 -11 -1
right_child=2 4 3 11 8 -7 12 -9 -10 13 -12 -13 -14 -15 -16
leaf_value=-4.3594202227238308e-05 -0.00023887878810138541 -0.001013322919529153 -0.0011771597735983597 -0.00035349876000694084 0.0010746578205397385 9.3446896363744093e-05 -0.00023887878810138541 0.00043925788386555819 0.00014696501222120529 0.00068428865076513635 -0.00081646482430051297 0.00073369777405537487 0.00045443191456254846 0.0011591276485463547 0.00049594766369728425
leaf_weight=27.499968618154526 7.4999990016221991 31.999724239110947 375.24430429935455 6.9999812245368984 17.749840974807739 14.9999992698431 21.749980792403221 4.9999844431877127 199.49986837804317 166.748675391078 93.749292939901352 11.249962866306303 34.999954670667648 277.74645924568176 19.749940127134323
leaf_count=110 30 128 1501 28 71 60 87 20 798 667 375 45 140 1111 79
internal_value=0 0.000666967 -0.000872611 -0.00105053 0.000104283 -0.00112618 -0.000360254 -0.000743095 0.000288133 0.000945802 -0.00063472 0.000339326 0.000156962 0.00100958 0.000243878
internal_weight=0 745.994 566.493 408.494 254.249 390.244 157.999 36.9997 217.25 491.745 101.249 18.2499 56.7499 444.495 47.2499
internal_count=5250 2984 2266 1634 1017 1561 632 148 869 1967 405 73 227 1778 189
is_linear=0
shrinkage=0.001


Tree=8
num_leaves=16
num_cat=0
split_feature=0 16 0 0 0 20 13 11 2 20 1 20 20 13 15
split_gain=779.813 117.481 46.9643 50.3315 44.9983 27.0169 26.3988 26.0946 23.1522 18.6999 17.2881 13.0414 11.8251 6.96388 4.97047
threshold=32.500000000000007 0.45834912808741762 36.500000000000007 44.000000000000007 21.500000000000004 2.004289339117995 -0.28870578512508943 0.24581536097895901 1.0000000180025095e-35 -1.4426488034406402 1.0000000180025095e-35 -0.51135433808815167 -0.78047594408380949 0.75503589434647234 1.849693534836016
decision_type=2 2 2 2 2 2 2 2 2 2 2 2 2 2 2
left_child=1 9 7 5 6 -4 -3 10 -6 13 -2 -5 -9 -1 -11
right_child=2 4 3 11 8 -7 -8 12 -10 14 -12 -13 -14 -15 -16
leaf_value=-0.00013247923184863314 -0.0002386170677692454 -0.0010627712463096562 -0.0011760334609210981 -0.0003533863488312437 0.0010740773859778327 9.3400178539557291e-05 0.00042664330670438464 -0.0002386170677692454 0.00014682835484505842 0.001043063471878112 -0.00081576260736464646 0.00073338379181442522 0.00045411398984283391 0.00049591013151203066 0.00062618951749224218
leaf_weight=21.499980509281158 7.499998375773429 30.249626591801643 375.24245326220989 6.9999766349792507 17.749779373407364 14.999999493360518 6.749980926513671 21.749975636601448 199.49985167384148 432.74364893138409 93.749071300029755 11.249946504831312 34.999935552477837 25.749912023544312 11.74991539120674
leaf_count=86 30 121 1501 28 71 60 27 87 798 1731 375 45 140 103 47
internal_value=0 0.000666361 -0.000871751 -0.00104951 0.000104215 -0.00112509 -0.000742516 -0.000359864 0.000287925 0.000944928 -0.000634047 0.000339152 0.000156813 0.00024374 0.00100864
internal_weight=0 745.993 566.491 408.492 254.249 390.242 36.9996 157.999 217.25 491.743 101.249 18.2499 56.7499 47.2499 444.494
internal_count=5250 2984 2266 1634 1017 1561 148 632 869 1967 405 73 227 189 1778
is_linear=0
shrinkage=0.001


Tree=9
num_leaves=16
num_cat=0
split_feature=0 16 0 0 0 20 13 11 2 20 1 20 20 19 13
split_gain=778.291 117.242 46.8797 50.2493 44.9311 26.9688 26.3715 26.0407 23.1305 18.6556 17.2723 13.0315 11.8102 10.0896 6.9553
threshold=32.500000000000007 0.45834912808741762 36.500000000000007 44.000000000000007 21.500000000000004 2.004289339117995 -0.28870578512508943 0.24581536097895901 1.0000000180025095e-35 -1.4426488034406402 1.0000000180025095e-35 -0.51135433808815167 -0.78047594408380949 -0.48507728541676615 0.75503589434647234
decision_type=2 2 2 2 2 2 2 2 2 2 2 2 2 2 2
left_child=1 9 7 5 6 -4 -3 10 -6 14 -2 -5 -9 -11 -1
right_child=2 4 3 11 8 -7 -8 12 -10 13 -12 -13 -14 -15 -16
leaf_value=-0.00013240123028307571 -0.00023835571562566527 -0.0010620635352966447 -0.0011749089768722223 -0.00035327398095753263 0.0010734976115705167 9.3353488233694737e-05 0.00042651099226489271 -0.00023835571562566527 0.00014669181177009438 0.00068272337538365774 -0.00081506132181272258 0.00073307003209141736 0.00045379630673123906 0.0011570549475604 0.00049559705869329151
leaf_weight=21.499982610344887 7.4999975562095633 30.249506875872612 375.24034391343594 6.999972045421603 17.749707698822021 14.999999493360518 6.7499763965606681 21.749969750642776 199.49982687830925 166.74775269627571 93.748814299702644 11.24992699921131 34.999912247061729 277.74396067857742 25.749888092279434
leaf_count=86 30 121 1501 28 71 60 27 87 798 667 375 45 140 1111 103
internal_value=0 0.000665722 -0.000870892 -0.00104849 0.000104145 -0.00112402 -0.000741954 -0.000359474 0.000287717 0.000944006 -0.000633375 0.000338979 0.000156664 0.00100764 0.000243581
internal_weight=0 745.991 566.489 408.49 254.249 390.24 36.9995 157.999 217.25 491.742 101.249 18.2499 56.7499 444.492 47.2499
internal_count=5250 2984 2266 1634 1017 1561 148 632 869 1967 405 73 227 1778 189
is_linear=0
shrinkage=0.001


Tree=10
num_leaves=16
num_cat=0
split_feature=0 16 0 0 0 20 13 11 2 20 1 20 20 13 15
split_gain=776.804 117.016 46.7954 50.1673 44.8639 26.9209 26.3443 25.9869 23.1089 18.6143 17.2566 13.0216 11.7954 6.94674 4.9692
threshold=32.500000000000007 0.45834912808741762 36.500000000000007 44.000000000000007 21.500000000000004 2.004289339117995 -0.28870578512508943 0.24581536097895901 1.0000000180025095e-35 -1.4426488034406402 1.0000000180025095e-35 -0.51135433808815167 -0.78047594408380949 0.75503589434647234 1.849693534836016
decision_type=2 2 2 2 2 2 2 2 2 2 2 2 2 2 2
left_child=1 9 7 5 6 -4 -3 10 -6 13 -2 -5 -9 -1 -11
right_child=2 4 3 11 8 -7 -8 12 -10 14 -12 -13 -14 -15 -16
leaf_value=-0.00013232319945282847 -0.00023809465109317796 -0.0010613567718994773 -0.0011737863119222047 -0.0003531616820487384 0.0010729184902370198 9.3306804093825653e-05 0.00042637874610697312 -0.00023809465109317796 0.00014655540454566461 0.0010411151562856806 -0.00081436079165760392 0.00073275648115995854 0.00045347889827065762 0.0004952842456063004 0.00062506176802566791
leaf_weight=21.499985128641129 7.4999964833259574 30.249369204044342 375.23798747360706 6.9999670386314419 17.749625623226166 14.999999746680258 6.7499711066484442 21.74996380507946 199.49979862570763 432.73983895778656 93.748529210686684 11.249904796481131 34.999885439872742 25.74986033141613 11.749861150979994
leaf_count=86 30 121 1501 28 71 60 27 87 798 1731 375 45 140 103 47
internal_value=0 0.000665114 -0.000870034 -0.00104747 0.000104074 -0.00112294 -0.000741394 -0.000359084 0.000287509 0.000943132 -0.000632704 0.000338806 0.000156515 0.000243422 0.0010067
internal_weight=0 745.988 566.486 408.488 254.249 390.238 36.9993 157.998 217.249 491.74 101.249 18.2499 56.7498 47.2498 444.49
internal_count=5250 2984 2266 1634 1017 1561 148 632 869 1967 405 73 227 189 1778
is_linear=0
shrinkage=0.001


Tree=11
num_leaves=16
num_cat=0
split_feature=0 16 0 0 0 20 11 14 2 20 1 20 20 19 14
split_gain=775.289 116.779 46.7112 50.0855 44.7969 26.873 25.9333 23.3237 23.0874 18.5702 17.2408 13.0117 11.7806 10.0938 4.92064
threshold=32.500000000000007 0.45834912808741762 36.500000000000007 44.000000000000007 21.500000000000004 2.004289339117995 0.24581536097895901 0.13906266304059559 1.0000000180025095e-35 -1.4426488034406402 1.0000000180025095e-35 -0.51135433808815167 -0.78047594408380949 -0.44153189693335082 -0.1391950286692209
decision_type=2 2 2 2 2 2 2 2 2 2 2 2 2 2 2
left_child=1 9 6 5 7 -4 10 -3 -6 14 -2 -5 -8 -11 -1
right_child=2 4 3 11 8 -7 12 -9 -10 13 -12 -13 -14 -15 -16
leaf_value=-4.3907449466629942e-05 -0.00023783393358256297 -0.0010106884008569026 -0.0011726655431570066 -0.00035304939648009726 0.001072340008585821 9.3260163484586462e-05 -0.00023783393358256297 0.00043894026782789682 0.00014641910260991301 0.00069070200233250058 -0.00081366112027618607 0.0007324431492710578 0.00045316174452529075 0.0011611174760600346 0.00049522828737921917
leaf_weight=27.49993734061718 7.4999951422214499 31.999215856194496 375.2353630810976 6.9999611973762539 17.749533399939537 14.999999418854712 21.749956578016281 4.9999645054340354 199.49977341294289 174.24634228646755 93.748213022947311 11.249879240989683 34.999854758381844 270.2410526573658 19.749879419803619
leaf_count=110 30 128 1501 28 71 60 87 20 798 697 375 45 140 1081 79
internal_value=0 0.000664476 -0.000869177 -0.00104646 0.000104003 -0.00112186 -0.000358695 -0.000740834 0.000287301 0.000942213 -0.000632034 0.000338632 0.000156366 0.00100571 0.000243263
internal_weight=0 745.986 566.483 408.485 254.248 390.235 157.998 36.9992 217.249 491.737 101.248 18.2498 56.7498 444.487 47.2498
internal_count=5250 2984 2266 1634 1017 1561 632 148 869 1967 405 73 227 1778 189
is_linear=0
shrinkage=0.001


Tree=12
num_leaves=15
num_cat=0
split_feature=0 16 0 0 0 20 13 1 2 20 16 20 19 13
split_gain=773.812 116.554 46.6273 50.0038 44.7284 26.8252 26.2989 24.4402 23.0658 18.5274 13.9263 13.0018 10.0729 6.93776
threshold=32.500000000000007 0.45834912808741762 36.500000000000007 44.000000000000007 21.500000000000004 2.004289339117995 -0.28870578512508943 1.0000000180025095e-35 1.0000000180025095e-35 -1.4426488034406402 1.3931288419977343 -0.51135433808815167 -0.48507728541676615 0.75503589434647234
decision_type=2 2 2 2 2 2 2 2 2 2 2 2 2 2
left_child=1 9 7 5 6 -4 -3 -2 -6 13 -9 -5 -11 -1
right_child=2 4 3 11 8 -7 -8 10 -10 12 -12 -13 -14 -15
leaf_value=-0.00013233018633307186 0.00067303850983910099 -0.0010599949801237858 -0.0011715465474558681 -0.00035293714065421256 0.001071762172258742 9.3213531120529979e-05 0.00042626034672176282 -0.00057297806375064032 0.0001462829589399772 0.00068053049005305244 0.00010202930307613637 0.00073213004030969774 0.0011539066465051674 0.00049483750225821747
leaf_weight=21.499981731176376 7.749991536140441 30.249055728316307 375.23249313235283 6.9999553561210659 17.749431118369102 14.999999314546583 6.7499615848064414 134.24782513082027 199.49974527955055 166.74605591595173 15.999812096357344 11.249851003289221 277.73888018727303 25.749812170863152
leaf_count=86 31 121 1501 28 71 60 27 537 798 667 64 45 1111 103
internal_value=0 0.000663873 -0.000868322 -0.00104544 0.000103936 -0.00112079 -0.000740257 -0.000358307 0.000287094 0.000941344 -0.00046898 0.000338459 0.00100477 0.000243125
internal_weight=0 745.983 566.48 408.482 254.248 390.232 36.999 157.998 217.249 491.735 150.248 18.2498 444.485 47.2498
internal_count=5250 2984 2266 1634 1017 1561 148 632 869 1967 601 73 1778 189
is_linear=0
shrinkage=0.001


Tree=13
num_leaves=14
num_cat=0
split_feature=1 16 10 12 5 15 6 20 15 19 14 11 11
split_gain=445.919 90.4973 64.5354 45.4518 42.1911 29.5644 24.7261 21.3995 17.1462 9.70132 9.15324 6.41804 5.43827
threshold=1.0000000180025095e-35 0.19586287059618332 0.11141791067681191 -0.59957411254412052 1.5000000000000002 1.849693534836016 1.0000000180025095e-35 -1.4426488034406402 -1.1406499314765872 -1.5205131796873534 0.84745457080778264 0.32969793372435674 1.8911156317298767
decision_type=2 2 2 2 2 2 2 2 2 2 2 2 2
left_child=1 5 6 8 12 7 -2 -1 -3 -5 -6 -8 -4
right_child=2 3 4 9 10 -7 11 -9 -10 -11 -12 -13 -14
leaf_value=0.00050012155379865978 -0.00055536068447505625 0.00040152379678046765 -0.00055536068447505625 0.00040152379678046765 -0.00024013349656853492 1.6343417454884214e-05 -0.0011593527425896944 0.001089325816329513 1.6343417454884214e-05 0.0010296475525728784 1.6343417454884214e-05 -0.00079287550349842987 1.6343417454884214e-05
leaf_weight=41.749788165092468 62.997201129794121 27.499722331762314 148.99412965774536 24.24986819922924 136.74512828886509 7.4998358935117713 223.49044539034367 295.48798553645611 191.49642454087734 49.498918235301971 53.748264387249947 42.74882298707962 6.2498577237129203
leaf_count=167 252 110 596 97 547 30 894 1182 766 198 215 171 25
internal_value=0 0.000592907 -0.00056022 0.000169504 -0.000241603 0.000929838 -0.000869118 0.0009839 1.63434e-05 0.000786704 1.63434e-05 -0.00103039 -0.000555361
internal_weight=0 637.483 674.974 292.745 345.737 344.738 329.236 337.238 218.996 73.7488 190.493 266.239 155.244
internal_count=5250 2550 2700 1171 1383 1379 1317 1349 876 295 762 1065 621
is_linear=0
shrinkage=0.001


Tree=14
num_leaves=15
num_cat=0
split_feature=0 12 0 0 0 0 20 11 1 17 19 20 20 0
split_gain=771.221 107.783 64.4912 46.5349 49.9297 33.4136 26.7802 25.8753 17.2054 16.5084 18.2153 12.9878 11.763 2.57841
threshold=32.500000000000007 -0.94075863109953295 21.500000000000004 36.500000000000007 44.000000000000007 27.500000000000004 2.004289339117995 0.24581536097895901 1.0000000180025095e-35 -0.38420573073015907 -0.44153189693335082 -0.51135433808815167 -0.78047594408380949 26.500000000000004
decision_type=2 2 2 2 2 2 2 2 2 2 2 2 2 2
left_child=1 2 -1 7 6 -4 -5 8 -2 13 -11 -6 -9 -3
right_child=3 9 5 4 11 -7 -8 12 -10 10 -12 -13 -14 -15
leaf_value=-0.0010720967512111853 -0.0002367596553057519 0.00048808517781173791 0.00048808517781173791 -0.001169776242475903 -0.00035245648124641106 -0.00036118053925875078 9.3557941033216939e-05 -0.0002367596553057519 -0.0008118799102247293 0.00077819283558680356 0.001278409479809987 0.00073216179290768748 0.00045345240522323802 0.00077819283558680356
leaf_weight=26.498953506350517 7.4999990314245215 117.99721843004227 148.74720792472363 375.22736316919327 6.9999244809150722 47.24949999153614 14.999997287988661 21.749911144375801 93.747245952486992 181.99482876062393 192.49080695211887 11.249851465225218 34.999879449605942 30.999152183532715
leaf_count=106 30 472 595 1501 28 189 60 87 375 728 770 45 140 124
internal_value=0 0.000662811 7.13177e-05 -0.000866824 -0.00104376 0.000292083 -0.00111906 -0.000357397 -0.000630457 0.000904853 0.00102801 0.000338803 0.000156938 0.000528375
internal_weight=0 745.978 222.496 566.474 408.477 195.997 390.227 157.997 101.247 523.482 374.486 18.2498 56.7498 148.996
internal_count=5250 2984 890 2266 1634 784 1561 632 405 2094 1498 73 227 596
is_linear=0
shrinkage=0.001


Tree=15
num_leaves=15
num_cat=0
split_feature=0 16 0 0 0 20 13 1 2 20 16 20 19 13
split_gain=769.703 116.037 46.4515 49.8484 44.5925 26.7327 26.2353 24.365 23.0618 18.474 13.8944 12.9779 10.08 6.93317
threshold=32.500000000000007 0.45834912808741762 36.500000000000007 44.000000000000007 21.500000000000004 2.004289339117995 -0.28870578512508943 1.0000000180025095e-35 1.0000000180025095e-35 -1.4426488034406402 1.3931288419977343 -0.51135433808815167 -0.44153189693335082 0.75503589434647234
decision_type=2 2 2 2 2 2 2 2 2 2 2 2 2 2
left_child=1 9 7 5 6 -4 -3 -2 -6 13 -9 -5 -11 -1
right_child=2 4 3 11 8 -7 -8 10 -10 12 -12 -13 -14 -15
leaf_value=-0.00013292431778744382 0.00067254716795397387 -0.0010587570098926789 -0.0011686620160308156 -0.00035234444669332413 0.0010709227275691006 9.351116152075015e-05 0.00042571474788179051 -0.00057146456060070371 0.00014563393658250179 0.00068807733836825599 0.00010249587558145559 0.00073184889372395487 0.0011574369024065112 0.00049382124360774354
leaf_weight=21.499957904219627 7.7499944269657126 30.248703762888908 375.22382439672947 6.9999161362648037 17.749253019690514 14.999997541308401 6.7499291151762 134.24681062996387 199.49948060512543 174.24365954101086 15.999764457345007 11.249820485711096 270.23381811380386 25.749683856964111
leaf_count=86 31 121 1501 28 71 60 27 537 798 697 64 45 1081 103
internal_value=0 0.000662161 -0.000865972 -0.00104275 0.000103482 -0.00111799 -0.000739406 -0.00035701 0.000286375 0.000939018 -0.000467555 0.00033863 0.00100234 0.000242111
internal_weight=0 745.974 566.47 408.474 254.247 390.224 36.9986 157.997 217.249 491.727 150.247 18.2497 444.477 47.2496
internal_count=5250 2984 2266 1634 1017 1561 148 632 869 1967 601 73 1778 189
is_linear=0
shrinkage=0.001


Tree=16
num_leaves=14
num_cat=0
split_feature=1 16 10 12 5 15 20 15 5 16 19 14 11
split_gain=443.115 90.1116 64.3415 45.3048 42.0212 29.4914 21.3299 17.0715 12.718 9.70101 9.6851 9.04589 5.42199
threshold=1.0000000180025095e-35 0.19586287059618332 0.11141791067681191 -0.59957411254412052 1.5000000000000002 1.849693534836016 -1.4426488034406402 -1.1406499314765872 1.0000000180025095e-35 -0.090666940365654758 -1.5205131796873534 0.84745457080778264 1.8911156317298767
decision_type=2 2 2 2 2 2 2 2 2 2 2 2 2
left_child=1 5 8 7 12 6 -1 -3 -2 -10 -5 -6 -4
right_child=2 3 4 10 11 -7 -8 -9 9 -11 -12 -13 -14
leaf_value=0.00049884618175740096 -0.0012858882125195814 0.00040068341229048966 -0.00055357826342317985 0.00040068341229048966 -0.00023897477365935843 1.6341650489039906e-05 0.0010866218625382566 1.6341650489039906e-05 -0.00095760814925422973 -0.00055357826342317985 0.0010277721532119426 1.6341650489039906e-05 1.6341650489039906e-05
leaf_weight=41.749640911817551 71.995776638388634 27.499618172645569 148.99164937436581 24.249799087643623 136.74331869184971 7.4997664839029303 295.48184308409691 191.49531641602516 102.49322625994682 154.74112778902054 49.4982930123806 53.747627019882202 6.2498124688863745
leaf_count=167 288 110 596 97 547 30 1182 766 410 619 198 215 25
internal_value=0 0.000591094 -0.000558411 0.000168626 -0.000240326 0.000927304 0.000981351 1.63417e-05 -0.00086683 -0.000684419 0.000785025 1.63417e-05 -0.000553578
internal_weight=0 637.474 674.963 292.743 345.732 344.731 337.231 218.995 329.23 257.234 73.7481 190.491 155.241
internal_count=5250 2550 2700 1171 1383 1379 1349 876 1317 1029 295 762 621
is_linear=0
shrinkage=0.001


Tree=17
num_leaves=16
num_cat=0
split_feature=0 16 0 0 0 20 13 11 2 20 1 20 20 19 13
split_gain=767.196 115.671 46.3654 49.7643 44.5255 26.6849 26.1972 25.8226 23.042 18.4231 17.1718 12.9627 11.7459 10.0822 6.92655
threshold=32.500000000000007 0.45834912808741762 36.500000000000007 44.000000000000007 21.500000000000004 2.004289339117995 -0.28870578512508943 0.24581536097895901 1.0000000180025095e-35 -1.4426488034406402 1.0000000180025095e-35 -0.51135433808815167 -0.78047594408380949 -0.44153189693335082 0.75503589434647234
decision_type=2 2 2 2 2 2 2 2 2 2 2 2 2 2 2
left_child=1 9 7 5 6 -4 -3 10 -6 14 -2 -5 -9 -11 -1
right_child=2 4 3 11 8 -7 -8 12 -10 13 -12 -13 -14 -15 -16
leaf_value=-0.0001331082176955216 -0.00023571786305482379 -0.0010580651308921439 -0.0011669732053374625 -0.00035192819192530225 0.0010702550241452693 9.3773251829494783e-05 0.00042535837530081097 -0.00023571786305482379 0.00014539220275750452 0.00068678853496410646 -0.00081017713650243276 0.00073172542919958312 0.00045375559052404304 0.0011557322969591992 0.00049325350131945126
leaf_weight=21.499947220087051 7.4999949336051932 30.248491078615189 375.21791671216488 6.9998815059661892 17.749097406864166 14.999993816018103 6.7499016523361197 21.74984884262085 199.49933056533337 174.24201589822769 93.746127605438232 11.249805346131323 34.999897688627243 270.22968329489231 25.749596700072289
leaf_count=86 30 121 1501 28 71 60 27 87 798 697 375 45 140 1081 103
internal_value=0 0.000661095 -0.000864555 -0.00104115 0.000103296 -0.00111634 -0.000738953 -0.000356145 0.000286058 0.000937517 -0.000628954 0.000338808 0.000157518 0.00100075 0.000241631
internal_weight=0 745.968 566.463 408.468 254.247 390.218 36.9984 157.996 217.248 491.721 101.246 18.2497 56.7497 444.472 47.2495
internal_count=5250 2984 2266 1634 1017 1561 148 632 869 1967 405 73 227 1778 189
is_linear=0
shrinkage=0.001


Tree=18
num_leaves=16
num_cat=0
split_feature=0 16 0 0 0 20 13 11 2 20 1 20 20 19 13
split_gain=765.732 115.45 46.2825 49.6834 44.4591 26.6377 26.1702 25.7693 23.0205 18.3826 17.1561 12.9529 11.7312 10.0616 6.91803
threshold=32.500000000000007 0.45834912808741762 36.500000000000007 44.000000000000007 21.500000000000004 2.004289339117995 -0.28870578512508943 0.24581536097895901 1.0000000180025095e-35 -1.4426488034406402 1.0000000180025095e-35 -0.51135433808815167 -0.78047594408380949 -0.48507728541676615 0.75503589434647234
decision_type=2 2 2 2 2 2 2 2 2 2 2 2 2 2 2
left_child=1 9 7 5 6 -4 -3 10 -6 14 -2 -5 -9 -11 -1
right_child=2 4 3 11 8 -7 -8 12 -10 13 -12 -13 -14 -15 -16
leaf_value=-0.0001330297786071976 -0.00023545982724534643 -0.0010573632663090297 -0.001165863559541948 -0.00035181638809455369 0.00106967953796475 9.3726333682791295e-05 0.00042522657642615237 -0.00023545982724534643 0.00014525701581844918 0.00067665021678218204 -0.00080948242059490183 0.00073141282093095339 0.00045343821602770003 0.0011485499045073128 0.00049294241193913733
leaf_weight=21.49995082616806 7.4999961256980887 30.248258411884308 375.21375231444836 6.9998710751533535 17.74895828962326 14.999994561076162 6.7498909682035437 21.749834507703781 199.49928684532642 166.74173520505428 93.745628446340561 11.249769836664198 34.999870672821999 277.72636915743351 25.749546200037003
leaf_count=86 30 121 1501 28 71 60 27 87 798 667 375 45 140 1111 103
internal_value=0 0.000660493 -0.000863706 -0.00104015 0.000103226 -0.00111527 -0.000738396 -0.000355759 0.000285851 0.000936652 -0.000628288 0.000338635 0.000157368 0.000999822 0.000241473
internal_weight=0 745.964 566.459 408.463 254.246 390.214 36.9981 157.995 217.248 491.718 101.246 18.2496 56.7497 444.468 47.2495
internal_count=5250 2984 2266 1634 1017 1561 148 632 869 1967 405 73 227 1778 189
is_linear=0
shrinkage=0.001


Tree=19
num_leaves=16
num_cat=0
split_feature=0 16 0 0 0 20 13 11 2 20 1 20 20 19 13
split_gain=764.271 115.228 46.1998 49.6027 44.3927 26.5906 26.1433 25.7161 22.999 18.3422 17.1405 12.943 11.7165 10.0416 6.90951
threshold=32.500000000000007 0.45834912808741762 36.500000000000007 44.000000000000007 21.500000000000004 2.004289339117995 -0.28870578512508943 0.24581536097895901 1.0000000180025095e-35 -1.4426488034406402 1.0000000180025095e-35 -0.51135433808815167 -0.78047594408380949 -0.44153189693335082 0.75503589434647234
decision_type=2 2 2 2 2 2 2 2 2 2 2 2 2 2 2
left_child=1 9 7 5 6 -4 -3 10 -6 14 -2 -5 -9 -11 -1
right_child=2 4 3 11 8 -7 -8 12 -10 13 -12 -13 -14 -15 -16
leaf_value=-0.00013295140403810982 -0.00023520211095759416 -0.0010566622259998023 -0.0011647557107159119 -0.00035170463688637311 0.0010691046602474964 9.3679482359877703e-05 0.00042509483499090828 -0.00023520211095759416 0.00014512194927207794 0.00068552062967000137 -0.00080878854320192643 0.00073110044247704973 0.00045312108975417215 0.001153572350086835 0.00049263156443729605
leaf_weight=21.499954432249069 7.4999969303607932 30.248008161783218 375.20933398604393 6.9998602271080044 17.748809471726418 14.99999490380287 6.7498797923326483 21.749820128083229 199.49923677742481 174.24031573534012 93.74509771168232 11.249731630086897 34.999839380383492 270.22397020459175 25.749491780996323
leaf_count=86 30 121 1501 28 71 60 27 87 798 697 375 45 140 1081 103
internal_value=0 0.000659891 -0.000862858 -0.00103914 0.000103156 -0.00111421 -0.00073784 -0.000355373 0.000285645 0.000935788 -0.000627623 0.000338462 0.000157219 0.000998891 0.000241316
internal_weight=0 745.96 566.454 408.459 254.246 390.209 36.9979 157.995 217.248 491.714 101.245 18.2496 56.7497 444.464 47.2494
internal_count=5250 2984 2266 1634 1017 1561 148 632 869 1967 405 73 227 1778 189
is_linear=0
shrinkage=0.001


Tree=20
num_leaves=16
num_cat=0
split_feature=0 16 0 0 0 20 13 11 2 20 1 20 20 19 13
split_gain=762.814 115.008 46.1173 49.5222 44.3265 26.5435 26.1164 25.663 22.9776 18.3019 17.1249 12.9332 11.7018 10.0206 6.90101
threshold=32.500000000000007 0.45834912808741762 36.500000000000007 44.000000000000007 21.500000000000004 2.004289339117995 -0.28870578512508943 0.24581536097895901 1.0000000180025095e-35 -1.4426488034406402 1.0000000180025095e-35 -0.51135433808815167 -0.78047594408380949 -0.44153189693335082 0.75503589434647234
decision_type=2 2 2 2 2 2 2 2 2 2 2 2 2 2 2
left_child=1 9 7 5 6 -4 -3 10 -6 14 -2 -5 -9 -11 -1
right_child=2 4 3 11 8 -7 -8 12 -10 13 -12 -13 -14 -15 -16
leaf_value=-0.00013287309904999367 -0.0002349447384657064 -0.0010559620595417458 -0.0011636496679653518 -0.00035159290578263246 0.0010685304559890467 9.363263246676234e-05 0.00042496313920184953 -0.0002349447384657064 0.00014498700062758686 0.00068489270310852538 -0.00080809550483580412 0.00073078825579622688 0.00045280422060894882 0.0011524921105844962 0.00049232096978508554
leaf_weight=21.499957993626595 7.4999974668025962 30.247742995619774 375.20466332137585 6.9998489618301418 17.748650312423706 14.999995425343512 6.7498678863048545 21.749805703759193 199.49918814003468 174.23941470682621 93.744536027312279 11.249690458178518 34.999805122613907 270.22083693742752 25.749434888362885
leaf_count=86 30 121 1501 28 71 60 27 87 798 697 375 45 140 1081 103
internal_value=0 0.000659291 -0.000862012 -0.00103814 0.000103086 -0.00111315 -0.000737284 -0.000354988 0.000285439 0.000934925 -0.000626958 0.00033829 0.000157069 0.000997961 0.000241158
internal_weight=0 745.955 566.448 408.454 254.245 390.205 36.9976 157.994 217.248 491.71 101.245 18.2495 56.7496 444.46 47.2494
internal_count=5250 2984 2266 1634 1017 1561 148 632 869 1967 405 73 227 1778 189
is_linear=0
shrinkage=0.001


Tree=21
num_leaves=16
num_cat=0
split_feature=0 16 0 0 0 20 13 11 2 20 1 20 20 19 13
split_gain=761.36 114.788 46.0351 49.4418 44.2604 26.4966 26.0895 25.6101 22.9562 18.2617 17.1093 12.9234 11.6871 10.0007 6.89252
threshold=32.500000000000007 0.45834912808741762 36.500000000000007 44.000000000000007 21.500000000000004 2.004289339117995 -0.28870578512508943 0.24581536097895901 1.0000000180025095e-35 -1.4426488034406402 1.0000000180025095e-35 -0.51135433808815167 -0.78047594408380949 -0.48507728541676615 0.75503589434647234
decision_type=2 2 2 2 2 2 2 2 2 2 2 2 2 2 2
left_child=1 9 7 5 6 -4 -3 10 -6 14 -2 -5 -9 -11 -1
right_child=2 4 3 11 8 -7 -8 12 -10 13 -12 -13 -14 -15 -16
leaf_value=-0.00013279480550490026 -0.00023468767313660489 -0.0010552627724230862 -0.0011625454313948628 -0.00035148124354480304 0.0010679568515873207 9.3585811273987638e-05 0.00042483150552442958 -0.00023468767313660489 0.00014485217705586707 0.00067478161147857454 -0.0008074032469685315 0.00073047630549659425 0.00045248760039106505 0.0011453336893445664 0.00049201059670995876
leaf_weight=21.499961331486702 7.4999978989362708 30.247460022568703 375.19973874092102 6.9998372793197658 17.748481377959251 14.999995663762091 6.7498554587364188 21.74979005753994 199.49913422763348 166.73918245732784 93.743946805596352 11.249646142125128 34.999767482280731 277.71682031452656 25.749374836683273
leaf_count=86 30 121 1501 28 71 60 27 87 798 667 375 45 140 1111 103
internal_value=0 0.000658692 -0.000861167 -0.00103714 0.000103017 -0.00111209 -0.000736729 -0.000354603 0.000285233 0.000934063 -0.000626295 0.000338117 0.000156919 0.000997033 0.000241
internal_weight=0 745.95 566.443 408.449 254.245 390.2 36.9973 157.994 217.248 491.705 101.244 18.2495 56.7496 444.456 47.2493
internal_count=5250 2984 2266 1634 1017 1561 148 632 869 1967 405 73 227 1778 189
is_linear=0
shrinkage=0.001


Tree=22
num_leaves=15
num_cat=0
split_feature=0 18 0 0 0 0 20 11 19 14 1 20 20 15
split_gain=759.908 82.4055 82.2331 45.9531 49.3616 44.0709 26.4499 25.5572 21.241 17.5761 17.0938 12.9135 11.6724 3.78276
threshold=32.500000000000007 -0.64502331367190002 21.500000000000004 36.500000000000007 44.000000000000007 27.500000000000004 2.004289339117995 0.24581536097895901 -0.28722336414470656 -0.056218904163264909 1.0000000180025095e-35 -0.51135433808815167 -0.78047594408380949 0.79990115908005366
decision_type=2 2 2 2 2 2 2 2 2 2 2 2 2 2
left_child=1 2 -1 7 6 -4 -5 10 13 -10 -2 -6 -9 -3
right_child=3 8 5 4 11 -7 -8 12 9 -11 -12 -13 -14 -15
leaf_value=-0.001038816338300882 -0.00023443093843204937 0.00082521820473557513 0.00056694285054545695 -0.0011614429555020535 -0.00035136958785219935 -0.00029583658961691584 9.3539037347527306e-05 -0.00023443093843204937 0.00056694285054545695 0.0013484167324745394 -0.00080671182657941786 0.00073016456441721809 0.00045217124340934971 0.00056694285054545695
leaf_weight=30.497093752026558 7.499998226761817 159.98952354490757 196.98770199716091 375.19457352161407 6.9998251795768764 58.248509883880615 14.999996036291121 21.749773874878883 32.747248813509941 154.48118597269058 93.74332569539547 11.249598756432531 34.999725595116615 112.99392792582512
leaf_count=122 30 640 788 1501 28 233 60 87 131 618 375 45 140 452
internal_value=0 0.000658092 0.000219303 -0.000860323 -0.00103614 0.000419688 -0.00111103 -0.000354219 0.000914583 0.00119935 -0.000625632 0.000337944 0.00015677 0.000666283
internal_weight=0 745.945 285.733 566.437 408.444 255.236 390.195 157.993 460.212 187.228 101.243 18.2494 56.7495 272.983
internal_count=5250 2984 1143 2266 1634 1021 1561 632 1841 749 405 73 227 1092
is_linear=0
shrinkage=0.001


Tree=23
num_leaves=16
num_cat=0
split_feature=0 16 0 0 0 20 13 11 2 20 1 20 20 13 15
split_gain=758.424 114.429 45.8712 49.2816 44.1216 26.4032 26.0273 25.5044 22.9521 18.2254 17.0782 12.9037 11.6578 6.88791 4.99027
threshold=32.500000000000007 0.45834912808741762 36.500000000000007 44.000000000000007 21.500000000000004 2.004289339117995 -0.28870578512508943 0.24581536097895901 1.0000000180025095e-35 -1.4426488034406402 1.0000000180025095e-35 -0.51135433808815167 -0.78047594408380949 0.75503589434647234 1.849693534836016
decision_type=2 2 2 2 2 2 2 2 2 2 2 2 2 2 2
left_child=1 9 7 5 6 -4 -3 10 -6 13 -2 -5 -9 -1 -11
right_child=2 4 3 11 8 -7 -8 12 -10 14 -12 -13 -14 -15 -16
leaf_value=-0.00013320174788964244 -0.00023417453554744195 -0.0010539211420104578 -0.0011603422794812276 -0.00035125799830363187 0.001067213564379766 9.3492267117243382e-05 0.00042436622604244694 -0.00023417453554744195 0.0001442850063294181 0.0010296599371406622 -0.00080602121488179571 0.000729853061124116 0.00045185511371921376 0.0004912431638598231 0.00061778058434841542
leaf_weight=21.499940127134323 7.4999982118606559 30.246864020824432 375.1891568005085 6.9998126626014736 17.74823734164238 14.999996498227118 6.7498043924570075 21.749757409095764 199.49882908165455 432.6982614248991 93.742675021290779 11.249548494815825 34.99968059360981 25.74921090900898 11.749215200543402
leaf_count=86 30 121 1501 28 71 60 27 87 798 1731 375 45 140 103 47
internal_value=0 0.000657458 -0.00085948 -0.00103514 0.000102664 -0.00110997 -0.000735754 -0.000353835 0.000284604 0.000932402 -0.00062497 0.000337772 0.000156621 0.000240259 0.000995302
internal_weight=0 745.94 566.431 408.439 254.244 390.189 36.9967 157.992 217.247 491.697 101.243 18.2494 56.7494 47.2492 444.447
internal_count=5250 2984 2266 1634 1017 1561 148 632 869 1967 405 73 227 189 1778
is_linear=0
shrinkage=0.001


Tree=24
num_leaves=16
num_cat=0
split_feature=0 16 0 0 0 20 13 11 15 20 1 20 20 19 13
split_gain=756.949 114.197 45.7896 49.2017 44.0558 26.3566 26.0005 25.4517 18.2333 18.1826 17.0627 12.8939 11.6432 10.0088 6.87944
threshold=32.500000000000007 0.45834912808741762 36.500000000000007 44.000000000000007 21.500000000000004 2.004289339117995 -0.28870578512508943 0.24581536097895901 -1.1406499314765872 -1.4426488034406402 1.0000000180025095e-35 -0.51135433808815167 -0.78047594408380949 -0.44153189693335082 0.75503589434647234
decision_type=2 2 2 2 2 2 2 2 2 2 2 2 2 2 2
left_child=1 9 7 5 6 -4 -3 10 -6 14 -2 -5 -9 -11 -1
right_child=2 4 3 11 8 -7 -8 12 -10 13 -12 -13 -14 -15 -16
leaf_value=-0.00013312328194349627 -0.00023391845214106385 -0.0010532243411289128 -0.0011592433737036174 -0.00035114643154363729 0.0007649406204771281 9.3445499413501883e-05 0.00042423482354058198 -0.00023391845214106385 0.00010832245875801869 0.0006820403853904102 -0.00080533142541090166 0.00072954172718120891 0.00045153924923546049 0.0011485332292715264 0.00049093359299761264
leaf_weight=21.499944150447845 7.4999980926513663 30.246531680226326 375.18349382281303 6.9997997283935574 44.499144688248634 14.999996468424795 6.7497892081737509 21.749739930033684 172.74766689538956 174.23477740585804 93.741994842886925 11.249495446681975 34.999631837010384 270.20772142708302 25.749139785766602
leaf_count=86 30 121 1501 28 178 60 27 87 691 697 375 45 140 1081 103
internal_value=0 0.000656831 -0.000858639 -0.00103414 0.000102595 -0.00110892 -0.000735201 -0.000353452 0.000284398 0.000931498 -0.000624308 0.0003376 0.000156471 0.000994327 0.000240102
internal_weight=0 745.935 566.424 408.433 254.243 390.183 36.9963 157.991 217.247 491.692 101.242 18.2493 56.7494 444.442 47.2491
internal_count=5250 2984 2266 1634 1017 1561 148 632 869 1967 405 73 227 1778 189
is_linear=0
shrinkage=0.001


Tree=25
num_leaves=16
num_cat=0
split_feature=0 16 0 0 0 20 13 11 20 12 1 20 20 19 13
split_gain=755.5 113.985 45.7083 49.122 43.9882 26.3102 25.9738 25.3992 18.1427 17.3673 17.0472 12.8841 11.6286 9.98835 6.87097
threshold=32.500000000000007 0.45834912808741762 36.500000000000007 44.000000000000007 21.500000000000004 2.004289339117995 -0.28870578512508943 0.24581536097895901 -1.4426488034406402 -0.71198051145526375 1.0000000180025095e-35 -0.51135433808815167 -0.78047594408380949 -0.48507728541676615 0.75503589434647234
decision_type=2 2 2 2 2 2 2 2 2 2 2 2 2 2 2
left_child=1 8 7 5 6 -4 -3 10 14 -6 -2 -5 -9 -10 -1
right_child=2 4 3 11 9 -7 -8 12 13 -11 -12 -13 -14 -15 -16
leaf_value=-0.00013304484399301824 -0.00023366268366448065 -0.0010525283919999649 -0.0011581462775413956 -0.00035103493091516165 8.2043501971547608e-05 9.3398807069718066e-05 0.00042410347935626367 -0.00023366268366448065 0.00067195897177339467 0.00067505536982887416 -0.00080464243598853916 0.00072923065046957922 0.0004512236481431038 0.0011413929942224788 0.00049062426384291274
leaf_weight=21.499948114156723 7.4999976456165305 30.246183067560196 375.17757654190063 6.9997863769531277 155.49798530340195 14.999996483325956 6.7497734129428855 21.749721705913544 166.73464484512806 61.748658508062363 93.741284713149071 11.249439060688017 34.999579980969429 277.70278264582157 25.749066174030304
leaf_count=86 30 121 1501 28 622 60 27 87 667 247 375 45 140 1111 103
internal_value=0 0.000656228 -0.000857799 -0.00103315 0.000102506 -0.00110786 -0.000734648 -0.000353069 0.000930642 0.000284171 -0.000623648 0.000337427 0.000156322 0.000993404 0.000239945
internal_weight=0 745.929 566.417 408.427 254.243 390.178 36.996 157.991 491.686 217.247 101.241 18.2492 56.7493 444.437 47.249
internal_count=5250 2984 2266 1634 1017 1561 148 632 1967 869 405 73 227 1778 189
is_linear=0
shrinkage=0.001


Tree=26
num_leaves=16
num_cat=0
split_feature=0 16 0 0 0 20 13 11 15 20 1 20 20 19 13
split_gain=754.052 113.774 45.6271 49.0425 43.9202 26.2638 25.9471 25.3467 18.2127 18.103 17.0317 12.8743 11.614 9.96902 6.86252
threshold=32.500000000000007 0.45834912808741762 36.500000000000007 44.000000000000007 21.500000000000004 2.004289339117995 -0.28870578512508943 0.24581536097895901 -1.1406499314765872 -1.4426488034406402 1.0000000180025095e-35 -0.51135433808815167 -0.78047594408380949 -0.44153189693335082 0.75503589434647234
decision_type=2 2 2 2 2 2 2 2 2 2 2 2 2 2 2
left_child=1 9 7 5 6 -4 -3 10 -6 14 -2 -5 -9 -11 -1
right_child=2 4 3 11 8 -7 -8 12 -10 13 -12 -13 -14 -15 -16
leaf_value=-0.00013296646685629542 -0.00023340724027630161 -0.0010518332453169684 -0.0011570509226835055 -0.00035092345306270075 0.00076419467062512005 9.3352112897936737e-05 0.00042397217919523818 -0.00023340724027630161 0.00010798868688842019 0.00068078343967648794 -0.00080395426589871836 0.00072891976291162436 0.00045090831319979295 0.0011463961445651262 0.0004903151775905954
leaf_weight=21.499951526522636 7.4999970495700827 30.245819762349129 375.17142152786255 6.9997726082801845 44.498979181051254 14.999996766448019 6.7497570365667334 21.749703407287598 172.74745792150497 174.23246599733829 93.740544766187668 11.249380066990851 34.999524250626564 270.19966553151608 25.748989179730415
leaf_count=86 30 121 1501 28 178 60 27 87 691 697 375 45 140 1081 103
internal_value=0 0.000655623 -0.00085696 -0.00103215 0.000102412 -0.00110681 -0.000734096 -0.000352686 0.000283937 0.000929785 -0.000622988 0.000337255 0.000156173 0.000992482 0.000239788
internal_weight=0 745.923 566.41 408.421 254.242 390.171 36.9956 157.99 217.246 491.681 101.241 18.2492 56.7492 444.432 47.2489
internal_count=5250 2984 2266 1634 1017 1561 148 632 869 1967 405 73 227 1778 189
is_linear=0
shrinkage=0.001


Tree=27
num_leaves=16
num_cat=0
split_feature=0 16 0 0 0 20 13 11 15 20 1 20 20 19 13
split_gain=752.609 113.563 45.5461 48.9631 43.8529 26.2176 25.9205 25.2943 18.1866 18.0634 17.0162 12.8646 11.5995 9.94841 6.85408
threshold=32.500000000000007 0.45834912808741762 36.500000000000007 44.000000000000007 21.500000000000004 2.004289339117995 -0.28870578512508943 0.24581536097895901 -1.1406499314765872 -1.4426488034406402 1.0000000180025095e-35 -0.51135433808815167 -0.78047594408380949 -0.44153189693335082 0.75503589434647234
decision_type=2 2 2 2 2 2 2 2 2 2 2 2 2 2 2
left_child=1 9 7 5 6 -4 -3 10 -6 14 -2 -5 -9 -11 -1
right_child=2 4 3 11 8 -7 -8 12 -10 13 -12 -13 -14 -15 -16
leaf_value=-0.00013288813763937126 -0.00023315212763546327 -0.0010511389871211536 -0.0011559573252351537 -0.00035081201152661364 0.00076362486321389052 9.3305409050840646e-05 0.00042384093587831639 -0.00023315212763546327 0.00010788934951062687 0.00068016095415644208 -0.00080326690493877709 0.0007286090929303911 0.00045059319676668487 0.0011453273288142558 0.00049000631269943619
leaf_weight=21.499955236911774 7.4999961704015723 30.245438486337662 375.16501875221729 6.999758422374728 44.498845845460892 14.99999664723873 6.7497401237487784 21.749685108661652 172.74740228056908 174.23126500844955 93.739773377776146 11.249317929148672 34.999464765191078 270.19536577165127 25.748909249901772
leaf_count=86 30 121 1501 28 178 60 27 87 691 697 375 45 140 1081 103
internal_value=0 0.000655021 -0.000856122 -0.00103116 0.000102324 -0.00110576 -0.000733545 -0.000352304 0.000283711 0.000928931 -0.000622328 0.000337083 0.000156024 0.000991562 0.000239632
internal_weight=0 745.917 566.403 408.414 254.241 390.165 36.9952 157.989 217.246 491.675 101.24 18.2491 56.7491 444.427 47.2489
internal_count=5250 2984 2266 1634 1017 1561 148 632 869 1967 405 73 227 1778 189
is_linear=0
shrinkage=0.001


Tree=28
num_leaves=16
num_cat=0
split_feature=0 16 0 0 0 20 13 11 2 20 1 20 20 19 13
split_gain=751.17 113.351 45.4654 48.8839 43.7857 26.1715 25.8939 25.2421 22.955 18.0239 17.0007 12.8548 11.585 9.92856 6.84565
threshold=32.500000000000007 0.45834912808741762 36.500000000000007 44.000000000000007 21.500000000000004 2.004289339117995 -0.28870578512508943 0.24581536097895901 1.0000000180025095e-35 -1.4426488034406402 1.0000000180025095e-35 -0.51135433808815167 -0.78047594408380949 -0.48507728541676615 0.75503589434647234
decision_type=2 2 2 2 2 2 2 2 2 2 2 2 2 2 2
left_child=1 9 7 5 6 -4 -3 10 -6 14 -2 -5 -9 -11 -1
right_child=2 4 3 11 8 -7 -8 12 -10 13 -12 -13 -14 -15 -16
leaf_value=-0.00013280984103785699 -0.0002328973260523986 -0.001050445600713234 -0.0011548654843432484 -0.00035070063610329939 0.0010660613075074623 9.3258772338412701e-05 0.00042370975171825484 -0.0002328973260523986 0.00014325030204088759 0.0006701064378491473 -0.00080258034322044567 0.00072829867178599082 0.00045027835509564714 0.0011382107175090476 0.00048969769335787349
leaf_weight=21.499958515167236 7.4999952465295783 30.245039612054825 375.15837572515011 6.999743819236758 17.747830078005791 14.999996662139891 6.7497225552797309 21.749665543437004 199.49821546673775 166.73123720288277 93.738974779844284 11.249252825975416 34.999402418732643 277.68967692553997 25.748826131224632
leaf_count=86 30 121 1501 28 71 60 27 87 798 667 375 45 140 1111 103
internal_value=0 0.00065442 -0.000855286 -0.00103017 0.000102237 -0.00110471 -0.000732995 -0.000351922 0.000283484 0.000928078 -0.00062167 0.000336912 0.000155875 0.000990642 0.000239475
internal_weight=0 745.911 566.395 408.407 254.241 390.158 36.9948 157.988 217.246 491.67 101.239 18.249 56.7491 444.421 47.2488
internal_count=5250 2984 2266 1634 1017 1561 148 632 869 1967 405 73 227 1778 189
is_linear=0
shrinkage=0.001


Tree=29
num_leaves=16
num_cat=0
split_feature=0 16 0 0 0 20 13 11 2 20 1 20 20 19 13
split_gain=749.74 113.135 45.3848 48.8049 43.7205 26.1255 25.8674 25.1899 22.9337 17.9844 16.9853 12.845 11.5704 9.90907 6.83724
threshold=32.500000000000007 0.45834912808741762 36.500000000000007 44.000000000000007 21.500000000000004 2.004289339117995 -0.28870578512508943 0.24581536097895901 1.0000000180025095e-35 -1.4426488034406402 1.0000000180025095e-35 -0.51135433808815167 -0.78047594408380949 -0.44153189693335082 0.75503589434647234
decision_type=2 2 2 2 2 2 2 2 2 2 2 2 2 2 2
left_child=1 9 7 5 6 -4 -3 10 -6 14 -2 -5 -9 -11 -1
right_child=2 4 3 11 8 -7 -8 12 -10 13 -12 -13 -14 -15 -16
leaf_value=-0.00013273159332483187 -0.00023264285092318199 -0.0010497530243271545 -0.0011537754007175769 -0.00035058928343718599 0.001065490459345095 9.3212133062489265e-05 0.00042357860702033453 -0.00023264285092318199 0.0001431171269543622 0.00067890831969231688 -0.00080189458505792847 0.0007279884397096547 0.00044996375008937912 0.0011432003613197216 0.00048938928480930018
leaf_weight=21.499961376190186 7.499993920326232 30.244625881314278 375.15148594975471 6.9997287988662746 17.747617721557617 14.999996542930601 6.7497042864561072 21.749644711613655 199.49813650548458 174.22871488332748 93.738146498799324 11.249185025691984 34.999335676431656 270.1862740367651 25.748740032315254
leaf_count=86 30 121 1501 28 71 60 27 87 798 697 375 45 140 1081 103
internal_value=0 0.000653826 -0.00085445 -0.00102918 0.000102168 -0.00110366 -0.000732445 -0.000351541 0.00028328 0.000927225 -0.000621012 0.00033674 0.000155726 0.000989724 0.000239319
internal_weight=0 745.904 566.388 408.4 254.24 390.151 36.9943 157.987 217.246 491.664 101.238 18.2489 56.749 444.415 47.2487
internal_count=5250 2984 2266 1634 1017 1561 148 632 869 1967 405 73 227 1778 189
is_linear=0
shrinkage=0.001


Tree=30
num_leaves=16
num_cat=0
split_feature=0 16 0 0 0 20 13 11 2 20 1 20 20 19 13
split_gain=748.313 112.919 45.3045 48.7261 43.6553 26.0796 25.8409 25.1379 22.9123 17.9451 16.9699 12.8353 11.556 9.88869 6.82883
threshold=32.500000000000007 0.45834912808741762 36.500000000000007 44.000000000000007 21.500000000000004 2.004289339117995 -0.28870578512508943 0.24581536097895901 1.0000000180025095e-35 -1.4426488034406402 1.0000000180025095e-35 -0.51135433808815167 -0.78047594408380949 -0.44153189693335082 0.75503589434647234
decision_type=2 2 2 2 2 2 2 2 2 2 2 2 2 2 2
left_child=1 9 7 5 6 -4 -3 10 -6 14 -2 -5 -9 -11 -1
right_child=2 4 3 11 8 -7 -8 12 -10 13 -12 -13 -14 -15 -16
leaf_value=-0.00013265341894685618 -0.0002323886961590988 -0.0010490612843171454 -0.0011526870764906566 -0.00035047798332469513 0.0010649202555242671 9.3165552653472905e-05 0.00042344752403511042 -0.0002323886961590988 0.00014298407678644742 0.00067828794671840633 -0.00080120964843870626 0.0007276784130269225 0.00044964941134714124 0.0011421365996420439 0.00048908111513712611
leaf_weight=21.499964281916618 7.4999924898147574 30.244196072220802 375.1443505436182 6.9997133612632778 17.747395426034927 14.999996021389959 6.749685510993003 21.749624609947205 199.49805654585361 174.22739414870739 93.737288251519203 11.249113976955412 34.999266341328621 270.18145777285099 25.748650923371315
leaf_count=86 30 121 1501 28 71 60 27 87 798 697 375 45 140 1081 103
internal_value=0 0.000653234 -0.000853616 -0.00102819 0.000102099 -0.00110262 -0.000731895 -0.00035116 0.000283076 0.000926374 -0.000620355 0.000336568 0.000155577 0.000988807 0.000239163
internal_weight=0 745.897 566.379 408.393 254.239 390.144 36.9939 157.986 217.245 491.657 101.237 18.2488 56.7489 444.409 47.2486
internal_count=5250 2984 2266 1634 1017 1561 148 632 869 1967 405 73 227 1778 189
is_linear=0
shrinkage=0.001


Tree=31
num_leaves=16
num_cat=0
split_feature=0 16 0 0 0 20 13 11 2 15 20 1 20 20 19
split_gain=746.89 112.703 45.2244 48.6474 43.5903 26.0338 25.8144 25.0859 22.891 17.9401 18.0327 16.9545 12.8255 11.5415 1.04693
threshold=32.500000000000007 0.45834912808741762 36.500000000000007 44.000000000000007 21.500000000000004 2.004289339117995 -0.28870578512508943 0.24581536097895901 1.0000000180025095e-35 1.849693534836016 -1.4426488034406402 1.0000000180025095e-35 -0.51135433808815167 -0.78047594408380949 -0.58060474541194507
decision_type=2 2 2 2 2 2 2 2 2 2 2 2 2 2 2
left_child=1 9 7 5 6 -4 -3 11 -6 10 -1 -2 -5 -9 -11
right_child=2 4 3 12 8 -7 -8 13 -10 14 -12 -13 -14 -15 -16
leaf_value=0.00041091917199411523 -0.00023213484872550949 -0.0010483703326116681 -0.0011516004941681875 -0.00035036671950356926 0.0010643506622333885 9.3118943755646073e-05 0.0004233165014632124 -0.00023213484872550949 0.0001428511389414922 8.5330563905860495e-05 0.0010222283716034611 -0.00080052549613941087 0.00072736862991554176 0.00044933532413755873 -0.00025156107977323839
leaf_weight=47.248525559902191 7.499991074204444 30.243749812245369 375.13697125017643 6.9996975064277676 17.747163236141205 14.999996036291121 6.7496661543846121 21.749603003263474 199.49797467887402 4.9995625615119934 432.65406101942062 93.736401036381721 11.249040141701697 34.999192863702774 6.7488773465156537
leaf_count=189 30 121 1501 28 71 60 27 87 798 20 1731 375 45 140 27
internal_value=0 0.000652642 -0.000852783 -0.0010272 0.00010203 -0.00110157 -0.000731347 -0.00035078 0.000282872 0.000925524 0.000955102 -0.000619698 0.000336397 0.000155429 -0.000133264
internal_weight=0 745.89 566.371 408.386 254.239 390.137 36.9934 157.985 217.245 491.651 479.903 101.236 18.2487 56.7488 11.7484
internal_count=5250 2984 2266 1634 1017 1561 148 632 869 1967 1920 405 73 227 47
is_linear=0
shrinkage=0.001


Tree=32
num_leaves=14
num_cat=0
split_feature=1 16 10 12 5 15 6 20 15 19 14 11 11
split_gain=429.176 88.2318 63.7584 44.7639 41.1118 29.1676 24.8447 20.8626 16.6707 9.62339 8.40644 6.48682 5.35214
threshold=1.0000000180025095e-35 0.19586287059618332 0.11141791067681191 -0.59957411254412052 1.5000000000000002 1.849693534836016 1.0000000180025095e-35 -1.4426488034406402 -1.1406499314765872 -1.5205131796873534 0.84745457080778264 0.32969793372435674 1.8911156317298767
decision_type=2 2 2 2 2 2 2 2 2 2 2 2 2
left_child=1 5 6 8 12 7 -2 -1 -3 -5 -6 -8 -4
right_child=2 3 4 9 10 -7 11 -9 -10 -11 -12 -13 -14
leaf_value=0.00049259299026882389 -0.00054461179345094445 0.00039722680152076787 -0.00054461179345094445 0.00039722680152076787 -0.00023194552721860032 1.6392145269066462e-05 -0.0011456801571038315 0.0010729634276364205 1.6392145269066462e-05 0.0010200798533118701 1.6392145269066462e-05 -0.00078115072706395807 1.6392145269066462e-05
leaf_weight=41.748616605997086 62.983606323599815 27.498393774032593 148.96562337875366 24.249202460050583 136.7219479829073 7.499008744955062 223.44394342601299 295.42839930951595 191.47999396920204 49.493185967206955 53.739979848265648 42.743193179368973 6.2491731643676749
leaf_count=167 252 110 596 97 547 30 894 1182 766 198 215 171 25
internal_value=0 0.000582072 -0.000549288 0.000164187 -0.000233004 0.000914763 -0.00085622 0.000968794 1.63921e-05 0.000778061 1.63921e-05 -0.00101769 -0.000544612
internal_weight=0 637.397 674.847 292.721 345.677 344.676 329.171 337.177 218.978 73.7424 190.462 266.187 155.215
internal_count=5250 2550 2700 1171 1383 1379 1317 1349 876 295 762 1065 621
is_linear=0
shrinkage=0.001


Tree=33
num_leaves=16
num_cat=0
split_feature=0 16 0 0 0 20 13 11 2 15 20 20 20 10 9
split_gain=744.369 112.335 45.1337 48.5765 43.5264 25.9909 25.777 25.0277 22.8712 17.8929 17.9937 12.8118 11.5278 8.94001 0.739093
threshold=32.500000000000007 0.45834912808741762 36.500000000000007 44.000000000000007 21.500000000000004 2.004289339117995 -0.28870578512508943 0.24581536097895901 1.0000000180025095e-35 1.849693534836016 -1.4426488034406402 -0.51135433808815167 -0.78047594408380949 0.24170549942093261 1.1138510975415812
decision_type=2 2 2 2 2 2 2 2 2 2 2 2 2 2 2
left_child=1 9 7 5 6 -4 -3 13 -6 10 -1 -5 -9 -2 -11
right_child=2 4 3 11 8 -7 -8 12 -10 14 -12 -13 -14 -15 -16
leaf_value=0.00041016088634459658 -0.00084778042962141821 -0.0010476910623851876 -0.0011498805828735587 -0.00034989188928403434 0.0010637047064381798 9.3457871046006411e-05 0.00042296315397429609 -0.00023144535428620196 0.00014262819612936547 5.8983873236138483e-05 0.0010206038193365165 0.00072739822368658757 0.00044935595859869301 -0.00023144535428620196 -0.00023062011719068127
leaf_weight=47.248339995741844 56.740035444498062 30.243292927742004 375.12467612326145 6.9996249079704311 17.746874019503593 14.999993696808813 6.7496082484722129 21.749540433287621 199.49771122634411 5.2494536787271482 432.64263921976089 11.249042421579359 34.999191582202911 44.494554221630096 6.498999297618866
leaf_count=189 227 121 1501 28 71 60 27 87 798 21 1731 45 140 178 26
internal_value=0 0.000651571 -0.000851327 -0.00102557 0.000101861 -0.00109989 -0.000730902 -0.000349904 0.000282575 0.000924012 0.000953552 0.000336736 0.000155637 -0.000618527 -0.000133231
internal_weight=0 745.877 566.357 408.373 254.237 390.125 36.9929 157.983 217.245 491.639 479.891 18.2487 56.7487 101.235 11.7485
internal_count=5250 2984 2266 1634 1017 1561 148 632 869 1967 1920 73 227 405 47
is_linear=0
shrinkage=0.001


Tree=34
num_leaves=14
num_cat=0
split_feature=1 16 10 12 5 15 6 14 15 19 14 11 11
split_gain=427.384 87.938 63.5838 44.6685 41.0081 29.0987 24.8225 16.7896 16.6294 9.61103 8.35096 6.49188 5.33668
threshold=1.0000000180025095e-35 0.19586287059618332 0.11141791067681191 -0.59957411254412052 1.5000000000000002 1.849693534836016 1.0000000180025095e-35 0.18072341566466296 -1.1406499314765872 -1.5205131796873534 0.84745457080778264 0.32969793372435674 1.8911156317298767
decision_type=2 2 2 2 2 2 2 2 2 2 2 2 2
left_child=1 5 6 8 12 7 -2 -1 -3 -5 -6 -8 -4
right_child=2 3 4 9 10 -7 11 -9 -10 -11 -12 -13 -14
leaf_value=0.00066794512690213428 -0.00054347155015523367 0.00039669768878204502 -0.00054347155015523367 0.00039669768878204502 -0.0002313603323441518 1.6371409451264973e-05 -0.0011439351355949767 0.0012488686589001608 1.6371409451264973e-05 0.0010188908031343634 1.6371409451264973e-05 -0.00077975790509800832 1.6371409451264973e-05
leaf_weight=188.46057707071304 62.982100069522858 27.498222053050995 148.96241429448128 24.249107539653778 136.71984294056892 7.4990188330411902 223.43695540726185 148.70667228102684 191.47860759496689 49.492243185639381 53.739356696605682 42.742520540952682 6.2491154223680487
leaf_count=754 252 110 596 97 547 30 894 595 766 198 215 171 25
internal_value=0 0.000580875 -0.000548132 0.000163698 -0.000232302 0.000913015 -0.000854641 0.000967008 1.63714e-05 0.000777024 1.63714e-05 -0.00101604 -0.000543472
internal_weight=0 637.384 674.832 292.718 345.671 344.666 329.162 337.167 218.977 73.7414 190.459 266.179 155.212
internal_count=5250 2550 2700 1171 1383 1379 1317 1349 876 295 762 1065 621
is_linear=0
shrinkage=0.001


Tree=35
num_leaves=14
num_cat=0
split_feature=1 16 10 12 5 15 6 20 15 19 14 11 11
split_gain=426.463 87.7949 63.4578 44.5985 40.9628 29.0653 24.7938 20.8011 16.6055 9.60234 8.33312 6.49584 5.32548
threshold=1.0000000180025095e-35 0.19586287059618332 0.11141791067681191 -0.59957411254412052 1.5000000000000002 1.849693534836016 1.0000000180025095e-35 -1.4426488034406402 -1.1406499314765872 -1.5205131796873534 0.84745457080778264 0.32969793372435674 1.8911156317298767
decision_type=2 2 2 2 2 2 2 2 2 2 2 2 2
left_child=1 5 6 8 12 7 -2 -1 -3 -5 -6 -8 -4
right_child=2 3 4 9 10 -7 11 -9 -10 -11 -12 -13 -14
leaf_value=0.00049126376336419957 -0.00054285295768666134 0.0003963719031110611 -0.00054285295768666134 0.0003963719031110611 -0.00023115220844663922 1.6391076510309799e-05 -0.0011428800839856702 0.0010701752182874164 1.6391076510309799e-05 0.0010181178491518272 1.6391076510309799e-05 -0.00077894161363096463 1.6391076510309799e-05
leaf_weight=41.748257234692574 62.981672152876854 27.49814660847187 148.96135973930359 24.249055802822113 136.71958680450916 7.4990174770355216 223.43342617154121 295.41424660384655 191.47859665751457 49.491675481200218 53.739351764321327 42.742294505238533 6.2491157352924338
leaf_count=167 252 110 596 97 547 30 894 1182 766 198 215 171 25
internal_value=0 0.000580288 -0.000547506 0.000163458 -0.000231993 0.000912161 -0.000853713 0.000966136 1.63911e-05 0.000776353 1.63911e-05 -0.00101503 -0.000542853
internal_weight=0 637.379 674.827 292.717 345.669 344.662 329.157 337.163 218.977 73.7407 190.459 266.176 155.21
internal_count=5250 2550 2700 1171 1383 1379 1317 1349 876 295 762 1065 621
is_linear=0
shrinkage=0.001


Tree=36
num_leaves=16
num_cat=0
split_feature=0 16 0 0 0 13 11 2 15 14 1 16 16 15 19
split_gain=740.855 111.841 45.0136 48.5134 43.4636 25.7289 24.9731 22.8528 17.8299 17.0103 16.8911 11.1983 9.242 3.60151 1.04578
threshold=32.500000000000007 0.45834912808741762 36.500000000000007 44.000000000000007 21.500000000000004 -0.28870578512508943 0.24581536097895901 1.0000000180025095e-35 1.849693534836016 0.35010508618758512 1.0000000180025095e-35 -0.58393156478492225 1.3931288419977343 -2.7934393276112366 -0.58060474541194507
decision_type=2 2 2 2 2 2 2 2 2 2 2 2 2 2 2
left_child=1 8 6 13 5 -3 10 -6 9 -1 -2 -5 -8 -4 -10
right_child=2 4 3 11 7 -7 12 -9 14 -11 -12 -13 -14 -15 -16
leaf_value=0.00072722059132329815 -0.00023040249602523585 -0.0010470233919246338 -5.3770130707638759e-05 -0.00035650612060401905 0.0010629829190928189 0.00042238848238059309 -7.7508386388409783e-05 0.00014231555531572809 8.5268602249706632e-05 0.0012291002026308744 -0.0007974932000147961 0.00066585537111132909 0.00065505496200176467 -0.0011087540099252902 -0.00025144360717816616
leaf_weight=295.92962682247162 7.4999918043613425 30.242830082774162 5.2478723078966132 5.249596223235133 17.746516495943069 6.749502405524253 46.998903781175613 199.49719209969044 4.9995474815368652 183.94407187402248 93.731933519244194 12.998996302485464 9.7497781813144666 384.85878516733646 6.7489107847213727
leaf_count=1184 30 121 21 21 71 27 188 798 20 736 375 52 39 1540 27
internal_value=0 0.000650088 -0.000849282 -0.00102328 0.00010159 -0.000730561 -0.000348643 0.000282183 0.000921936 0.000951428 -0.000617003 0.000337584 0.000156198 -0.00109757 -0.000133215
internal_weight=0 745.858 566.336 408.355 254.236 36.9923 157.981 217.244 491.622 479.874 101.232 18.2486 56.7487 390.107 11.7485
internal_count=5250 2984 2266 1634 1017 148 632 869 1967 1920 405 73 227 1561 47
is_linear=0
shrinkage=0.001


Tree=37
num_leaves=15
num_cat=0
split_feature=0 16 0 0 0 20 13 1 2 20 16 20 19 13
split_gain=739.431 111.624 44.9432 48.4328 43.3989 25.9504 25.7025 24.0151 22.8315 17.842 13.6847 12.7877 9.98551 6.83138
threshold=32.500000000000007 0.45834912808741762 36.500000000000007 44.000000000000007 21.500000000000004 2.004289339117995 -0.28870578512508943 1.0000000180025095e-35 1.0000000180025095e-35 -1.4426488034406402 1.3931288419977343 -0.51135433808815167 -0.44153189693335082 0.75503589434647234
decision_type=2 2 2 2 2 2 2 2 2 2 2 2 2 2
left_child=1 9 7 5 6 -4 -3 -2 -6 13 -9 -5 -11 -1
right_child=2 4 3 11 8 -7 -8 10 -10 12 -12 -13 -14 -15
leaf_value=-0.00013441486802578197 0.00067226604114601002 -0.0010463349469560978 -0.0011465020726676661 -0.00034903489626948915 0.0010624154839676402 9.4734831177538287e-05 0.00042225788050994295 -0.00056157691700250035 0.00014218324309268543 0.00067331287717974932 0.00010697077140171293 0.00072749208685958706 0.0011365844910721349 0.0004868654295200711
leaf_weight=21.499839156866074 7.7499652057886115 30.242335185408592 375.09856055676937 6.9994730353355434 17.74625052511692 14.999955981969832 6.7494780719280234 134.23098497092724 199.49709755182266 174.21477617323399 15.998581781983374 11.249051064252852 270.15253069996834 25.747901812195778
leaf_count=86 31 121 1501 28 71 60 27 537 798 697 64 45 1081 103
internal_value=0 0.000649493 -0.000848446 -0.0010223 0.000101522 -0.00109654 -0.000730014 -0.000348219 0.00028198 0.000921081 -0.000458324 0.00033738 0.00098331 0.000236677
internal_weight=0 745.85 566.327 408.347 254.235 390.099 36.9918 157.98 217.243 491.615 150.23 18.2485 444.367 47.2477
internal_count=5250 2984 2266 1634 1017 1561 148 632 869 1967 601 73 1778 189
is_linear=0
shrinkage=0.001


Tree=38
num_leaves=13
num_cat=0
split_feature=1 16 5 14 12 11 15 20 15 11 19 19
split_gain=423.835 87.3872 50.1857 67.4143 44.4728 32.1884 28.979 20.7367 16.5404 12.6627 9.5849 7.92388
threshold=1.0000000180025095e-35 0.19586287059618332 1.5000000000000002 0.91468161426111649 -0.59957411254412052 0.20474551448702452 1.849693534836016 -1.4426488034406402 -1.1406499314765872 1.8911156317298767 -1.5205131796873534 -1.1543234287107251
decision_type=2 2 2 2 2 2 2 2 2 2 2 2
left_child=1 6 9 5 8 -4 7 -1 -3 11 -6 -2
right_child=2 4 3 -5 10 -7 -8 -9 -10 -11 -12 -13
leaf_value=0.00049002126430527286 -0.00042162370170957059 0.00039568261515487665 -0.00080662391663773839 1.6413657129283886e-05 0.00039568261515487665 -0.00027089553977833184 1.6413657129283886e-05 0.0010675281790206602 1.6413657129283886e-05 1.6413657129283886e-05 0.0010165110923851003 -0.00093486540774050163
leaf_weight=41.747858077287674 47.73466095328331 27.497859641909599 186.6907367259264 75.231685996055603 24.248906433582306 94.974920704960823 7.4989545643329611 295.39911292493343 191.47577820718288 6.7488143593072882 49.490159258246422 263.41922262310982
leaf_count=167 191 110 747 301 97 380 30 1182 766 27 198 1054
internal_value=0 0.000578581 -0.000545754 -0.000270104 0.000162738 -0.000558205 0.000909688 0.000963629 1.64137e-05 -0.0008285 0.000774952 -0.000859661
internal_weight=0 637.359 674.8 356.897 292.713 281.666 344.646 337.147 218.974 317.903 73.7391 311.154
internal_count=5250 2550 2700 1428 1171 1127 1379 1349 876 1272 295 1245
is_linear=0
shrinkage=0.001


Tree=39
num_leaves=15
num_cat=0
split_feature=0 16 0 0 12 0 20 1 15 20 16 20 15 9
split_gain=736.963 111.277 44.8683 48.3456 44.6124 41.6232 25.9043 23.9506 18.7789 18.4475 13.663 12.7743 8.06703 0.847644
threshold=32.500000000000007 0.4361200989532476 36.500000000000007 44.000000000000007 -0.72472559222659072 21.500000000000004 2.004289339117995 1.0000000180025095e-35 1.849693534836016 -1.4426488034406402 1.3931288419977343 -0.51135433808815167 1.3580121973395289 1.1138510975415812
decision_type=2 2 2 2 2 2 2 2 2 2 2 2 2 2
left_child=1 8 7 6 5 -3 -4 -2 9 -1 -9 -5 -6 -10
right_child=2 4 3 11 12 -7 -8 10 13 -11 -12 -13 -14 -15
leaf_value=0.00040054192804264558 0.00067170896372754159 -0.00099151292315863976 -0.0011447911486596382 -0.00034867040153487 0.0008548256493541923 8.4111631352835214e-05 9.5024148786257773e-05 -0.00056046211864229755 5.883100004866602e-05 0.0010227621591984467 0.00010722392506176726 0.00072737573658138372 0.0002811764929787029 -0.00025679956389460911
leaf_weight=47.247510582208633 7.74995233118534 30.741815388202667 375.0844415128231 6.9994011223316219 60.995708540081978 158.4951855391264 14.999939292669294 134.22926965355873 5.249419763684271 427.35710732638836 15.998537480831144 11.249017879366873 9.4997581690549833 6.2489777058362961
leaf_count=189 31 123 1501 28 244 634 60 537 21 1710 64 45 38 25
internal_value=0 0.000648466 -0.000846988 -0.00102069 0.000109601 -0.000149633 -0.00109487 -0.000347275 0.000924091 0.000954506 -0.000457261 0.000337531 0.000711986 -0.000153422
internal_weight=0 745.835 566.311 408.333 259.732 189.237 390.084 157.978 486.103 474.605 150.228 18.2484 70.4955 11.4984
internal_count=5250 2984 2266 1634 1039 757 1561 632 1945 1899 601 73 282 46
is_linear=0
shrinkage=0.001


Tree=40
num_leaves=16
num_cat=0
split_feature=0 16 0 0 0 20 11 14 2 20 1 20 20 19 14
split_gain=735.505 111.073 44.7925 48.2679 43.2728 25.8591 24.9318 22.8216 22.8201 17.7655 16.8531 12.7646 11.5024 10.0097 4.94661
threshold=32.500000000000007 0.45834912808741762 36.500000000000007 44.000000000000007 21.500000000000004 2.004289339117995 0.24581536097895901 0.13906266304059559 1.0000000180025095e-35 -1.4426488034406402 1.0000000180025095e-35 -0.51135433808815167 -0.78047594408380949 -0.48507728541676615 -0.1391950286692209
decision_type=2 2 2 2 2 2 2 2 2 2 2 2 2 2 2
left_child=1 9 6 5 7 -4 10 -3 -6 14 -2 -5 -8 -11 -1
right_child=2 4 3 11 8 -7 12 -9 -10 13 -12 -13 -14 -15 -16
leaf_value=-4.9518430300690386e-05 -0.000228885663486406 -0.00099646258365911696 -0.0011437171521078413 -0.00034855984775058731 0.001061624050277402 9.4976600713182573e-05 -0.000228885663486406 0.00043592074899695491 0.00014169534753407661 0.00066180052541787559 -0.00079528822319101147 0.00072706615428015696 0.00045053306117236289 0.0011279977342917411 0.00048893712801613648
leaf_weight=27.498814672231674 7.4999787211418143 31.991310447454453 375.07531863451004 6.9993782341480282 17.745830729603767 14.99994160234928 21.749214723706245 4.9994036406278601 199.49647277593613 166.71089753508568 93.728405222296715 11.248941108584402 34.999400779604912 277.63519369065762 19.748574241995811
leaf_count=110 30 128 1501 28 71 60 87 20 798 667 375 45 140 1111 79
internal_value=0 0.000647827 -0.000846159 -0.00101972 0.000101213 -0.00109384 -0.000346882 -0.00072911 0.000281417 0.000918752 -0.000615069 0.000337359 0.000157298 0.000980847 0.00023592
internal_weight=0 745.826 566.301 408.324 254.233 390.075 157.977 36.9907 217.242 491.593 101.228 18.2483 56.7486 444.346 47.2474
internal_count=5250 2984 2266 1634 1017 1561 632 148 869 1967 405 73 227 1778 189
is_linear=0
shrinkage=0.001


Tree=41
num_leaves=16
num_cat=0
split_feature=0 16 0 0 12 0 20 11 15 20 1 20 20 19 19
split_gain=734.11 110.864 44.7138 48.1903 44.527 41.5022 25.814 24.8803 18.7451 18.3856 16.8378 12.7549 11.488 11.2884 0.151742
threshold=32.500000000000007 0.4361200989532476 36.500000000000007 44.000000000000007 -0.72472559222659072 21.500000000000004 2.004289339117995 0.24581536097895901 1.849693534836016 -1.4426488034406402 1.0000000180025095e-35 -0.51135433808815167 -0.78047594408380949 -1.5205131796873534 -0.5047816747263999
decision_type=2 2 2 2 2 2 2 2 2 2 2 2 2 2 2
left_child=1 8 7 6 5 -3 -4 10 9 -1 -2 -5 -9 -6 -10
right_child=2 4 3 11 13 -7 -8 12 14 -11 -12 -13 -14 -15 -16
leaf_value=0.00039950580408555983 -0.00022863572416113997 -0.00099026050224406532 -0.0011426448404051369 -0.00034844930104319078 0.00028079728590133565 8.3816797328029093e-05 9.4929129709244795e-05 -0.00022863572416113997 0 0.0010208889862201506 -0.00079461099297886033 0.00072675676653004111 0.00045021824555434959 0.00096480001971368113 -0.00019724754494638959
leaf_weight=47.247320026159286 7.4999806284904471 30.740831583738327 375.06595787405968 6.9993552267551449 24.74882447719574 158.49482315778732 14.999944046139715 21.749184966087341 6.4993534833192825 427.34126697480679 93.727265745401382 11.248861387372015 34.999336943030357 45.746079295873642 4.998939782381056
leaf_count=189 30 123 1501 28 99 634 60 87 26 1710 375 45 140 183 20
internal_value=0 0.000647244 -0.000845336 -0.00101874 0.00010938 -0.0001496 -0.00109281 -0.000346506 0.000922364 0.000952756 -0.000614419 0.000337187 0.000157148 0.000711194 -0.000153744
internal_weight=0 745.817 566.29 408.314 259.731 189.236 390.066 157.976 486.087 474.589 101.227 18.2482 56.7485 70.4949 11.4983
internal_count=5250 2984 2266 1634 1039 757 1561 632 1945 1899 405 73 227 282 46
is_linear=0
shrinkage=0.001


Tree=42
num_leaves=16
num_cat=0
split_feature=0 16 0 0 12 0 11 15 14 1 19 16 16 0 9
split_gain=732.668 110.654 44.6353 48.113 44.4569 41.4454 24.829 18.7158 17.159 16.8225 11.2768 11.1615 9.19871 3.7361 0.846603
threshold=32.500000000000007 0.4361200989532476 36.500000000000007 44.000000000000007 -0.72472559222659072 21.500000000000004 0.24581536097895901 1.849693534836016 0.35010508618758512 1.0000000180025095e-35 -1.5205131796873534 -0.58393156478492225 1.3931288419977343 38.500000000000007 1.1138510975415812
decision_type=2 2 2 2 2 2 2 2 2 2 2 2 2 2 2
left_child=1 7 6 13 5 -3 9 8 -1 -2 -6 -5 -8 -4 -9
right_child=2 4 3 11 10 -7 12 14 -10 -11 -12 -13 -14 -15 -16
leaf_value=0.00072493844167571147 -0.00022838608321001136 -0.00098960591470096185 -0.0013678431160228748 -0.00035591706452271744 0.00028054194565991104 8.3740294443180363e-05 -7.6402218225589093e-05 5.8627717975161135e-05 0.0012302521953952799 -0.00079393455045561852 0.00096407893036709071 0.00066475642329173257 0.0006545999132493344 -0.00089086653906291489 -0.00025696117674155422
leaf_weight=291.65592695772648 7.4999824911355963 30.740327090024948 127.18252938985825 5.2494718134403255 24.748781457543373 158.49476589262486 46.998705103993416 5.2493753284215909 182.92414546012878 93.726097121834755 45.745734944939613 12.998638316988943 9.7497198581695539 262.87377539277077 6.2489320635795593
leaf_count=1167 30 123 509 21 99 634 188 21 732 375 183 52 39 1052 25
internal_value=0 0.00064661 -0.000844514 -0.00101777 0.000109256 -0.000149516 -0.00034613 0.000921473 0.000951843 -0.00061377 0.0007106 0.000337016 0.000156998 -0.00109178 -0.000153707
internal_weight=0 745.808 566.279 408.304 259.73 189.235 157.975 486.078 474.58 101.226 70.4945 18.2481 56.7484 390.056 11.4983
internal_count=5250 2984 2266 1634 1039 757 632 1945 1899 405 282 73 227 1561 46
is_linear=0
shrinkage=0.001


Tree=43
num_leaves=16
num_cat=0
split_feature=0 16 0 0 0 20 11 2 14 20 1 20 20 19 14
split_gain=731.271 110.456 44.5716 48.0356 43.086 25.7647 24.7857 22.8139 22.7605 17.698 16.8095 12.739 11.4684 10.0311 4.94644
threshold=32.500000000000007 0.45834912808741762 36.500000000000007 44.000000000000007 21.500000000000004 2.004289339117995 0.24581536097895901 1.0000000180025095e-35 0.13906266304059559 -1.4426488034406402 1.0000000180025095e-35 -0.51135433808815167 -0.78047594408380949 -0.44153189693335082 -0.1391950286692209
decision_type=2 2 2 2 2 2 2 2 2 2 2 2 2 2 2
left_child=1 9 6 5 8 -4 10 -6 -3 14 -2 -5 -8 -11 -1
right_child=2 4 3 11 7 -7 12 -9 -10 13 -12 -13 -14 -15 -16
leaf_value=-5.0214163923007381e-05 -0.00022808116861270094 -0.0009946818301251447 -0.0011405910808383241 -0.00034831844328251889 0.001060782995053384 9.535894339215162e-05 -0.00022808116861270094 0.00014107630384910556 0.00043557621115248825 0.00066890030631119564 -0.00079325888460434195 0.00072617453044288374 0.0004498185300360573 0.0011312104764048016 0.00048796961627940608
leaf_weight=27.498643413186073 7.4999841004610053 31.989780992269516 375.04728843271732 6.9993261396884945 17.745372712612152 14.999919727444647 21.749144658446312 199.49578909575939 4.9992965310811988 174.20152002573013 93.724900677800179 11.248703733086584 34.999244019389153 270.12010654807091 19.74829338490963
leaf_count=110 30 128 1501 28 71 60 87 798 20 697 375 45 140 1081 79
internal_value=0 0.000646002 -0.000843713 -0.00101684 0.000100907 -0.0010908 -0.000345709 0.000280725 -0.000727627 0.000916184 -0.000613121 0.000336813 0.000156959 0.000978155 0.000234904
internal_weight=0 745.799 566.269 408.295 254.23 390.047 157.973 217.241 36.9891 491.569 101.225 18.248 56.7484 444.322 47.2469
internal_count=5250 2984 2266 1634 1017 1561 632 869 148 1967 405 73 227 1778 189
is_linear=0
shrinkage=0.001


Tree=44
num_leaves=16
num_cat=0
split_feature=0 16 0 0 12 0 20 11 15 20 1 20 20 19 9
split_gain=729.886 110.25 44.4934 47.9585 44.3762 41.325 25.7199 24.7345 18.6827 18.3187 16.7942 12.7294 11.4541 11.265 0.845749
threshold=32.500000000000007 0.4361200989532476 36.500000000000007 44.000000000000007 -0.72472559222659072 21.500000000000004 2.004289339117995 0.24581536097895901 1.849693534836016 -1.4426488034406402 1.0000000180025095e-35 -0.51135433808815167 -0.78047594408380949 -1.5205131796873534 1.1138510975415812
decision_type=2 2 2 2 2 2 2 2 2 2 2 2 2 2 2
left_child=1 8 7 6 5 -3 -4 10 9 -1 -2 -5 -9 -6 -10
right_child=2 4 3 11 13 -7 -8 12 14 -11 -12 -13 -14 -15 -16
leaf_value=0.00039805893722146685 -0.00022783221897512701 -0.00098835781648046162 -0.0011395237082425021 -0.00034820800092232978 0.00028018515392627783 8.3446324858871439e-05 9.531125637226582e-05 -0.00022783221897512701 5.8427819841693213e-05 0.0010181357129639918 -0.00079258400011469117 0.00072586578069555 0.00044950430605371675 0.00096319782653121147 -0.00025715916293261003
leaf_weight=47.246860027313232 7.4999853819608679 30.739258259534836 375.03724436461926 6.9993019849061993 24.748699709773064 158.4943892210722 14.999922603368757 21.749114081263542 5.2493299543857557 427.31646265089512 93.723676040768623 11.248615399003027 34.999172374606133 45.745209440588951 6.2488739639520645
leaf_count=189 30 123 1501 28 99 634 60 87 21 1710 375 45 140 183 25
internal_value=0 0.000645421 -0.000842894 -0.00101587 0.000109049 -0.000149482 -0.00108977 -0.000345334 0.000919789 0.000950137 -0.000612473 0.000336642 0.000156809 0.000709852 -0.000154019
internal_weight=0 745.789 566.257 408.285 259.728 189.234 390.037 157.972 486.062 474.563 101.224 18.2479 56.7483 70.4939 11.4982
internal_count=5250 2984 2266 1634 1039 757 1561 632 1945 1899 405 73 227 282 46
is_linear=0
shrinkage=0.001


Tree=45
num_leaves=16
num_cat=0
split_feature=0 16 0 0 13 0 20 11 15 20 1 20 19 20 9
split_gain=728.453 110.041 44.4155 47.8816 42.9306 45.2124 25.6751 24.6834 18.6529 18.2902 16.779 12.7197 11.7986 11.4397 0.845286
threshold=32.500000000000007 0.4361200989532476 36.500000000000007 44.000000000000007 -0.19912405264197239 21.500000000000004 2.004289339117995 0.24581536097895901 1.849693534836016 -1.4426488034406402 1.0000000180025095e-35 -0.51135433808815167 -1.5205131796873534 -0.78047594408380949 1.1138510975415812
decision_type=2 2 2 2 2 2 2 2 2 2 2 2 2 2 2
left_child=1 8 7 6 5 -3 -4 10 9 -1 -2 -5 -6 -9 -10
right_child=2 4 3 11 12 -7 -8 13 14 -11 -12 -13 -14 -15 -16
leaf_value=0.0003976288410546456 -0.00022758358659869012 -0.0010144459018655836 -0.0011384580545075629 -0.0003480976113327474 0.0002915080877916122 0.00010090715765692532 9.5263624330209953e-05 -0.00022758358659869012 5.8412685447118094e-05 0.0010171728009930766 -0.00079190990719992655 0.00072555723554036645 0.00099604861970049472 0.00044919032618812472 -0.00025708326342396837
leaf_weight=47.246721804141998 7.4999865740537635 30.988602042198181 375.0269583761692 6.9992775619030025 24.74865448474884 162.24379107356071 14.999925687909125 21.749082311987877 5.2493264526128751 427.3074637055397 93.722421288490295 11.248524352908133 41.745468243956566 34.999097540974617 6.2488950490951538
leaf_count=189 30 124 1501 28 99 649 60 87 21 1710 375 45 167 140 25
internal_value=0 0.000644791 -0.000842076 -0.00101491 0.000108926 -0.000137192 -0.00108875 -0.00034496 0.000918902 0.000949227 -0.000611826 0.000336471 0.000720208 0.000156659 -0.000153969
internal_weight=0 745.779 566.245 408.275 259.727 193.232 390.027 157.971 486.052 474.554 101.222 18.2478 66.4941 56.7482 11.4982
internal_count=5250 2984 2266 1634 1039 773 1561 632 1945 1899 405 73 266 227 46
is_linear=0
shrinkage=0.001


Tree=46
num_leaves=14
num_cat=0
split_feature=1 16 10 12 5 15 6 20 15 19 14 11 11
split_gain=416.982 86.3824 62.9998 44.0655 40.3361 28.7441 24.8416 20.5409 16.3825 9.52687 7.91793 6.55194 5.28203
threshold=1.0000000180025095e-35 0.19586287059618332 0.11141791067681191 -0.59957411254412052 1.5000000000000002 1.849693534836016 1.0000000180025095e-35 -1.4426488034406402 -1.1406499314765872 -1.5205131796873534 0.84745457080778264 0.32969793372435674 1.8911156317298767
decision_type=2 2 2 2 2 2 2 2 2 2 2 2 2
left_child=1 5 6 8 12 7 -2 -1 -3 -5 -6 -8 -4
right_child=2 3 4 9 10 -7 11 -9 -10 -11 -12 -13 -14
leaf_value=0.00048670056703100186 -0.00053672987109350885 0.00039343257732550504 -0.00053672987109350885 0.00039343257732550504 -0.00022660696266573542 1.6358673273600078e-05 -0.0011351278849017 0.0010604959171871776 1.6358673273600078e-05 0.0010113605994062805 1.6358673273600078e-05 -0.00077222161707671993 1.6358673273600078e-05
leaf_weight=41.746896713972092 62.96921506524086 27.497204333543777 148.9341811388731 24.2484510242939 136.69886018335819 7.4988596439361563 223.38777267932892 295.35191988945007 191.46544606983662 49.484959051012993 53.732109665870667 42.737286567687988 6.2485713958740225
leaf_count=167 252 110 596 97 547 30 894 1182 766 198 215 171 25
internal_value=0 0.000573995 -0.000541277 0.000160616 -0.000227125 0.00090321 -0.000846335 0.000957042 1.63587e-05 0.000770506 1.63587e-05 -0.00100771 -0.00053673
internal_weight=0 637.294 674.708 292.696 345.614 344.598 329.094 337.099 218.963 73.7334 190.431 266.125 155.183
internal_count=5250 2550 2700 1171 1383 1379 1317 1349 876 295 762 1065 621
is_linear=0
shrinkage=0.001


Tree=47
num_leaves=16
num_cat=0
split_feature=0 16 0 0 0 20 13 11 2 15 20 1 20 20 9
split_gain=725.983 109.698 44.3275 47.8127 42.8989 25.6334 25.4786 24.6262 22.81 17.6138 17.7214 16.7516 12.7061 11.4261 0.736744
threshold=32.500000000000007 0.45834912808741762 36.500000000000007 44.000000000000007 21.500000000000004 2.004289339117995 -0.28870578512508943 0.24581536097895901 1.0000000180025095e-35 1.849693534836016 -1.4426488034406402 1.0000000180025095e-35 -0.51135433808815167 -0.78047594408380949 1.1138510975415812
decision_type=2 2 2 2 2 2 2 2 2 2 2 2 2 2 2
left_child=1 9 7 5 6 -4 -3 11 -6 10 -1 -2 -5 -9 -11
right_child=2 4 3 12 8 -7 -8 13 -10 14 -12 -13 -14 -15 -16
leaf_value=0.00040411214621401316 -0.00022690566730999988 -0.0010412580316384143 -0.0011367717820473511 -0.00034762744194766248 0.0010598773866035878 9.5597321662961268e-05 0.00042069867752263115 -0.00022690566730999988 0.0001403637339823699 5.8401491627682329e-05 0.0010088248607905989 -0.0007906299316946503 0.00072558456499465006 0.00044920657073104669 -0.00023114506471432535
leaf_weight=47.246418386697769 7.4999794960021964 30.238127171993256 375.00995862483978 6.9991680383682278 17.744827926158905 14.999898284673689 6.749082848429679 21.748989224433899 199.49468904733658 5.2493232339620572 432.53963683545589 93.719890564680099 11.248522564768789 34.999089226126671 6.4988488107919693
leaf_count=189 30 121 1501 28 71 60 27 87 798 21 1731 375 45 140 26
internal_value=0 0.00064372 -0.000840645 -0.0010133 0.000100503 -0.0010871 -0.000726232 -0.000344097 0.000279938 0.000912987 0.000942318 -0.000610671 0.000336806 0.00015686 -0.000134094
internal_weight=0 745.761 566.225 408.258 254.227 390.01 36.9872 157.968 217.24 491.534 479.786 101.22 18.2477 56.7481 11.7482
internal_count=5250 2984 2266 1634 1017 1561 148 632 869 1967 1920 405 73 227 47
is_linear=0
shrinkage=0.001


Tree=48
num_leaves=16
num_cat=0
split_feature=0 16 0 0 12 0 20 11 20 1 20 20 13 16 13
split_gain=724.574 109.477 44.25 47.7361 44.1812 41.1497 25.5888 24.5753 17.8664 16.7364 12.6964 11.4118 6.83435 5.58321 4.99472
threshold=32.500000000000007 0.4361200989532476 36.500000000000007 44.000000000000007 -0.72472559222659072 21.500000000000004 2.004289339117995 0.24581536097895901 -1.4426488034406402 1.0000000180025095e-35 -0.51135433808815167 -0.78047594408380949 0.75503589434647234 1.369157570378581 -1.4341692724684141
decision_type=2 2 2 2 2 2 2 2 2 2 2 2 2 2 2
left_child=1 8 7 6 5 -3 -4 9 12 -2 -5 -9 -1 -6 -10
right_child=2 4 3 10 13 -7 -8 11 14 -11 -12 -13 -14 -15 -16
leaf_value=-0.00013663107786400446 -0.00022665810794453246 -0.0009864401917946226 -0.0011357104235785479 -0.00034751725197949444 0.00089416071126759307 8.3112453586410266e-05 9.5549510358677793e-05 -0.00022665810794453246 0.00060651257156271916 -0.00078995806296194458 0.00072527621283620717 0.00044889283135584495 0.00048407772896499917 0.00027939305759363127 0.0010252665867039662
leaf_weight=21.49953930079937 7.4999809563159934 30.737504929304123 374.99907976388931 6.9991415292024639 44.744107976555824 158.49387054145336 14.999901488423346 21.74895541369915 32.483048185706139 93.718555957078934 11.248428568243979 34.999010801315308 25.746727079153061 25.748268648982048 406.29705753922462
leaf_count=86 30 123 1501 28 179 634 60 87 130 375 45 140 103 103 1626
internal_value=0 0.000643108 -0.00083983 -0.00101233 0.000108621 -0.00014933 -0.00108608 -0.000343724 0.000916527 -0.000610026 0.000336635 0.00015671 0.00023355 0.000708116 0.000979475
internal_weight=0 745.75 566.213 408.247 259.724 189.231 389.999 157.967 486.026 101.219 18.2476 56.748 47.2463 70.4924 438.78
internal_count=5250 2984 2266 1634 1039 757 1561 632 1945 405 73 227 189 282 1756
is_linear=0
shrinkage=0.001


Tree=49
num_leaves=14
num_cat=0
split_feature=1 16 10 12 5 15 6 14 15 19 14 11 11
split_gain=414.389 85.969 62.8052 43.9138 40.1758 28.6599 24.8293 16.9074 16.324 9.50961 7.82194 6.56047 5.26316
threshold=1.0000000180025095e-35 0.19586287059618332 0.11141791067681191 -0.59957411254412052 1.5000000000000002 1.849693534836016 1.0000000180025095e-35 0.18072341566466296 -1.1406499314765872 -1.5205131796873534 0.84745457080778264 0.32969793372435674 1.8911156317298767
decision_type=2 2 2 2 2 2 2 2 2 2 2 2 2
left_child=1 5 6 8 12 7 -2 -1 -3 -5 -6 -8 -4
right_child=2 3 4 9 10 -7 11 -9 -10 -11 -12 -13 -14
leaf_value=0.000656895863118324 -0.00053505147991736641 0.00039261437565933757 -0.00053505147991736641 0.00039261437565933757 -0.00022556701775467003 1.6339677826709753e-05 -0.0011327551621494404 0.0012356748706569122 1.6339677826709753e-05 0.0010095356098954354 1.6339677826709753e-05 -0.00077026908384618495 1.6339677826709753e-05
leaf_weight=188.41841457784176 62.965680688619614 27.496924504637718 148.9264369904995 24.248230308294296 136.69327452778816 7.4987757951021186 223.37286286056042 148.65957351028919 191.46214713156223 49.482786357402802 53.73024608194828 42.735751464962959 6.2484196573495856
leaf_count=754 252 110 596 97 547 30 894 595 766 198 215 171 25
internal_value=0 0.000572252 -0.000539573 0.000159883 -0.000225949 0.000900689 -0.000844154 0.000954489 1.63397e-05 0.000768889 1.63397e-05 -0.00100549 -0.000535051
internal_weight=0 637.267 674.673 292.69 345.598 344.577 329.074 337.078 218.959 73.731 190.424 266.109 155.175
internal_count=5250 2550 2700 1171 1383 1379 1317 1349 876 295 762 1065 621
is_linear=0
shrinkage=0.001


Tree=50
num_leaves=16
num_cat=0
split_feature=0 16 0 0 0 20 13 11 2 15 20 20 20 10 19
split_gain=722.159 109.148 44.1618 47.6674 42.7771 25.5472 25.4151 24.5184 22.7968 17.5695 17.668 12.6828 11.3983 8.92062 1.04359
threshold=32.500000000000007 0.45834912808741762 36.500000000000007 44.000000000000007 21.500000000000004 2.004289339117995 -0.28870578512508943 0.24581536097895901 1.0000000180025095e-35 1.849693534836016 -1.4426488034406402 -0.51135433808815167 -0.78047594408380949 0.24170549942093261 -0.58060474541194507
decision_type=2 2 2 2 2 2 2 2 2 2 2 2 2 2 2
left_child=1 9 7 5 6 -4 -3 13 -6 10 -1 -5 -9 -2 -11
right_child=2 4 3 11 8 -7 -8 12 -10 14 -12 -13 -14 -15 -16
leaf_value=0.00040273688578671232 -0.00083741709063805405 -0.0010399726460316146 -0.0011340282505629816 -0.00034704816260187026 0.0010591030752271544 9.5882174572632393e-05 0.00042016596948014776 -0.00022598421888466897 0.00013991749183083461 8.4498792139143359e-05 0.0010063819631983429 0.00072530297601034919 0.00044890741794350079 -0.00022598421888466897 -0.00025233228890077578
leaf_weight=47.245863303542137 56.727107629179955 30.236913979053497 374.981076836586 6.9990229457616833 17.744340986013412 14.999870821833609 6.7489310353994361 21.748857274651527 199.49386882781982 4.9993782341480255 432.51383140683174 11.248425334692 34.998999863862991 44.488723650574684 6.748653978109358
leaf_count=189 227 121 1501 28 71 60 27 87 798 20 1731 45 140 178 27
internal_value=0 0.000642084 -0.000838403 -0.00101073 0.000100229 -0.00108443 -0.000725332 -0.000342866 0.000279416 0.000910686 0.000939987 0.000336968 0.00015691 -0.000608878 -0.000134513
internal_weight=0 745.732 566.192 408.228 254.224 389.981 36.9858 157.964 217.238 491.508 479.76 18.2474 56.7479 101.216 11.748
internal_count=5250 2984 2266 1634 1017 1561 148 632 869 1967 1920 73 227 405 47
is_linear=0
shrinkage=0.001


Tree=51
num_leaves=16
num_cat=0
split_feature=0 16 0 0 0 20 13 11 15 15 20 1 20 20 19
split_gain=720.789 108.928 44.0671 47.5912 42.7135 25.5029 25.3892 24.4772 18.2187 17.5408 17.6409 16.6984 12.6732 11.3844 1.04301
threshold=32.500000000000007 0.45834912808741762 36.500000000000007 44.000000000000007 21.500000000000004 2.004289339117995 -0.28870578512508943 0.24581536097895901 -1.1406499314765872 1.849693534836016 -1.4426488034406402 1.0000000180025095e-35 -0.51135433808815167 -0.78047594408380949 -0.58060474541194507
decision_type=2 2 2 2 2 2 2 2 2 2 2 2 2 2 2
left_child=1 9 7 5 6 -4 -3 11 -6 10 -1 -2 -5 -9 -11
right_child=2 4 3 12 8 -7 -8 13 -10 14 -12 -13 -14 -15 -16
leaf_value=0.00040231152860095303 -0.00022581456210142686 -0.0010392926772754983 -0.0011329712103690162 -0.00034693822084924561 0.00075934562837504745 9.5834232009571932e-05 0.00042003624095526175 -0.00022581456210142686 0.00010368565996898917 8.4477692943323542e-05 0.0010054320817245725 -0.00078818778029373943 0.00072499483390684502 0.00044859392519795179 -0.00025225371907861379
leaf_weight=47.245700165629387 7.4999728500843039 30.236254006624222 374.9695975035429 6.9989940077066448 44.496324762701988 14.999874353408812 6.7488967925310126 21.748821079730988 172.7414253205061 4.9993736445903778 432.50369814038277 93.714765399694443 11.248328834772108 34.998918682336807 6.7486775368452054
leaf_count=189 30 121 1501 28 178 60 27 87 691 20 1731 375 45 140 27
internal_value=0 0.000641474 -0.000837622 -0.00100977 0.000100162 -0.00108341 -0.000724791 -0.000342598 0.000279215 0.000909811 0.000939088 -0.000608389 0.000336797 0.000156759 -0.000134465
internal_weight=0 745.72 566.179 408.217 254.223 389.969 36.9852 157.962 217.238 491.497 479.749 101.215 18.2473 56.7477 11.7481
internal_count=5250 2984 2266 1634 1017 1561 148 632 869 1967 1920 405 73 227 47
is_linear=0
shrinkage=0.001


Tree=52
num_leaves=16
num_cat=0
split_feature=0 16 0 0 0 2 20 14 11 15 20 1 20 20 9
split_gain=719.385 108.718 43.9903 47.5151 41.9972 25.588 25.4587 24.827 24.4267 18.4997 18.1403 16.6833 12.6636 11.3704 0.843659
threshold=32.500000000000007 0.4361200989532476 36.500000000000007 44.000000000000007 21.500000000000004 1.0000000180025095e-35 2.004289339117995 0.23035943001693102 0.24581536097895901 1.849693534836016 -1.4426488034406402 1.0000000180025095e-35 -0.51135433808815167 -1.1806507476361707 1.1138510975415812
decision_type=2 2 2 2 2 2 2 2 2 2 2 2 2 2 2
left_child=1 9 8 6 7 -6 -4 -3 11 10 -1 -2 -5 -10 -11
right_child=2 4 3 12 5 -7 -8 -9 13 14 -12 -13 -14 -15 -16
leaf_value=0.00039466073052803186 -0.00022556828661102896 -0.00098553992909329526 -0.0011319158098120298 -0.00034682830612105692 0.0010917765944667519 0.00013668574200824353 9.5786298255798864e-05 0.00048338439652372694 -0.00022556828661102896 5.8172272387779614e-05 0.0010112086528846771 -0.00078751874691601761 0.00072468687619319091 0.0004125885335427848 -0.00025718442464621661
leaf_weight=47.245532631874084 7.499974697828292 32.73535530269146 374.95788690447807 6.9989647120237377 18.993539124727249 202.99205406010151 14.999877929687498 4.9987877905368796 15.999125048518179 5.2492710053920728 427.24540013074875 93.713328510522842 11.248229563236235 40.74849309027195 6.2488705515861511
leaf_count=189 30 131 1501 28 76 812 60 20 64 21 1710 375 45 163 25
internal_value=0 0.000640859 -0.000836811 -0.00100881 0.000108226 0.000283181 -0.0010824 -0.000705008 -0.000342227 0.000913344 0.000943556 -0.000607746 0.000336626 0.000156609 -0.000154235
internal_weight=0 745.709 566.166 408.205 259.72 221.986 389.958 37.7341 157.961 485.989 474.491 101.213 18.2472 56.7476 11.4981
internal_count=5250 2984 2266 1634 1039 888 1561 151 632 1945 1899 405 73 227 46
is_linear=0
shrinkage=0.001


Tree=53
num_leaves=16
num_cat=0
split_feature=0 16 12 0 0 0 20 11 15 20 1 20 20 19 9
split_gain=717.998 108.497 44.0269 43.9113 47.4392 40.9 25.4147 24.3738 18.4704 18.1122 16.6676 12.654 11.3596 11.2392 0.843197
